3491 100
[FORWARD] -0.059641257 0.18155879 0.08852851 -0.028179184 -0.16713294 -0.121202655 -0.056966808 0.66907203 -0.62450504 -0.20471588 0.071443036 -0.1935269 -0.2221911 -0.09619292 -0.052793887 -0.47569737 0.31953228 0.00027498504 -0.29449677 -0.33256307 0.20574547 0.51359284 -0.3770246 0.076279745 0.003595411 -0.06766173 -0.093779966 -0.087405406 -0.08556226 -0.13508476 -0.2445054 -0.52789724 0.18341348 -0.027868615 0.2064168 0.1886801 -0.22566925 0.091143236 0.18792403 -0.28555462 -0.11121336 0.07611998 0.12539825 0.34059614 -0.0017024963 -0.23781404 -0.3156556 -0.037571568 -0.22022574 0.32994217 0.2308742 -0.29115787 -0.071427524 0.18870862 0.29270825 -0.45267522 0.036735862 -0.28676274 -0.26701382 0.5394267 0.236784 0.22143555 0.20993854 -0.04910598 -0.6051379 0.117256925 -0.2484924 0.32650107 -0.26936486 -0.024457896 0.120500796 -0.11193387 -0.13269386 -0.4224875 0.04012906 0.4038536 0.010737094 0.15141098 -0.16465579 -0.2579935 -0.093248166 0.22132955 -0.029645722 0.13577743 0.19582354 0.07883548 0.36735132 -0.50985324 0.10306656 0.46760055 0.15242141 0.24041405 -0.12333131 0.11311106 -0.008714 0.53372633 0.016170891 -0.26841152 0.2538019 0.067316666
[N] -0.33709288 0.9217738 0.22339383 -0.03541139 0.031481657 -0.47052848 -0.085444346 0.90967286 -0.14565499 -0.2670456 -0.19163804 -0.16503333 -0.5457687 -0.08201174 0.20006804 -0.10027903 0.58993965 0.098329805 -0.21239868 -0.17881724 0.12995066 0.014280538 0.042338114 0.07847963 0.06588725 0.25290018 -0.17997758 0.088755675 -0.28248048 0.4231182 0.32806706 -0.32813904 -0.12789108 0.00331664 0.5147431 0.38682082 0.23967719 -0.058794063 0.022135641 0.2281864 0.0177394 0.23949741 -0.00905982 0.4198314 0.112575084 0.36796227 0.28831604 0.010466985 0.3109214 0.05716671 0.2905972 -0.7575199 -0.5322752 0.14364718 -0.11043153 0.22555299 0.076317504 0.09094026 0.2718175 0.0023195576 -0.43803793 0.26241893 -0.4023297 -0.34255278 -0.34539834 -0.09244833 -0.065313615 0.19822875 0.22206117 0.5209925 -0.025045402 -0.114041224 0.32606822 0.30781624 0.11141107 0.1466721 -0.4286532 0.23125674 0.069163516 -0.3104959 -0.20723711 0.20467646 0.10617154 -0.45015013 0.20376655 -0.22924398 0.0513329 0.08573721 -0.21054138 -0.33490416 0.6578137 -0.07616814 0.027235927 -0.12476974 -0.18665972 0.53175557 0.29221722 -0.56723034 -0.31066608 -0.018883528
武汉 0.036345996 0.6330781 0.31421846 0.0074706245 0.19182086 -0.08941021 -0.08868074 0.6062277 -0.44915178 -0.34320676 -0.24833275 -0.3403304 0.24221514 -0.05756426 -0.007694391 -0.25246835 0.38493615 -0.015526045 -0.25401843 -0.35388982 0.089235745 -0.18894118 0.111254044 -0.6038404 0.009000209 0.058484066 -0.10650627 -0.011631225 -0.56585336 0.22381598 0.098958775 -0.26334906 -0.055272903 -0.05981507 -0.24661332 0.058814067 0.015970575 0.15120195 0.003137886 -0.1306875 -0.170842 0.06630021 0.099003285 0.441802 -0.017499488 0.07590682 -0.13655314 -0.46647602 -0.08828032 -0.4321704 0.2457468 0.026182473 -0.22122237 0.23856656 -0.21502249 -0.47721496 0.23967096 -0.078290105 0.21700373 0.12440954 -0.0062335264 -0.09697553 0.27102804 -0.26739553 -0.2019096 0.23343441 0.0901269 0.4462524 -0.325024 0.2073769 0.4854708 0.20599508 -0.00097535393 0.21761926 0.046150137 0.7569292 0.39138415 0.1496536 -0.07106556 -0.36678866 0.4650588 -0.0429005 -0.26581594 0.070502974 0.24468374 -0.13115746 -0.26941812 0.0680051 0.15354618 0.013369808 0.020733424 -0.07411485 0.05947498 0.21945201 0.58498275 0.44701558 -0.06562105 -0.22910312 0.1872666 -0.18347497
不 0.37779412 0.3424755 0.53080547 -0.22699472 0.20064287 -0.17098625 0.33025816 0.40348548 -0.008885773 -0.19455357 0.060008697 -0.007065413 -0.29321402 -0.4933457 0.04653477 0.069766596 0.3547264 -0.42855078 -0.21880665 -0.09386971 0.11640495 -0.23108089 0.4626409 -0.07696521 -0.24794698 0.20733231 0.102039166 -0.1792621 0.29048887 -0.089100026 -0.13522522 -0.18271932 0.11151917 -0.176381 0.38969338 0.656571 -0.19453657 0.1622344 -0.20259565 -0.19843413 0.052757576 0.2248087 0.32813796 -0.071328625 0.44901478 0.23033631 -0.14128074 -0.20432162 -0.27806926 0.109654225 0.16114746 -0.27848595 -0.37522265 -0.029920314 -0.2084067 -0.045597658 0.33044904 0.29642677 -0.080938175 -0.088773824 -0.19623739 -0.06853226 0.07382278 -0.06230793 0.010893128 -0.20868704 -0.2557114 0.19391522 0.007506022 -0.18367846 0.17854726 -0.29355353 0.045343895 -0.40827143 -0.22829536 -0.027934156 -0.6526639 -0.1634717 -0.22956018 -0.3125335 -0.40492824 0.25220942 -0.22736084 0.18913549 0.19993192 0.074418984 0.118002005 0.013738927 0.15341733 -0.38840613 -0.1480531 0.3654778 -0.20824426 -0.060502067 0.03566484 0.47209427 -0.06375293 -0.3790892 0.25062802 -0.14658573
加油 -0.30736783 0.87162226 0.17819287 -0.016773915 0.20215148 0.060243055 -0.5633479 0.70122725 -0.6519701 -0.61123353 -0.2108114 -0.50736076 0.29729834 0.06928708 -0.21527538 -0.40771917 0.09024974 0.26438272 -0.051468838 -0.75348914 -0.26149136 0.16648065 0.012660752 -0.29388008 -0.10919383 0.41707453 -0.38934523 0.086000904 -0.63913554 0.018842373 0.0375563 -0.14790428 -0.09596666 0.10351182 -0.05874406 0.30622894 -0.477094 0.05942322 0.24903546 -0.767903 -0.089346364 -0.4186506 0.04839851 0.45984066 0.25550357 -0.35697353 -0.7608118 -0.60368323 -0.25714993 -0.8625433 0.18338487 -0.026097663 -0.38057137 0.03287032 -0.11720687 -0.417629 -0.058756452 -0.65177697 -0.13222203 0.011017863 0.20049846 0.36171165 0.36218295 -0.04439324 -0.79293776 0.21224535 0.232541 0.60647595 -0.25632355 0.3762169 0.54111004 0.44206464 -0.06448177 0.06796572 0.14562517 0.12858205 -0.25523236 0.33211777 -0.12577918 -0.38133216 -0.27988806 -0.20389998 -0.6469181 0.39830047 -0.26215637 -0.26216942 -0.013405794 -0.022607533 0.061141174 -0.19490243 0.47000706 0.049272425 -0.71650827 0.19814655 0.71172184 0.4055893 -0.2694097 -0.20045874 0.51350576 0.075285636
都 -0.06404687 0.17824027 0.27592304 0.13022031 -0.061608933 -0.24190015 -0.0814561 0.21370013 -0.27747482 -0.02048311 -0.4590156 -0.65748364 -0.13675869 -0.14194767 -0.36598808 -0.26673135 0.16863781 -0.18575291 -0.36943442 -0.4961537 0.22941239 0.060711563 0.09914066 0.2870869 0.07701165 -0.32899553 -0.007522701 -0.26239878 0.12518904 0.07781541 0.21388991 -0.39832857 -0.00059255696 -0.26255444 -0.073803425 0.54645747 0.24168245 0.1389595 0.078341745 -0.52724695 0.2694753 -0.1531513 0.025209505 0.19032578 -0.06564176 -0.2159634 -0.3289562 0.15584381 -0.21581514 0.21171142 -0.019215254 -0.7489864 -0.00986869 0.30904335 0.019050026 -0.25330284 0.14671057 0.03538617 -0.053110603 -0.27900115 0.33430544 -0.16388693 0.3414562 -0.09880588 -0.4728846 0.26947036 -0.21195534 0.02563186 -0.32496727 -0.09637183 0.31195733 0.38171667 0.3393961 -0.01520359 0.38773865 0.039961185 0.26729938 -0.37711003 -0.19013608 -0.0057231453 -0.069795355 -0.045689076 -0.18439215 -0.27896342 0.1783352 0.25060585 0.08855851 -0.28030324 0.106374934 0.052731343 -0.11082642 -0.036166262 -0.25732222 0.023141164 0.043936994 0.35947004 0.1838876 -0.25591862 0.30784518 0.14933428
人 0.04874342 -0.14001395 0.26828274 0.35148668 0.2947329 -0.036014605 0.17857558 0.22092116 -0.1679859 -0.0364466 -0.35579222 -0.26460448 -0.22309192 0.07406783 -0.08827928 0.26836985 0.29608858 -0.51863974 -0.09173252 -0.33330134 0.07921295 0.35091296 0.009807004 0.17989016 -0.22061183 -0.23556705 -0.031674623 -0.13944264 0.046267003 0.30674455 -0.031245645 0.3070577 -0.17987444 0.102827735 0.30209044 0.33027253 0.30185512 0.18525311 -0.27315482 -0.4014102 0.013877918 -0.18597578 -0.048612565 -0.32868135 0.020807983 0.1380852 -0.37384292 -0.105301075 -0.18461034 -0.029579766 0.32885754 -0.5434127 -0.20773263 0.2516426 0.37876096 -0.08371311 0.12402135 0.2323518 -0.15382582 -0.11029625 -0.17649922 -0.38099238 0.1565257 -0.14518733 -0.20936483 0.24079232 -0.48571452 0.4723955 -0.2897356 -0.5374398 0.1940506 0.17109224 0.060194228 -0.21470548 0.58658147 -0.09143879 0.41902533 0.06303249 -0.19075823 0.19372198 -0.07665952 -0.08879546 -0.5248175 0.025862396 0.1601003 0.18333 -0.05613553 -0.16039407 0.061725557 0.115731314 0.057425205 0.29948413 0.23111737 0.17380089 0.2509383 0.053552505 -0.101900995 -0.53112274 0.26155248 0.45623624
人员 0.3524964 0.021516686 0.45735714 0.39601818 0.1426352 -0.43533126 -0.27915633 0.83793974 -0.4808078 -0.19352552 -0.17684007 -0.33659482 -0.066341385 -0.14984919 0.051314622 0.07203462 0.2697927 -0.71002376 -0.59749687 -0.5585516 0.29047164 0.3056634 -0.39272887 -0.12420251 0.18490206 0.045926727 -0.2260405 0.0836682 -0.8471217 0.29374114 -0.30983227 0.1576502 -0.37888893 0.5121691 -0.19126615 0.59968424 0.0706259 0.19342269 -0.13570188 -0.39132574 0.13408622 -0.121745944 0.2999166 0.4801106 -0.21218428 -0.167647 -0.48483837 0.16114447 0.06931834 -0.30514562 0.14238244 -0.17499265 -0.072325766 0.3642472 -0.049719892 0.067872584 0.1521169 0.04557851 -0.39764217 0.19447571 0.316851 0.7167885 -0.03939208 -0.4332711 -0.22670771 0.2901107 -0.16895588 0.30855012 -0.22094312 0.060531467 0.43522736 0.28280032 0.21172635 -0.015736727 -0.27665132 0.46503735 -0.030873168 0.39039224 0.015802195 -0.3187938 -0.4784064 0.66264695 -0.8554497 -0.1005997 0.16820718 0.48335204 -0.093969844 -0.1674875 0.30712336 0.25810227 0.39165828 -0.22113088 -0.17151868 0.43663886 0.29399028 0.43805334 -0.77522516 0.0066030826 -0.22348331 -0.20207202
好 -0.17099322 0.25334048 0.09638864 0.46047562 0.24208109 -0.09495639 -0.2524373 0.5362983 -0.42899874 -0.2596287 0.42810345 -0.25030366 0.1348125 -0.025266282 -0.07741882 -0.27598432 0.1767656 -0.50172776 -0.6908796 -0.4785208 0.07648927 0.41632536 0.254643 -0.0036770604 0.098140635 0.2974822 -0.4286522 0.16659611 -0.030919297 0.1730601 0.12510313 -0.4439472 0.12702918 -0.03578619 -0.15199137 0.28448176 -0.16794929 -0.16091202 0.11732419 -0.29565012 0.2662334 -0.14658484 0.08295159 0.02529993 -0.25052187 -0.41270778 -0.13148677 -0.022131752 -0.19359842 0.15840146 0.23481978 0.11750137 -0.2779577 0.32655612 -0.069817476 -0.014223327 -0.19257016 -0.11960385 -0.15926719 -0.38899302 -0.06989519 0.15933558 0.20775251 -0.15323846 -0.5805019 0.033948954 -0.08450762 0.1722737 -0.14204502 -0.28972152 0.060561538 0.5302708 0.28686187 0.013555463 0.2574612 -0.28640962 -0.24004027 0.13808164 -0.33633828 -0.051164303 -0.36639068 0.009963908 0.14474672 0.028439173 0.2337676 0.12081624 0.14137715 -0.25334275 0.13519053 0.23992139 0.37728938 0.23996592 -0.38957 0.05755194 0.27481282 0.11381418 -0.24105485 -0.22913316 0.1866396 0.14432834
致敬 -0.47946033 0.1649627 0.31057918 0.23045963 0.25762004 -0.28029248 -0.8282871 0.569006 -0.75880486 -0.40884724 0.1323347 -0.38040257 -0.34730694 -0.18074995 -0.20917596 -0.38763893 0.27722406 -0.71150136 -0.40870363 -0.9123086 0.21871614 0.870809 -0.6552436 -0.26456457 0.41727245 -0.092871815 -0.45772272 0.6702231 -1.0634996 -0.21175145 -0.11263488 0.07444743 -0.21579252 0.046413206 -0.1034824 0.82327205 -0.32120952 0.05109705 0.14818268 -0.68732405 0.52468234 -0.38039806 0.41364723 0.6129582 -0.29459786 -0.16678602 -1.0440379 0.05969852 0.3298338 -0.11697931 0.12442096 -0.39334443 0.007113314 0.23905635 0.011433747 -0.14630297 0.2466009 -0.23792927 -0.3717462 0.08497232 0.3776526 0.9121219 0.050084665 -0.1946819 -0.87490004 0.13316661 0.3814655 0.37594262 -0.24103692 -0.20890862 0.046053663 0.4230189 0.21886468 -0.82202584 0.05997439 -0.004607719 -0.38465983 0.19075043 -0.44509298 -0.4800557 -0.6518798 0.67692244 -0.6884957 0.20711704 0.49650618 0.175698 -0.09075411 -0.230117 0.22799575 -0.192973 0.6823819 0.09699576 -0.570741 0.37041304 0.70036215 0.31018814 -0.72642004 0.13211823 0.23182996 0.22653078
疫情 0.10268755 -0.10567744 0.60735166 0.1336579 -0.028231943 -0.094303414 -0.8008122 0.67141885 -0.4499072 0.070715494 0.007839162 -0.21485576 0.05161033 -0.18225807 0.02917535 -0.16828167 0.7449078 0.07344952 -0.09350936 -0.82375103 0.18716758 0.16970141 -0.008172911 -0.12161713 -0.4674633 0.3003044 -0.40649512 -0.32729682 -0.21042582 0.39779553 -0.37767553 0.12620838 -0.120528355 0.3035048 0.08805374 0.33307782 0.18698493 -0.17381713 -0.048708644 -0.3814617 -0.21726717 -0.60039616 -0.019056922 0.29796368 -0.5826316 -0.10710217 -0.3015245 -0.1582172 0.20929022 -0.05818364 0.15449262 0.035417818 -0.04849572 0.12196457 0.004823087 -0.29339868 -0.19260532 0.18647933 0.32296798 0.23473462 -0.53091246 0.5419635 0.33360705 -0.10714792 -0.26310003 0.013418241 -0.014078635 0.27285293 0.18829769 -0.21204452 0.24217424 0.41622344 0.05169168 0.2427768 0.055352237 0.35264945 0.022479864 -0.42429423 -0.39664355 -0.03123293 -0.24073029 0.51460624 0.046221275 0.08568911 -0.13114192 0.12922382 0.19503325 0.27665383 0.8808628 -0.008922994 0.4576539 -0.06780767 -0.049382903 0.23102725 -0.1738824 0.08861884 -0.37097138 -0.1591463 0.083221525 -0.24951395
医护 -0.013132655 0.18437418 0.4068826 0.40099156 0.155372 -0.287123 -0.5267867 0.7135474 -0.39043492 0.00032113594 -0.05085648 -0.4763623 0.04814692 -0.33958584 -0.14045052 -0.11050559 0.015901186 -0.5288803 -0.49197006 -0.6848166 0.3591628 0.56257343 -0.53963876 -0.0679031 -0.014794249 -0.14734842 -0.30813307 0.2532095 -0.66732615 0.18334836 -0.22276133 0.07549875 0.04882894 0.53068113 -0.48508412 0.72408414 -0.14570776 -0.294016 -0.0014558566 -0.66877216 0.35158157 -0.433596 0.34572047 0.45102045 -0.30460024 -0.062070422 -0.5427187 0.31303287 0.38258106 -0.20856914 0.3004791 -0.26336434 0.08347817 0.2713482 -0.051366452 0.018078115 0.3283533 -0.10883711 -0.49541324 0.1600031 0.22901545 0.3880794 0.4441854 -0.024981687 -0.4818568 0.23689233 0.267869 0.34602386 -0.3290686 0.0558949 0.06911523 0.60369647 0.19878359 -0.24775742 0.056552786 0.45614943 -0.08432732 0.47970593 0.045070454 -0.4687428 -0.52825695 0.59836364 -0.81181777 -0.101977706 0.4466872 0.4286917 -0.2374104 0.0213606 0.52016073 0.055282183 0.31904212 -0.1013099 -0.2974065 0.40978023 0.36998862 0.33680472 -0.8479503 -0.052910715 0.079048716 0.06010296
[心] -0.50903445 0.5743874 0.16940443 -0.060420625 0.2916239 -0.21996936 -0.94495153 0.6430897 -0.4596211 -0.27421203 0.00846068 -0.61584085 -0.36434352 -0.20833965 -0.59049296 -0.35703412 -0.06031619 -0.32648993 -0.19754761 -0.90248466 -0.028916294 0.47738716 -0.22116463 0.017069457 0.259259 0.22383715 -0.52260524 0.064469755 -0.6877743 0.23985842 -0.17073885 -0.122130215 -0.08298417 -0.097214244 0.16096857 0.6754501 -0.30421147 -0.34636378 0.12677635 -1.2875702 0.11153405 -0.37536734 -0.17386447 0.49572787 -0.124120995 -0.49252713 -0.43996647 -0.48922527 -0.1777348 -0.2425945 -0.04916139 -0.26790157 -0.0090378355 0.07611605 -0.036660474 -0.3947736 -0.039513964 -0.42524225 -0.07205503 -0.21585627 0.37072358 0.495626 0.058723096 0.0039010155 -0.6479617 0.27943596 0.14406368 0.13054202 -0.2419984 0.1529834 0.23561335 0.4794913 0.49316096 -0.5842519 -0.0069825156 -0.13583004 -0.6575134 -0.03969975 -0.092634015 -0.6756532 -0.33993104 0.4453409 -0.73084986 0.50087583 -0.23495555 -0.16848588 0.12737845 0.10444557 -0.090051144 0.1611591 0.1565416 0.23580931 -0.43981558 0.29847905 0.62718564 0.47812277 -0.34724516 -0.1976737 -0.09713529 0.3032919
肺炎 -0.010125801 0.60018677 0.33600444 0.1544269 0.26208046 0.15366897 -0.28701198 0.20506664 -0.36558124 -0.32061234 -0.111122936 -0.30124736 -0.421919 -0.45549262 0.23298407 -0.07928105 0.049094133 -0.3880845 0.037994962 -0.34772682 0.32002226 -0.15846433 -0.08585593 0.114062205 0.14529626 0.3313389 -0.26591608 -0.4437618 0.033517953 0.066255555 -0.16685368 0.3836278 -0.082176514 -0.36221978 0.3414296 0.14977436 -0.32446337 0.25436497 -0.4501311 -0.12272586 -0.46757942 -0.43383503 0.30428392 0.096987255 -0.12079383 -0.18999806 0.35367844 -0.23437108 0.16656329 0.094408944 0.4304396 -0.036509693 -0.43333545 -0.12857306 -0.38490522 -0.022681441 0.12178356 -0.0069600698 0.20250598 0.22185515 -0.037088607 -0.012237424 0.3092826 0.4560702 -0.0081550665 0.04147955 -0.10948206 0.49998763 -0.33946064 0.015785102 -0.4171837 -0.25942817 0.2490453 0.2375038 0.9303107 0.33551472 0.118398495 0.29983738 0.08766839 -0.5775126 -0.5612307 0.11243851 0.018920505 0.36972037 0.16735356 0.13072222 0.2261765 0.37488332 0.35241845 -0.036417797 0.40989223 0.023650896 -0.046351753 -0.13598222 0.07703458 0.19413267 -0.15399806 0.1304863 -0.123260334 0.11788652
新型 0.1651722 0.7981728 0.16775197 0.033222318 0.28779405 0.09581009 -0.4031738 0.38283968 -0.46643034 0.03557572 -0.017619032 -0.43619314 -0.47555012 -0.22496475 -0.03749404 -0.04407663 -0.013007355 -0.2585285 0.02188996 -0.5263025 0.33706975 -0.0623977 -0.3541407 -0.026532395 0.043764103 0.24021913 -0.054269418 -0.44182536 -0.35994667 0.07769133 -0.24475712 0.12665936 -0.12843342 -0.35523203 0.27001533 0.12876847 0.059573684 0.32258245 -0.13575135 -0.18054293 -0.5661183 -0.18061021 0.4908092 -0.00020388831 0.15746994 -0.8682791 0.15593852 -0.31721768 0.329557 0.2283516 0.5276651 -0.41951287 -0.24716893 -0.11247565 -0.15305829 -0.15409905 0.045208465 -0.14712195 0.2718644 0.14955148 -0.5793862 -0.19374673 0.22071142 0.5349854 -0.35352328 0.28767768 -0.15466063 0.37914813 -0.070141055 0.17469315 -0.17292912 -0.18907332 0.26172227 0.12575479 0.69078517 0.11089293 0.361588 0.534627 0.1621541 -0.1770133 -0.78281045 0.14653859 -0.05703496 0.04375036 0.21301354 0.24130581 0.17697753 0.77420324 0.28277373 -0.107745536 0.65018445 -0.028827822 0.06430873 0.27890235 0.20231071 -0.0723426 -0.035959665 0.27973685 -0.08890333 0.11271127
大家 -0.2641873 0.3216189 0.5654861 0.31340274 0.3760783 -0.22067156 -0.5203464 0.40254763 -0.23869845 0.0113676 0.2409642 -0.5616773 -0.12423503 -0.16269252 -0.3458429 -0.07985033 0.35233688 -0.19536632 -0.5727787 -0.6422482 -0.23223966 0.34658787 -0.28173885 -0.22445408 0.15940905 0.19684425 -0.49060386 0.16757931 -0.15299888 -0.26455364 0.24214348 -0.019564036 -0.09056261 0.28939405 -0.1737283 0.7321231 0.19961776 -0.11185565 -0.087378755 -0.42896625 -0.07339716 -0.42376548 0.12930824 0.52085274 -0.072441794 -0.2168766 -0.4748562 -0.30328664 -0.013302776 -0.230997 -0.36582512 -0.20261888 -0.40076503 0.32612252 -0.05711231 -0.06936627 -0.021790255 0.051490642 0.19568765 -0.2117485 0.14841466 0.17306456 -0.17200498 -0.12373036 -0.1158128 -0.006131439 -0.17820917 0.590519 -0.30800003 0.26810467 0.21252903 0.4447897 0.058381792 -0.34388146 0.3314779 0.13501246 -0.0152142225 0.033048786 -0.37853265 -0.45107692 0.28145856 0.18965241 -0.18462309 0.1598493 -0.013376181 0.26801503 0.36469012 -0.43485993 0.41110134 0.76047933 0.265814 0.2498648 -0.16406862 0.17895535 -0.00934508 0.24496128 0.06088035 0.1871885 0.27219665 0.3922718
平安 -0.513379 0.45111006 -0.038149573 0.301194 0.33885893 0.15422599 -0.8754273 0.97231334 -1.0321901 -0.1634934 -0.21313955 -0.41617164 -0.19430524 0.12758535 -0.5585425 -0.5799656 -0.21153715 -0.36298168 -0.2799778 -0.7122832 -0.18598846 0.15827952 -0.47933856 0.27351606 -0.039949693 0.97010946 -0.04267754 0.08080115 -0.57418615 0.37546048 0.1488243 -0.36375538 0.2707629 -0.066002615 -0.10195172 1.1058527 -0.10095975 -0.17572951 0.0005067771 -0.53380024 0.59669644 -0.33482713 -0.22347671 0.5938953 -0.26863617 -0.4591566 -0.75092256 -0.66370016 0.1676288 0.18444254 0.23437543 -0.059477255 -0.036306467 0.61102974 -0.40651074 0.31379673 -0.09091445 -0.4828156 -0.72225904 0.09419835 0.7447895 0.42351183 -0.036888342 0.20714885 -0.096804515 0.5638221 0.352087 0.7909881 -0.31332642 0.084952876 -0.19405967 0.46100944 0.23076852 -0.18836917 -0.11058112 -0.27162513 -0.16532406 -0.12627997 -0.30358645 -0.66286963 -0.12795131 0.012655652 -1.0207871 0.23846367 0.107351825 0.22795153 0.055003524 -0.08545067 -0.0350418 0.41388458 0.4806011 -0.0017420938 0.15202484 0.35190713 0.10693177 0.4206798 0.022270128 -0.05689438 -0.22805358 0.3298575
病毒 -0.105171844 0.02038306 0.54947627 -0.29804495 -0.032286607 -0.48214084 -0.007943587 0.19191395 -0.2378753 -0.089812316 -0.3683586 -0.26287842 -0.19664113 0.23179041 -0.13832633 -0.31020504 0.4789579 -0.23250394 -0.21843225 -0.23373225 0.06632734 0.44210234 -0.35770443 -0.41303477 -0.17991252 0.15262741 0.14761743 -0.29854473 0.021378381 -0.23454088 -0.2092302 -0.088612035 -0.1839641 -0.44177726 -0.076468475 -0.058801956 0.062299777 0.46808022 -0.21986884 0.16627303 0.5246869 -0.18121266 0.4207566 -0.072393246 0.22050941 -0.21621375 -0.16648519 -0.4551555 0.13451111 0.21840723 1.0553962 -0.28655058 -0.27710757 -0.15612322 0.15844548 -0.013418795 0.44976035 -0.064070605 0.21196318 0.17790748 -0.86963177 0.03753362 -0.011648853 0.31477177 -0.107601926 -0.090519816 -0.072151005 0.08109772 0.13359757 0.10039717 -0.21953923 -0.04122705 0.15741463 -0.0966426 0.34437442 -0.12463734 0.41403943 0.32321623 -0.17653988 -0.34976935 -0.49283224 0.05247955 -0.2521892 0.27967656 0.075283684 0.5669005 0.7453901 0.32948765 -0.24479058 -0.2447525 0.42335123 -0.19280638 0.25682902 0.18855461 0.12860498 0.4937556 -0.035579886 0.3374469 0.189737 0.274193
一起 -0.06574247 0.056355942 0.017271034 0.14144102 0.61949277 0.5969092 -0.25726157 0.4632502 -0.60942453 -0.9892028 -0.16519652 -0.32879466 0.30503497 0.123799525 0.25461748 -0.29221052 0.26482278 0.46520755 0.12437674 -0.21978237 0.13766786 0.28118697 -0.063101314 -0.06181711 0.040557258 -0.34715942 -0.4720102 0.097616635 -0.24018134 -0.503087 0.32225737 -0.41416726 -0.37216344 0.24183261 -0.1576472 0.12402822 -0.7979093 0.56686133 0.01146829 -1.0754474 0.12618384 -0.542325 0.7413514 0.8970677 0.065291636 -0.06955322 -0.8498125 -0.86390007 0.052304544 -0.4021912 -0.056962796 -0.5924714 -0.45497108 0.16213955 -0.049036525 0.06868398 0.017495846 -0.31466833 0.34454218 -0.046873394 -0.038912676 0.23031892 0.67896146 0.656747 -1.1135874 0.421739 -0.005190541 0.9960776 -0.15454137 -0.113582335 0.38082916 0.24148458 0.21109453 -0.024365656 0.26317617 -0.26520884 -0.5557225 0.050350714 -0.66874486 -0.9406077 -0.22738574 0.08347415 -0.3895296 0.46439743 0.21391812 -0.10921111 0.45155475 0.13756984 0.34333247 0.13668187 0.6662092 -0.34761283 -0.52763236 0.824556 0.5887805 0.57079166 -0.049488295 -0.0039130524 0.6762331 -0.2482854
口罩 0.3167907 0.14902522 0.43035454 0.59365225 -0.61035365 -0.28970066 0.24850066 0.07433494 -0.47866356 -0.39001814 -0.70222723 -0.84435385 0.009493424 0.079227686 -0.07739203 0.24136567 0.2038435 -0.07195707 -0.13675071 -0.52573264 -0.34919742 0.4245837 -0.15692012 -0.007215621 0.14730574 0.23458716 -0.21310648 -0.31131873 -0.17636777 0.36630267 0.16460983 -0.004489131 0.4425733 -0.25592294 -0.08022552 0.33199722 -0.24192302 -0.5691332 -0.443405 -0.16671315 -0.2673764 0.056414474 0.51923704 0.81149197 -0.22604409 0.014004545 0.25025618 -0.55969024 0.18284413 -0.07788981 0.11837621 -0.3444437 -0.5005836 0.0059902673 -0.01646496 -0.40824068 -0.2263856 0.2995643 0.53231776 0.16895813 0.29781803 -0.5478804 -0.03243705 -0.21507983 -0.35095382 -0.20792995 -0.16168886 -0.19972178 -0.21329199 0.06348987 -0.3622718 0.35252333 -0.0841378 -0.28578267 -0.32480004 0.25432548 0.2675963 0.020496393 -0.4118802 -0.21990767 -0.31758538 0.47936982 -0.43819314 0.086836465 0.6470753 0.5946696 0.2319121 -0.38591635 0.0043205884 -0.32539162 0.23894177 0.43724826 -0.6134947 0.04355039 0.07991617 -0.21261741 -0.04301851 0.031049106 0.26333746 0.37298733
前线 -0.20117392 0.043112293 0.23148566 0.2109456 0.63816494 -0.4814514 -0.54481417 0.8076085 -0.4432174 0.32381633 0.4947223 -0.19420415 -0.08257906 -0.0603189 0.14696729 -0.47550246 0.45022285 -0.21028683 -0.6903397 -0.6945768 -0.12432485 0.8094915 -0.59924304 0.16316473 0.5442002 -0.043304 -0.4017643 -0.086567126 -0.76949006 -0.14840496 -0.26450896 -0.16047442 -0.023797158 0.36952522 -0.2815199 0.63196766 -0.13440824 -0.22291172 -0.027246887 -0.9723157 0.6153414 -0.8462786 0.15498486 0.7714453 -0.4587182 -0.28596777 -1.2130682 -0.22334515 0.31879392 -0.11151546 0.12963389 -0.670985 0.360132 0.17816897 -0.3681375 -0.07680272 0.10704642 -0.5658212 -0.09779668 -0.2089118 0.22766908 0.5154562 0.6529691 -0.38248134 -0.6538551 0.048057634 0.13583201 0.27753684 -0.19294268 -0.48321941 -0.14856249 -0.011554352 0.3558657 -0.4519846 0.06318332 0.50310165 0.09794989 0.20671922 -0.38109797 -0.34796348 -0.64704925 0.6930551 -0.3554309 0.07599959 0.2164323 0.57982326 -0.21754685 -0.07715684 0.01100724 0.1015999 0.2677928 -0.088139616 -0.14859436 0.37763736 0.7203561 0.6205322 -0.6906132 -0.022653582 0.09542335 0.3176261
[泪] 0.3370034 0.94228613 0.68523455 0.62695944 0.09364323 0.21876468 0.03583793 0.36093512 -0.37414256 0.039101772 -0.019387469 0.15319544 0.57339835 -0.3340592 0.09712702 0.014346539 0.82902837 -0.25587836 -0.34843746 -0.5875256 -0.26556972 0.3038053 -0.25973958 0.41118574 -0.34853908 0.367946 -0.12199017 0.22958195 0.2783403 0.3619362 0.07841306 -0.568478 -0.2805953 -0.39886034 0.076554745 -0.047367014 0.41727847 -0.43977177 0.38852513 -1.0184633 -0.18948245 -0.26461568 0.427281 -0.16833098 -0.17525876 -0.38261402 -0.08566029 0.20182346 -0.34962937 -0.3436168 -0.14297713 -0.38459283 -0.6179804 0.044523463 -0.4106044 -0.49196512 0.30769846 0.1285677 -0.17976724 -0.45782495 0.44352227 0.22107221 -0.096480526 0.6905594 -0.58953106 0.43669456 0.61067325 0.41854805 -1.1292677 0.0049401717 0.059543833 0.47339448 0.16209058 -0.46651158 0.42402494 0.047291916 0.32797143 0.095725305 0.26468068 -0.081753865 -0.17066896 -0.24580315 -0.112992704 -0.050348718 -0.07175383 0.28522804 0.4436809 -0.35631272 0.11656957 0.3043968 0.6673788 0.22289284 -0.20225644 0.1278494 0.231159 0.26825252 -0.053700484 -0.23414935 -0.012157359 -0.38635236
例 -0.4349269 0.53813255 0.4876698 0.5420727 -0.278101 -0.056739744 0.40788108 0.7490219 -0.8765435 -0.3395801 -0.72117084 -0.30392447 -0.2724005 -0.084375806 0.15766013 -0.2737341 -0.013048652 -0.24300602 0.44999912 -0.40541035 0.7893596 -0.3188229 -0.2429663 0.2898968 0.045555387 0.40467918 -0.6878136 0.07897908 -0.23523653 0.14882144 -0.11496402 -0.2538579 -0.10803031 -0.7347522 0.157915 0.12765364 0.48792917 -0.2246153 -0.23437645 0.17764848 -0.30104575 0.09029395 0.23892947 -0.32166958 0.08044364 -0.0015908206 -0.008668791 0.074074134 0.41996843 0.30940607 0.7871437 -0.2603283 -0.17435819 0.86267734 0.10766312 -0.045071796 0.27172357 -0.72977144 0.04724711 -0.09480163 -0.2802763 -0.14821292 0.0035162023 -0.17612825 -0.1622037 -0.16470483 0.0034362513 0.7878022 -0.3547468 0.46136013 -0.5078207 -0.14233258 0.58832186 -0.18286344 0.47991472 0.3071894 -0.38476697 -0.028717598 0.17712022 0.29321125 -0.4443011 0.010789001 -0.1426782 -0.4218315 -0.085792355 0.07333128 0.25107938 0.09955393 0.5521033 -0.18586014 0.5897969 -0.31064013 -0.3949585 0.10433575 0.19373572 0.35780695 0.2848907 -0.039034408 -0.13882138 0.55340934
冠 -0.029914267 0.25019473 0.3710748 -0.22351077 0.11592371 -0.048692312 -0.5128393 0.3495961 -0.14441182 -0.25946286 -0.4023803 -0.4181375 -0.14469574 -0.15282832 0.15892035 -0.33963752 0.34316117 0.018132554 -0.09455643 -0.4755283 0.36568043 0.1080538 -0.12894224 -0.35585368 -0.2265048 0.73691094 0.06986033 -0.29690814 0.12449715 0.16188766 -0.12135338 0.04496443 -0.2225694 -0.4736055 0.019722147 0.11795317 -0.1507744 0.35230547 -0.50204575 0.052255116 0.49610502 -0.011818933 0.4537353 0.024741082 0.063226774 -0.6303421 -0.09135822 -0.16627437 0.18506475 0.31824464 0.800193 -0.06756837 -0.36424428 -0.21726695 -0.06308311 0.22654605 0.21991713 0.02611018 0.0043100743 0.11245749 -0.97380143 -0.046144623 0.34131765 0.35767686 -0.16859108 0.16198385 0.005033482 0.6785482 0.22267102 0.44206256 -0.21841228 -0.040182773 0.26095393 -0.14032054 0.4288432 -0.024884207 0.39290488 0.69185394 0.02549442 -0.42580336 -0.4597641 0.09348935 -0.13515078 0.19036426 0.13894273 0.7033904 0.03561892 0.78572243 -0.13477537 -0.15410241 0.4005617 -0.16970882 -0.34407157 -0.032772604 -0.057744425 0.2922129 0.26921615 0.42378217 0.040931165 0.38025817
状 -0.23010822 0.43698508 0.32441127 -0.17416778 0.056211058 -0.05653822 -0.6066613 0.42206705 -0.2967446 -0.10697332 -0.14191718 -0.2913972 -0.12789609 -0.23799938 -0.032350287 0.13091187 0.26305526 0.009801058 -0.10869976 -0.6646721 0.29604837 0.18798947 -0.3065131 -0.41475472 -0.25821963 0.56311244 0.11494758 -0.34157357 0.18045071 0.06961762 -0.34275326 -0.06049579 -0.16387141 -0.36384445 -0.32775086 -0.24588037 0.017239653 0.25492412 -0.55158293 0.1817372 0.3849083 -0.41280186 0.51804876 -0.112588756 0.16010056 -0.64576787 -0.20242457 -0.26305938 0.16799289 0.41687816 0.92231894 -0.09896592 -0.4514863 -0.08826921 -0.25541487 0.37357777 0.21371911 -0.05977871 0.21906401 0.45050964 -1.0123931 0.12099831 0.07029037 0.3749244 -0.3114755 -0.10479574 -0.09923118 0.29310802 -0.049797755 0.6349288 -0.17760453 0.17985356 0.13081552 -0.29812503 0.5390374 -0.042906247 0.15773694 0.7351353 -0.08790615 -0.32299578 -0.5465882 0.13217607 -0.2718123 0.24200621 0.10720694 0.51253074 0.28515768 0.80716944 -0.14363053 -0.11531544 0.45159268 -0.35469586 -0.16176546 -0.15641944 0.0640918 0.13673061 0.30455893 0.4930783 0.29783466 0.23713605
愿 -0.42659813 -0.1404034 0.012014911 0.61471814 0.5938857 0.1966136 -1.0764691 1.4980814 -0.575464 -0.14379135 -0.62263864 -0.017000617 -0.437886 0.22074427 -0.4260202 -0.5053225 0.39934698 -0.29659295 -0.5695784 -1.2383381 -0.33552554 0.46725258 -0.79002166 -0.26698834 -0.13538173 0.44362667 -0.3266738 0.34939933 -0.7755316 0.025289008 -0.33377892 -0.39197904 -0.0968497 0.37042972 -0.35605288 0.8799417 0.15709397 0.18015599 -0.28871843 -0.77282166 -0.07907577 -0.27378538 0.23556054 0.5490128 -0.28288117 -0.21712586 -1.0003309 -0.2404565 0.10091422 -0.14976351 0.06306235 0.13365886 0.34317252 -0.032780625 -0.3247689 -0.13941017 -0.066080496 0.16637927 -0.18897921 -0.09314076 0.6187904 0.073128454 -0.17574175 0.6332302 -0.48825642 0.15177485 0.41968516 0.7608114 -0.46620068 -0.32555816 -0.4318389 -0.19347085 0.3734864 -0.37894017 0.24910934 -0.15320776 -0.48592502 -0.03863237 -0.7002963 -0.6134466 -0.33504578 0.39983115 -0.7748795 0.001951395 0.07111922 -0.36540902 -0.040187847 0.62290835 0.2759172 0.45781416 0.36678508 0.009013227 0.19262494 0.33518076 0.46017924 0.0015942217 -0.5937606 0.11997448 0.17629741 0.32707295
[URL] -0.5469649 0.13259724 -0.13218857 0.4556979 0.1956748 -0.31146762 -0.04675017 0.20754308 -0.5496961 -0.1411722 0.022035575 -0.14998731 -0.3325623 -0.108053595 0.2924171 0.25567645 0.17426945 0.14234927 -0.0036214322 -0.53204036 0.24802522 0.45999384 0.32307193 -0.37993506 -0.21350157 -0.11700528 -0.25010672 -0.041880094 0.1650768 0.1977245 0.13525485 -0.093155846 -0.6471345 -0.18089327 0.1205274 0.39947042 -0.36843982 0.049107894 0.26725626 0.15467487 -0.2645415 0.06486649 0.053381186 0.12815686 0.26679862 -0.348452 0.22129641 -0.12930733 0.8453481 -0.24948782 0.4279503 -0.20726976 -0.7386711 0.08879202 -0.20547545 0.089596175 0.3382964 0.037586115 0.006576512 -0.2711763 0.38232186 -0.42264974 0.17622592 0.4339212 -0.18688193 0.43858317 0.29847935 0.2543394 -0.19519427 -0.19893543 0.16671117 -0.20659536 0.41799766 0.15619703 0.62735116 -0.094113246 0.08505542 0.25138894 -0.046714008 -0.027802423 -0.39781058 0.36202517 -0.27316165 0.5045121 0.30170915 -0.082620695 0.0015107611 0.20379323 0.54078656 -0.13586324 0.55424005 -0.03958178 0.34987104 -0.06371116 -0.18641964 -0.2828925 0.21614009 -0.26562032 0.79691017 0.017049016
还 0.23863459 0.17187564 0.08534773 -0.02464458 0.27696902 -0.37849176 0.22255383 -0.15081662 0.3337398 -0.06349659 -0.04988691 -0.3722784 -0.5287081 -0.09573678 -0.09859518 -0.10675444 0.1123519 -0.35857916 -0.35151973 -0.31397617 0.032966323 0.5317439 0.22619906 -0.054583788 -0.04772111 -0.019665953 0.15077823 0.11004013 0.3681798 -0.31310147 0.33572152 -0.55626845 0.1924469 -0.43936166 -0.2560902 0.20925577 -0.15544945 -0.16115397 -0.32989186 -0.12500982 0.1383392 -0.14955905 0.54780173 -0.4195553 0.008804178 0.30020213 -0.12928529 -0.027719392 -0.03770113 0.3375551 0.0551456 -0.51956266 -0.18187597 -0.6252024 0.002592413 -0.40505672 0.5303873 0.30482638 0.21418634 -0.3743704 -0.32762924 -0.11736038 0.1708021 -0.1737367 -0.25036356 -0.09817109 -0.22364567 0.12442421 -0.41894123 0.08472309 0.021544363 0.15012337 0.18108064 -0.0064717946 -0.15646756 0.069843546 -0.04856848 0.115465075 -0.23467325 -0.03167922 0.023512855 0.2055398 -0.01814894 0.1858435 0.051090833 0.16926338 0.15639037 -0.07865822 0.55431604 -0.031936243 0.67728287 0.083656 0.4566116 -0.0043240157 0.42935625 0.14599694 -0.30559787 -0.13852508 -0.26557383 -0.35166004
! 0.14180203 0.3444677 0.22543013 0.5772041 -0.37192556 0.42584348 -0.1689172 0.45188272 -0.23882484 -0.11322886 0.05638367 -0.16499245 0.5278241 -0.43259576 0.029138364 0.07089628 0.62019086 0.07755906 -0.4374458 -0.54432595 0.47226465 0.33929217 -0.19773112 -0.043015245 -0.15274693 -0.25214127 -0.1881503 0.27971324 -0.098062806 -0.25862652 -0.1395993 -0.61924756 -0.1607122 -0.48620737 -0.17780624 0.42312562 0.26034474 0.033709966 0.26221192 -0.7509757 -0.5718054 0.005721614 0.36004815 -0.28122172 -0.15891215 0.34740424 -0.70220804 -0.67068565 -0.4227764 0.09029662 -0.11407845 0.07201801 -0.417766 0.3025999 -0.49961254 0.2513292 -0.013700447 -0.47910511 -0.4443137 -0.097433455 0.118609294 -0.4229307 0.18703921 -0.26142877 -0.009153744 -0.13850144 -0.4014598 0.11180264 0.27214742 0.46373805 -0.0125627685 0.0716096 0.11951103 0.04449385 0.31010032 0.45782998 -0.3439325 0.060660247 -0.37637007 -0.026883963 -0.15356188 0.393944 -0.17849742 0.2938854 -0.45882785 0.33321327 0.31341004 0.5249754 -0.51852787 0.389096 0.06482565 -0.0949931 -0.033758912 0.22592367 0.19413212 0.7854005 -0.0923088 -0.47679427 0.17684081 0.31421554
健康 -0.28172916 0.008805317 -0.18035449 0.24864341 0.4866564 -0.029856974 -0.4474115 0.7861838 -0.6296566 -0.118504055 -0.3299507 -0.43963355 -0.24982002 0.23943034 -0.013490088 -0.7837967 0.123852864 -0.8557478 -0.94108915 -0.9364238 -0.13381244 -0.29913652 -0.6074804 0.28196234 0.11284846 0.50245863 -0.15065959 0.20905004 -0.20861244 -0.25067273 -0.48090056 0.2910991 -0.05544556 0.6805466 -0.21493103 0.7195109 -0.102440305 -0.49212268 0.122895434 -0.15288343 -0.15236513 0.1910175 0.056264587 1.0830946 0.077484354 -0.5604767 -0.89290065 0.05061325 0.39170974 -0.041534264 0.12749197 -0.3283177 0.13447466 0.39728147 -0.6934706 0.22869316 0.39048204 -0.13855988 0.39333758 -0.061662618 0.48281085 0.0121919 -0.05422932 -0.22423957 0.14394704 -0.21204363 0.19572999 0.545644 0.17233203 0.36804777 -0.17109397 0.42673442 0.012497758 -0.23752204 -0.30838138 0.011832616 -0.21503627 0.13155417 -1.0312341 -0.3829164 -0.6363412 0.029408582 -0.33905032 -0.042123236 -0.34960142 0.79375917 -0.08331278 0.1299252 0.47933576 0.44921178 0.48892406 -0.024852721 0.17644617 0.42137575 0.29605573 -0.118838504 0.13332547 -0.27274776 -0.25482655 0.2824483
确诊 0.10768579 0.44770083 0.31460935 0.628544 0.05843115 -0.17005642 -0.1969563 0.25340566 -0.8398149 -0.78839135 -0.26161602 -0.37942165 -0.061975166 -0.55283016 0.13881166 -0.051337257 -0.19284111 -0.58951837 0.34784326 -0.45329285 1.068077 -0.60764194 -0.33393493 0.28717157 -0.0376509 0.6696437 -0.04870814 0.13443273 -0.4418787 -0.13635238 -0.044820677 0.08599055 0.283377 -1.1097864 0.14438704 -0.013146111 0.4393203 0.015876913 -0.36825633 -0.12577246 -0.3757493 -0.086961016 0.13500704 -0.23495434 -0.25423014 -0.21424079 0.24999264 0.0843629 0.38632742 0.35728034 0.039634418 -0.34802213 0.07376294 0.48079616 -0.73760206 0.014020253 0.3158647 -0.38942385 0.20548633 -0.04387856 -0.17337905 -0.14677683 -0.047643535 -0.17930488 -0.22147705 0.028471567 0.077795126 0.41221806 -0.3846714 -0.19340958 0.08311854 -0.24378854 0.33899462 0.04664316 0.45681363 0.14558953 -0.32907858 0.42837074 0.28711942 0.44606662 -0.18449344 -0.026859123 -0.08165048 0.15812996 0.090072446 0.099099524 0.5571444 0.38279533 0.21991098 -0.3140508 0.42934418 0.009308271 -0.3106078 0.12271072 -0.005453084 0.5367077 0.044688363 -0.31854412 -0.43854788 -0.069912106
会 0.01249545 0.13757376 0.20064817 -0.28576115 0.49546096 -0.035900507 -0.09082352 0.088744394 0.3675321 -0.1016504 -0.038401216 -0.19596174 -0.06705213 -0.26402196 0.3607461 -0.24950881 0.38106492 -0.49302995 -0.08660983 0.028733246 0.4600295 0.099896416 0.2737059 -0.21695527 -0.13015644 -0.4827519 -0.18205401 -0.053841088 -0.017788718 0.15047868 -0.38671228 -0.39557642 -0.16286168 -0.45174143 0.2360751 0.15978004 0.17290874 -0.06568873 -0.054980878 -0.5821526 -0.44538748 -0.048276372 -0.23006059 0.36205646 0.502609 -0.16560522 -0.55257255 -0.930653 -0.44395635 -0.10862822 -0.17089699 -0.06298432 -0.32580143 -0.15110974 -0.20140278 -0.22318764 0.15056288 0.48144248 -0.14562662 0.3633767 -0.14959797 -0.3620353 -0.38217878 -0.056931827 0.19467252 -0.18646935 -0.34029987 0.19074407 -0.28250816 0.5944706 0.10569653 0.8086561 0.4486729 0.04824917 0.034546487 0.05875541 -0.28768703 0.53610665 -0.22654559 0.01732617 -0.37611464 0.45785353 -0.42474473 -0.19880508 0.22733867 -0.37025073 0.17859606 0.14181432 0.5407397 0.28191665 0.12254874 0.19114804 0.22312334 0.07961804 0.72147876 -0.084886014 0.0004837038 -0.16636038 0.1484959 0.029347472
说 0.30853805 0.28455427 0.49471775 -0.17464602 0.41165683 -0.0066647246 0.15688673 0.19347315 -0.509724 -0.20572545 0.3412532 -0.008258696 -0.46024668 -0.05931882 0.14555112 0.4178016 0.12334854 0.021142023 0.0047572684 -0.64321715 0.5121807 0.25506085 0.51591283 -0.017155629 -0.12357296 -0.39279294 0.33510387 0.07113184 0.04318965 0.004835703 0.23157793 -0.33293968 0.5740965 -0.5782335 -0.34352112 0.36269695 -0.43281302 -0.0580024 -0.2554343 -0.010443276 0.116864525 -0.12769161 0.16481012 -0.2327191 -0.08059811 0.1960289 -0.38850796 0.13366403 0.15127587 0.05246158 0.09544634 -0.5183572 0.045235384 -0.24641362 -0.6077924 0.06848198 0.14618805 0.027723739 -0.29728788 0.27006465 -0.19626695 -0.3745602 0.41055363 0.26916158 -0.18760651 0.29928035 -0.046510834 0.20031588 -0.35275462 0.34891275 0.03705762 0.01869844 -0.13796403 -0.23193324 0.16441186 0.06829804 -0.46378407 -0.07183654 -0.4539223 -0.02675872 -0.21049511 0.16557822 0.060747456 0.13491648 0.56305593 0.078867264 0.58166593 0.10737254 0.004231953 0.07075446 -0.11217346 -0.13666414 0.12581591 0.0429126 0.34315366 0.008501177 0.054992978 0.07022836 -0.021253273 -0.23664948
希望 -0.19600236 -0.19752875 0.07532222 0.29440448 0.30618602 -0.3847769 -0.26934475 0.7885205 -0.25754324 -0.4737041 -0.032495078 -0.077851586 -0.24472994 0.006457287 -0.2989795 -0.5561818 -0.10473109 -0.43351594 -0.45606446 -0.5606232 0.10481391 -0.0025574493 0.12144805 0.3639116 -0.18786553 -0.037978902 0.2382819 -0.37489125 -0.07738156 0.63399714 0.13786954 -0.15704942 0.13540946 -0.18397601 -0.42418906 0.66796726 0.030872745 0.14765625 -0.07243636 -0.21480933 -0.39740574 -0.41267547 0.1472288 0.40109763 0.2500557 -0.3950435 -0.66431534 -0.45180967 -0.09070422 -0.060242 0.044589274 -0.1648777 -0.37354302 0.12133723 -0.4288519 -0.26040494 -0.3823088 -0.24525484 -0.026657099 -0.24315637 0.06414446 0.22792058 -0.26268566 0.45085263 -0.09707719 0.05011784 0.21650863 0.025359692 0.03152047 -0.18324414 -0.05355721 0.39378712 -0.22803055 0.014256431 0.72353745 0.0023609772 -0.5259685 -0.038210943 -0.01712407 -0.081970796 0.22221759 -0.490748 -0.4852117 -0.011009034 0.16009264 0.19338757 0.45430022 0.04971619 0.22099532 0.5406234 0.43040118 -0.25066945 0.3514787 0.35543296 -0.20917499 -0.09205828 -0.3993931 0.27720636 0.05353296 0.6092536
去 -0.40160298 0.21893623 0.24129955 -0.044391915 -0.09648624 -0.17880145 -0.16446479 0.14050266 0.21291025 -0.25491056 0.783989 -0.69029194 0.5294419 -0.59823143 0.011545139 0.070497885 -0.048458043 -0.1689727 -0.11882801 -0.3364444 0.7895085 -0.042263005 0.40771276 -0.22234131 -0.10301831 0.1270653 -0.28941497 0.092620715 0.14211944 -0.18145333 -0.1437411 -0.14428549 0.02912367 -0.312018 -0.43985954 0.51754224 -0.41878536 -0.17696612 -0.6038125 0.1532202 0.021119395 0.04694907 0.14092755 -0.05487557 0.29196557 0.777892 0.14447163 -0.12504236 0.2888859 -0.20271005 -0.03643732 -0.29621878 -0.08962376 0.5037181 0.35194656 -0.2552274 0.35083717 0.06398511 0.109501824 -0.31249058 0.0540343 -0.40011814 0.11636599 -0.21218444 -0.4361441 0.21421637 -0.027886441 0.6707229 -0.72532517 0.12590632 -0.1521852 0.28135177 0.3854536 -0.124107055 -0.078470096 0.66142744 -0.07239392 0.41173908 -0.56869304 -0.21968958 0.09555095 -0.4478537 -0.19090691 0.38302937 0.18306777 0.5532795 0.30629146 0.38369527 -0.2656075 -0.30084217 0.44303042 0.25234327 0.4118247 -0.30096027 -0.11948933 0.1765343 -0.5483539 0.28177163 -0.036836762 0.08217581
真 0.4700883 0.46730995 0.20898087 0.14514786 0.05084019 -0.33032224 0.03706914 0.42730737 -0.3705395 -0.31274173 0.103184044 0.18494067 -0.30258864 -0.053021878 -0.18460014 0.20541584 0.4150438 -0.02056477 -0.41017705 -0.34456503 0.6915969 0.58413154 -0.2881218 -0.17694236 -0.09023389 -0.38712332 0.45570645 0.1914023 -0.21391973 0.25285658 0.008795066 -0.2450559 0.24503861 -0.099604845 -0.18210459 0.3721598 -0.10021415 -0.6689218 -0.4722025 -0.55382895 -0.5196735 0.19416343 0.123697825 -0.2792006 0.1650702 -0.040230624 0.16518855 0.3146266 -0.038573597 0.0060898117 0.30922455 -0.09720185 -0.23837754 -0.028098064 0.377313 -0.45801213 -0.21065642 0.49995673 -0.35921797 -0.35565528 -0.3936227 0.13277581 -0.28064397 -0.1114501 -0.26709306 -0.2368838 -0.11525067 0.33682188 -0.25294963 -0.57431823 -0.035151754 0.27983767 -0.01816996 -0.011163058 0.17739533 0.20861377 -0.21319164 -0.11416112 0.24683976 0.5311357 -0.47129658 0.020998947 -0.27133414 0.26220214 -0.3137431 0.23308988 0.13494256 0.20646837 0.26502624 0.49331054 0.43176252 0.4798647 0.28024676 -3.8476857e-05 0.3215102 0.17399287 0.027348055 0.029657144 0.16153622 -0.015977245
病例 0.02260983 0.71719265 0.4395577 0.57982427 0.002833585 0.11168219 0.12945095 0.44581765 -0.6340717 -0.2305761 -0.4014668 -0.37596145 -0.58011794 -0.5128013 0.04714619 -0.26332372 0.05498226 -0.466794 0.6524704 -0.18299723 0.5705058 -0.31747678 -0.2658869 0.04510391 -0.03944725 0.4773302 -0.38244352 -0.040910386 -0.56465846 0.3216007 -0.37386882 0.20995721 0.057100672 -0.81235987 -0.085767955 0.2451029 0.29791778 0.13921963 -0.37182596 -0.11423381 -0.18969746 -0.27486357 0.45205814 -0.14444454 0.106745504 -0.45667276 0.22307517 0.1957191 0.3190383 0.6288132 0.44208097 -0.20391962 -0.2727522 0.21334067 -0.33812204 -0.21619286 0.21550725 -0.38670608 0.09615364 -0.14357036 -0.27861232 -0.2848422 0.31672812 -0.20964825 -0.11261403 -0.22446837 0.010069549 0.509606 -0.2661565 0.18826847 0.12316401 0.122236975 0.22423637 -0.097979106 0.83752716 0.17109357 -0.18869397 0.17419752 0.07658506 0.18103127 -0.48664707 0.07709573 -0.26431173 0.10399181 -0.24454246 0.015296058 0.017387293 0.4647439 0.42699262 -0.044186696 0.046297863 -0.4076416 -0.058616523 0.091627985 0.18360917 0.3457645 0.24486916 -0.169275 -0.6165609 0.14905983
戴 0.21317056 -0.1589042 0.21037444 0.68266875 -0.52415746 -0.24227183 0.07073287 0.59051293 -0.36110568 -0.30701643 -0.30383483 -0.9141547 -0.060633324 0.07153717 -0.0145519255 0.3599227 0.53277385 0.2257628 -0.036191814 -0.36887926 -0.11482135 0.6228354 0.34965485 -0.29151508 0.57159257 0.4766961 -0.3494329 -0.58363676 -0.21639752 0.49377918 -0.11276893 -0.2711407 0.6486224 -0.42401704 -0.35102633 0.5930351 -0.1779506 -0.7282246 -0.623876 0.14019772 -0.38688684 -0.27432048 0.21634486 1.2276982 -0.3798475 -0.19879676 0.41507515 -0.32201734 0.13238329 -0.014619807 0.10293086 -0.28242204 -0.24981184 0.14443305 -0.34714544 -0.73790544 -0.20933138 0.45244053 0.19744696 0.01971446 0.304416 -0.019753624 0.4054445 -0.084925935 -0.8940774 0.16546452 -0.37765267 -0.4282326 -0.28451264 -0.14221027 -0.33546138 0.31876105 -0.10462771 -0.3583634 0.22604361 -0.109801784 -0.10339038 0.1379508 -0.55402243 -0.0037607918 -0.31579784 0.27727887 -0.71763456 0.21310934 0.43294257 0.45973527 0.25396878 -0.17087868 -0.09619833 -0.242236 -0.01732915 0.10579784 -0.3183012 -0.118178464 0.19162518 0.009166476 -0.10317037 0.12747505 0.09961091 0.15266702
看 -0.11144727 -0.2643153 0.8781251 0.128845 0.3237017 0.30450758 -0.03730756 -0.2817033 -0.030172575 -0.3093552 0.005812407 0.09909223 -0.34620115 -0.101245955 0.1760331 -0.8401011 0.24431059 0.014585878 0.120372206 -0.27901706 0.3939419 0.11801942 0.17991966 -0.07373627 0.39246476 0.3529496 0.102229066 0.13037698 0.20973127 0.31828922 0.5064328 0.13336328 0.38034412 -0.91582024 -0.36517906 -0.072578475 -0.606634 0.29915562 -0.02662694 -0.4561009 -0.11377635 -0.59880674 -0.07879596 -0.1352067 -0.13475122 0.010076811 -0.05536109 -0.2296922 0.10780494 -0.03177498 0.5556928 -0.3829584 -0.15289414 0.056803655 0.17166562 -0.08955768 0.4239333 0.65604746 -0.6025918 -0.021639401 0.28044522 -0.15317869 0.32016858 -0.12553641 0.043055266 0.46759477 0.00861523 0.91242903 -0.49304634 0.1105964 -0.040223338 -0.5103806 0.10295647 0.0064113606 0.33673123 0.48636624 -0.274581 0.21604434 -0.46538612 0.07776369 -0.2523494 -0.10713369 0.11240395 0.019679666 0.36423215 -0.040206667 0.19425724 -0.49841806 0.070559025 -0.09893076 -0.08750381 -0.4447179 -0.5414328 -0.04389435 0.081552885 0.2606583 -0.6886942 -0.40684438 0.13990419 -0.7064267
保护 -0.5549193 0.35533878 -0.08158663 0.23110165 0.14978744 -0.13508557 -0.43237734 0.2875023 -0.22263165 -0.1467256 0.030533716 -0.4341012 -0.08882168 0.05027441 -0.1679733 -0.36313486 0.52338606 -0.68873954 -0.10716094 -0.17521918 -0.2884723 0.4233747 0.18463679 0.15800637 0.059432667 0.3285424 -0.68616253 0.6490112 -0.4441566 -0.28870583 -0.111135244 0.1663802 0.24758986 -0.09370473 -0.0073739425 0.6800447 0.15553828 -0.42173836 -0.30679527 -0.4276036 -0.038814418 -0.24307299 0.13579792 0.59314525 -0.16398668 -0.24618761 -0.56941074 -0.7722535 0.10993373 0.06240594 0.33312473 -0.4788019 0.34425205 0.26694858 -0.90614474 0.40636843 0.10302378 0.055271234 0.17103814 -0.26324984 0.15131967 0.24042143 -0.18511888 -0.049857914 -0.58180416 0.4485807 -0.2040222 0.46695065 -0.044140592 -0.6286613 0.36814162 0.4709018 0.3250594 0.09848447 0.17644814 0.23974304 -0.07530719 0.3784522 -1.1846316 -0.2523294 -0.44274938 0.5204317 -0.5203611 -0.527353 0.18263003 0.36817145 -0.3941452 -0.09935942 0.59658056 -0.01708269 -0.06775625 -0.035107028 -0.44006103 0.018181792 0.39230093 -0.13175783 -0.7719603 -0.07639387 0.39501688 0.3660982
一定 -0.031310074 0.41755322 0.42674482 0.23822811 0.22488768 -0.42502373 -0.37213027 0.3724825 -0.38658082 -0.3622685 -0.17843682 -0.10166296 0.32541397 -0.0067298505 -0.4103754 0.054195214 0.38858673 -0.18669061 -0.20239887 -0.53297484 -0.016510015 0.4496363 -0.23406959 -0.4065654 0.504513 -0.061164904 -0.20475425 -0.18087478 -0.55202067 0.0012006648 0.5287412 -0.55705726 -0.29557043 -0.17013909 -0.2223716 0.7953792 0.39241683 -0.62722695 0.1551355 -0.41299585 -0.51774263 0.2216429 0.09623798 0.29008493 0.057752583 -0.33498597 -0.3728396 -0.40599307 -0.3706642 0.035011444 0.30241165 -0.253436 -0.3038134 0.36964443 0.19716568 0.16855422 -0.44031683 0.19639243 -0.5717576 -0.9781742 0.45136088 0.484496 -0.14911817 -0.069337755 -0.23846658 -0.18506601 -0.5706306 0.15547763 -0.24850883 -0.54096764 0.32382262 0.7118366 0.16724688 -0.107790045 0.5242344 -0.35788235 -0.4019049 0.44023377 -0.35782126 -0.30174989 -0.35137644 0.14270005 -0.36228058 0.03911529 0.05391101 0.23510037 0.52994275 0.48418292 -0.408928 -0.39273545 0.5835807 -0.008284505 -0.08650376 0.1877538 0.046073496 -0.01197021 -0.23704384 0.22359067 -0.26665786 0.43648717
场 -0.33418745 0.34534356 0.39481342 0.017785326 0.3286432 0.19903451 -0.09078238 0.5651123 -0.5735637 -0.7422046 -0.30561456 -0.09569725 0.8487123 0.7266723 -0.28674343 -0.86583626 0.14580148 0.076874405 -0.16810061 -0.43354437 0.034563992 0.36209914 -0.77377015 -0.069721706 -0.19817398 0.34053522 -0.43014437 0.31082007 -0.58761114 -0.13702326 -0.05649426 -0.3341672 0.020912636 0.047388352 0.1069003 0.8079296 -0.9980334 -0.2775055 -0.28631306 -0.9773818 0.12532899 -0.2898385 0.20982586 0.20364325 0.018649753 -0.7036752 -0.73757184 -0.45160887 -0.07919219 -0.27141187 0.7517542 -0.5437272 0.20740479 -0.03996105 -0.199511 -0.302046 0.4368557 -0.04881316 0.3813782 0.009660934 -0.1079913 0.14333104 0.5478878 -0.069613926 -1.3372073 0.2657432 -0.35509717 0.35387018 -0.31770203 -0.307512 0.7771233 0.18971954 -0.08591659 0.66229886 0.42168477 0.22187977 -0.50714904 0.48927435 -0.6576695 -0.008918131 0.5615318 -0.061005592 -0.87290055 0.50113976 0.077488504 -0.05811939 -0.17042536 0.3563713 -0.027511252 0.19508986 0.41490653 0.032957673 -0.044338785 0.54523605 0.078564495 0.026989466 -0.30545875 -0.5226042 0.33737683 -0.86317474
辛苦 -0.35062113 -0.2553725 0.38721028 0.6062935 0.54592896 -0.3561335 -0.32479548 0.70842284 -0.67639035 -0.34003177 0.34812507 -0.18928103 -0.33070156 -0.050744742 -0.557519 -0.50325257 0.4425503 -0.6644128 -0.9372583 -0.68445337 -0.26428097 0.44435182 -0.4175559 0.23233843 0.5991504 0.38728127 -0.22350176 0.11568452 -0.5479607 -0.4590857 0.12891363 0.030384269 -0.35524377 0.17567176 -0.017655803 0.6154534 -0.12898655 -0.27627143 0.09315749 -1.3098896 0.32412344 -0.039420336 0.6480031 0.45253393 -0.32132185 -0.06645972 -0.9391227 -0.08469131 0.058032513 -0.18071784 0.7695724 -0.4590132 0.1557229 0.11965189 0.012243887 0.002976416 0.24340749 0.20414178 -0.07040409 -0.3954888 0.69883406 0.5607974 0.13499431 -0.49876457 -0.32073295 0.28159702 0.12977429 0.035455137 -0.30939963 -0.46945107 -0.049113583 0.25327745 0.17312472 -0.5404068 0.015265988 0.4138408 0.13485312 0.5794651 -0.49641094 -0.46135074 -0.36884838 0.5637619 -0.44885892 0.5096482 -0.037946124 0.75855136 0.29295534 0.1391921 0.19390063 -0.11869138 0.32261154 0.4937114 -0.40753824 0.0771666 0.058021903 0.7363398 -0.96092325 -0.14989987 -0.6463891 0.12741715
做 0.11774693 0.033623036 0.094585754 0.28773704 0.22778934 0.024122695 -0.3812904 0.71489894 0.27033487 -0.008153516 0.41550145 -1.1834952 -0.042195458 0.22824974 -0.06177779 -0.23570731 0.50437415 -0.08505741 -0.28874078 -0.46762413 0.56363225 -0.5324353 -0.113915555 -0.34690058 -0.28289178 -0.08060891 -0.5182984 -0.23582008 0.33052552 -0.119127624 0.11524909 0.3544906 0.81684625 -0.19452836 0.17758282 -0.07032267 -0.2246505 -0.6030405 -0.43286583 -0.12250774 -0.14629288 -0.0138848545 -0.80220747 0.1867779 -0.0055428166 -0.6331152 -0.2417946 0.21324022 -0.5191863 0.15789993 0.35343033 -0.28680936 0.14164007 0.035429396 0.006827808 0.48696947 0.18293297 -0.13360408 -0.45024678 -0.17278855 -0.50531095 0.3924356 -0.25825498 -0.24925637 -0.54302096 0.22974105 -0.6984593 0.3428736 0.31273165 -0.8594405 0.6186955 0.47911888 0.08536352 0.33353725 -0.37736815 -0.14254116 -0.21149798 0.058396485 -0.73512286 -0.059204977 -0.40645027 0.26899147 -0.33516723 0.1346068 0.34301248 0.020565532 0.26596898 0.3141554 0.39461085 0.23014158 0.44881922 0.14189619 -0.35202667 0.027215462 0.22166312 0.6792043 -0.6627644 -0.69858575 0.33028668 0.6771061
赢 -0.56811005 0.34484565 0.80873173 0.12765284 0.08648712 -0.09815558 0.052091416 1.2584249 -0.798505 -1.3031367 -0.17364994 0.13990413 0.5029606 0.18377796 -0.2506514 -0.69615775 0.08950243 -0.21731474 -0.18725203 -0.34502184 -0.29067224 0.76460403 -0.68659633 0.29895777 -0.021205017 0.025211506 -0.81398827 0.12224617 -0.68210673 -0.23289391 0.33461618 -0.119063854 -0.3797567 0.11824858 -0.22229204 1.1281663 -1.192245 0.02604569 0.32108477 -0.9242077 -0.25595516 -0.27387124 0.48575404 0.5563858 -0.029241359 -0.547306 -0.70368147 -0.95994985 -0.057333738 -0.70515525 0.11253905 -0.7613383 -0.13983166 -0.062134393 -0.14417584 -0.41654092 0.12871629 -0.7523671 0.51127434 -0.4179479 0.3950423 0.26543155 0.78498936 0.13738133 -1.0969182 0.35548207 0.09041463 0.58047193 0.5929944 -0.27250826 0.74891233 0.25010067 -0.14217795 0.1993199 0.54253834 0.2239634 -0.3329476 0.17126775 -0.98686785 -0.3766087 0.22469051 -0.31131002 -0.70243526 0.82124716 -0.0025360081 -0.008393123 0.024651635 0.39232826 0.11571369 -0.13283491 0.31670636 -0.11915841 -0.48818412 0.5855159 0.7434146 0.36159372 -0.1480314 -0.3279151 0.16929702 -0.29500255
年 -0.6793498 0.012292733 0.18090545 -0.16652414 0.28017813 -0.16161412 -0.18746406 0.4579429 -1.022621 0.56016845 -0.37487105 0.04374849 -0.0035121185 0.57942873 0.15894124 -0.19565548 0.346734 -0.24040624 0.16140142 0.0051317406 -0.31393984 0.106350414 0.17099614 0.7876457 -0.4607405 -0.5172371 -0.17236556 -0.10016951 -0.24155785 -0.045941662 0.32225612 -0.43861985 -0.17369977 -0.13021094 -0.05341814 0.029723827 0.3931255 0.11983218 -0.6412411 -0.19641209 -0.34139422 0.48256338 -0.39181614 0.46144128 -0.23180935 0.43015265 -0.30912215 0.11937643 0.43322617 -0.397711 0.2341136 -0.6665376 -0.09545583 -0.12518375 -0.19573726 0.2720555 -0.10330283 0.04025647 0.2788872 0.04450835 -0.77057225 -0.5798946 -0.06311268 0.15148565 -0.0749822 -0.2090194 0.17206319 0.7704535 -0.35283637 -0.061290417 0.31551448 0.25563425 -0.17868894 -0.13314529 0.52603877 -0.18220216 0.1798906 -0.06660012 -0.7732999 -0.017892273 -0.5788522 0.29407188 -0.28961328 0.32625026 -0.10337385 0.2843256 0.34706444 0.25842148 0.12543958 0.29777884 0.50706404 -0.22211426 -0.020149272 -0.36922604 -0.19706452 -0.10597812 -0.55772895 -0.22555436 -0.27058327 -0.15438755
上 -0.552353 0.59134585 -0.26608592 0.056568902 0.2481504 0.16323467 0.17201893 0.2530644 -0.40210867 -0.4058744 -0.5576101 0.19154133 -0.19975777 -0.35297215 0.1889097 0.17648658 0.6300349 -0.05650574 0.15916304 0.09660356 0.63169086 -0.22350234 0.16900085 -0.25733417 -0.23604915 -0.14000995 -0.3269282 -0.50915956 0.26223472 -0.7955124 0.33323747 0.14420253 -0.3659629 0.08390646 -0.53060436 0.42317072 0.1861265 -0.3181904 -0.07970716 -0.62860954 -0.2664275 -0.40679944 -0.09816289 0.22339289 0.46555313 0.5514953 -0.119497366 -0.22149113 0.445063 0.33944535 0.18630734 -0.7265164 -0.44381937 0.18742426 0.5498047 -0.9211063 -0.055337533 0.43250087 -0.68198043 0.47840267 -0.30427957 -0.0011759975 -0.4628323 0.34199774 -0.10131991 -0.052789606 -0.4116763 0.045269918 -0.1619016 -0.46736503 -0.094474316 0.045756344 -0.06303803 -0.4388281 0.060786203 -0.4612342 0.14423051 -0.62922686 -0.15156044 -0.059444133 -0.41237816 0.53265697 -0.367397 0.004008421 -0.12519811 -0.25933784 0.2895864 -0.03484433 -0.07213575 -0.24855521 0.23673914 -0.29163042 -0.3310003 -0.24428208 0.078264736 0.3564155 -0.45945957 0.4472341 0.38415694 -0.757429
所有 -0.5245928 0.40275496 0.15955515 0.112361275 0.53506047 0.1330894 -0.9948728 0.57622623 -0.54338044 0.35622796 -0.5874248 -0.61038977 -0.1804438 -0.286517 0.031197606 -0.27899462 -0.48591962 -0.9000562 -0.19384077 -0.4452736 0.18519421 -0.09921896 -0.41793394 -0.55471534 -0.41013178 0.1584679 -0.08828042 0.072076075 0.07840355 0.31871718 -0.5986722 0.3949081 -0.024851369 0.52992344 -0.5994107 1.0910943 0.22962627 -0.020787083 0.5470314 -0.40142113 0.07911665 -0.2796195 -0.5346351 -0.074274436 -0.06329568 0.10479668 -0.13455868 -0.5622504 0.19551778 0.10557003 0.0720761 -0.53834015 0.10462156 -0.07546911 -0.3684195 -0.24511226 0.46268925 0.4050917 0.09779839 -0.020065922 0.8637423 0.3078661 -0.11871897 0.4765159 -0.10901416 0.62355953 0.30723253 -0.022866026 -0.042179942 -0.21546102 -0.88789505 0.29323617 0.493103 -0.17886789 -0.03431059 0.03461058 -0.1090632 -0.24269454 -0.43068594 0.0044551017 -0.2556334 0.27280357 -0.53867805 -0.21113864 -0.29282388 0.630334 0.19182378 0.40101817 -0.13694803 -0.12517132 0.5022001 -0.044068456 -0.49187776 0.9238362 0.21267095 0.48813137 -0.38672784 -0.08778188 0.3227526 0.046390057
没 0.40277508 0.19087365 0.10964354 -0.10593376 0.3137187 -0.24963945 0.36880484 0.09019513 0.12826072 -0.18158565 0.12026597 -0.42176354 -0.17063695 -0.15055336 0.78937155 -0.039284594 0.041973043 -0.23681475 -0.4910371 -0.50063473 0.6525702 0.095230535 0.14525586 0.11861425 -0.40833217 0.23489942 -0.1329551 -0.09101112 0.010193793 0.35596392 0.38858804 -0.33221596 -0.030099913 -0.4377284 -0.10310938 0.16812208 -0.10118462 -0.01574042 -0.31425762 -0.20488028 0.3154143 -0.052865475 -0.26733416 0.15683946 -0.063579336 0.2390197 -0.084292635 0.07670342 -0.5252639 -0.21775134 0.013788232 -0.3171839 0.0141933365 -0.45283797 0.060420845 -0.60085875 0.17955744 0.29126236 -0.146423 -0.28428343 -0.10217445 -0.17853564 0.14658661 0.4889817 0.24397773 0.2127765 -0.12790939 0.09023231 -0.641913 -0.058479324 -0.4565943 0.08123541 0.15389873 -0.05257439 0.11314607 0.1850227 -0.4391419 -0.24593231 -0.47430155 0.32067397 -0.04603691 -0.023677114 -0.2264234 0.26297733 -0.005559801 -0.12581837 0.37479454 -0.10588857 -0.22113775 0.13756186 0.6798798 0.102251835 -0.28681946 0.51347107 0.48640501 0.29336867 0.40488395 0.40487516 0.32423562 -0.02018273
感染 -0.021326661 -0.072704814 0.21549487 0.43300056 0.2856812 -0.09322976 -0.5312313 1.0932592 0.33025756 -0.05451574 -0.19004895 0.23388495 0.004003265 -0.01496244 0.5568725 -0.10872046 0.58624375 -0.6341464 -0.4400143 -0.8278959 0.024599098 -0.06773303 -0.37757942 -0.01607343 -0.52233535 0.45699558 -0.07606757 -0.51993227 0.18730512 0.079922974 0.09317779 -0.053523857 -0.17636764 -0.4271411 0.40843555 -0.01071832 -0.19369815 0.066141635 -0.7862444 0.2566586 -0.5218426 0.17842789 0.59172827 0.54214376 0.7381736 -0.092384666 0.066173285 -0.17994645 0.19697274 0.21011962 0.52672654 -0.060323775 -0.100103945 0.13547686 0.049871314 0.3864027 0.3776115 -0.34441283 0.6670818 0.02398213 -0.23058885 0.23084743 0.48839918 -0.216849 0.3092366 -0.31896555 -0.43221104 0.11915654 -0.15704419 0.69058996 0.29100245 -0.2523591 0.029691068 0.10586897 0.5619706 0.07100699 0.11242028 -0.31369033 -0.111939356 -0.40156525 -0.4295052 0.55111164 0.3539228 -0.27021652 0.4572224 0.015270376 0.20252214 0.34604552 -0.51823086 0.60747313 0.58375245 -0.17844702 -0.61110866 0.16262075 0.80769974 -0.054835837 -0.40202132 0.07501647 0.0037017537 0.07649536
大 0.30881268 0.39205992 0.03206274 0.34903523 -0.18049948 -0.16985756 0.25193542 0.802597 -0.58887047 0.37608343 0.34497747 -0.13593742 -0.3748747 0.060552284 -0.19783227 -0.51592904 0.33250752 -0.87565523 0.031513155 0.22250544 0.5968527 0.43648878 -0.054663833 0.36748448 0.12193563 -0.244003 -0.0027225565 -0.43042207 0.39062542 0.102250144 0.32917312 0.13771848 0.46048346 -0.3250204 0.15344198 -0.0587184 -0.56252635 0.5280291 -0.084787145 -0.26946884 -0.2515687 -0.07971822 0.13481578 -0.0017825513 -0.24507754 -0.37680775 -0.13757753 -0.11443167 0.061731115 0.37724403 -0.06906265 0.14709803 0.0207088 -0.2685884 0.18081199 0.40628603 0.19736466 0.38387376 -0.07418163 -0.05426959 -0.26553035 -0.59684855 -0.52503204 -0.60119814 -0.2760806 0.19519317 0.14658548 0.51453525 -0.6326234 -0.24999513 0.012512312 0.2554457 0.019559382 -0.031040108 0.17024842 -0.17406493 -0.36382887 -0.47859278 -0.071499504 0.32396668 0.49885842 0.36135745 -0.48926115 0.34579507 -0.9612631 0.6453292 0.7217971 -0.006929405 0.2422319 0.5525191 -0.07176128 -0.11949945 0.4098681 0.50461036 0.40198752 0.37411365 0.2886513 0.13028827 0.3171282 -0.20663638
很 0.62745863 0.3205471 0.5264972 -0.39511123 0.52750957 0.027880983 0.14626399 -0.086673155 -0.35872176 -0.45494848 -0.48597077 0.5629217 -0.36255533 1.0036149 0.11535983 0.47125635 0.15220997 -0.32513943 -0.5643157 -1.1805946 0.82942927 0.29288304 -0.010871404 -0.38212195 -0.45159 -0.15909567 0.13217184 -0.1734405 0.17130378 0.568196 0.046377596 0.06087112 0.124727964 -0.37576398 0.49905676 1.0366865 -0.40827173 -0.095234595 0.053017482 -0.7474134 -0.33949372 0.1911871 0.248321 0.05709303 0.05747758 0.27240115 0.342825 0.20368561 -0.005746092 0.73533803 -0.064085126 -0.3351989 -0.3277602 -0.21422896 -0.8701565 -0.13351302 0.21486689 0.22376314 0.24111824 -0.02001707 -0.18255843 0.0690019 0.13785192 0.21910451 -0.30477732 0.18114908 0.26648328 0.34098014 -0.17083839 -0.16476385 -0.22096348 0.4335329 -0.40117407 0.15700749 0.052800372 -0.6799224 -0.2928333 0.01403683 -0.08931026 0.10928531 -0.24866065 -0.22416146 -0.06223651 0.20405923 -0.48959923 0.33858982 -0.3490069 0.018788591 0.15474518 0.19541566 0.11857343 0.23473932 -0.0018631244 -0.11474607 0.14780736 0.38705555 -0.163149 0.09828623 -0.13428001 0.18097219
没有 0.08010973 -0.061740614 -0.014814656 0.11903137 0.22526667 -0.10289431 0.116432145 0.06769869 -0.8258767 -0.14938158 0.028562484 -0.70332634 0.5176275 -0.32572347 0.072636716 -0.10377585 0.17080571 0.16383351 -0.6677711 -0.058216736 0.6118092 -0.26383138 0.5998873 -0.3015953 -0.16490507 0.21560016 -0.23888278 -0.16553931 0.4380276 0.15754977 0.22196351 -0.46416745 -0.028541202 -0.8240789 -0.28162932 0.3276803 0.140317 0.05438137 -0.24622315 0.37364015 -0.35992175 -0.021182047 0.45192719 0.4587939 0.2468867 0.37052423 -1.3265507 -0.29316095 -0.7205554 -0.3786384 0.6158863 -0.9334383 -0.044305343 -0.23583668 0.4047331 0.11600983 0.1543865 0.18516362 -0.658881 0.12967458 0.06854274 -0.46838337 -0.23600571 0.34443176 0.032156646 0.3072318 0.16981259 0.07580806 -0.31937748 0.084454894 -0.26661235 -0.44629812 0.30355078 0.21522878 -0.1467864 0.15815689 0.27636147 -0.11935728 -0.18921621 0.124763004 -0.09091516 0.052060816 -0.39667928 -0.57563823 -0.11045439 0.1575345 0.31728038 0.04992028 0.29999033 0.42733705 0.087764904 -0.2785643 0.19752805 0.023932442 0.6129282 0.030264445 0.44443503 -0.11319588 0.42596105 0.066373006
防护 0.007607204 0.20248254 0.5225552 1.1906302 -0.3267416 -0.40276518 -0.03611425 0.30417904 -0.39647287 -0.69747865 -0.33609763 -0.8222446 -0.27080455 0.077778704 0.013597584 0.3904203 0.52084017 -0.23523307 -0.34189352 -0.20527431 -0.17929606 0.4729348 -0.28371322 -0.60547936 0.4785871 0.4542178 -0.29383457 0.41131607 0.035741437 0.28846323 0.5194724 -0.2737164 0.66115594 0.25769457 -0.28298047 0.70053214 0.3072886 0.14049862 -0.068955965 -0.49211976 0.27720293 -0.11325751 0.32965195 0.3795173 -0.08428316 -0.38964096 -0.39273447 -0.029183386 -0.5528219 -0.00944488 0.10329255 -0.70476645 0.74531776 0.3786584 -0.32370943 0.49034777 0.12503003 -0.1718607 -0.18877801 0.2986126 0.2661249 0.56324375 -0.11123765 0.14698388 -0.7826868 -0.36276782 -0.34430185 -0.06390258 -0.525638 -0.22718385 0.4341191 -0.034021016 0.32639396 -0.007695221 0.08545347 -0.0185832 0.47886688 0.5912143 -0.97098356 -0.07613114 -0.18753183 1.0072877 -0.34236357 0.068778366 -0.048421964 0.7557255 0.76985997 0.21865743 0.22829418 -0.22606845 0.34985608 0.7120854 -0.3801853 0.3623695 -0.5410645 -0.13936661 -0.33157992 0.4277085 0.6646446 0.18054114
吃 -0.17955798 -0.47677475 0.3727231 0.10517775 -0.45156473 -0.066350415 0.3978036 0.24133259 0.07421208 -0.50343466 -0.7312176 -0.075885795 0.24386439 -0.78768176 -0.49384025 -0.028308904 -0.0442948 -0.26399633 0.048135974 -0.46850246 0.24119684 0.14552186 0.56991076 0.076537475 0.28615075 -0.014103928 -0.12359631 -0.79241824 -0.45705208 0.013028166 -0.020258145 -0.39987 0.6326267 -0.36582136 -0.11707073 0.13596523 -0.83015823 0.13497014 -0.3308885 -0.14198284 0.10453469 0.45491058 -0.1073688 -0.54991174 0.48495057 0.5159562 0.29067698 -0.56533355 0.16631718 -0.12796816 0.36542702 -0.791235 -0.1078038 0.34289512 -0.7617898 0.41390502 -0.2182892 -0.23633926 -0.4354609 -0.25097546 0.094752975 0.3685939 -0.6986342 0.03065875 0.0037297069 -0.030602787 -0.47852907 0.3904766 -0.7535677 -0.22425237 -0.24934858 0.22139122 1.0726905 -0.5244924 0.1124678 0.38384154 0.002449189 -0.17581835 -0.41240913 -0.4899361 -0.31875712 -0.16513377 -0.68513 0.31720674 -0.3738168 -0.26028425 -0.09702097 -0.5997444 0.10331676 0.4288543 0.7794721 -0.06856749 0.45706138 0.17027994 0.29345962 0.4008907 -0.45658225 0.07278864 0.09724075 0.3291194
医院 0.025214477 0.34292814 -0.28720242 0.23958045 -0.36254972 -0.50328547 -0.14665389 1.039207 0.14144345 -0.20777176 -0.006451334 -0.1200433 -0.13097353 0.66216695 0.14559822 0.5775614 0.3887362 0.08289592 -0.260145 -0.028714666 0.15107837 -0.12222433 0.26572856 -0.44675046 -0.5562864 0.5382507 -0.56982154 -0.5935337 -0.4358173 0.96636325 -0.21994375 -0.075251795 0.06825625 -0.37100825 -0.15832165 0.11390596 0.117349625 -0.33724704 -0.25810868 -0.08917465 0.17716034 0.2619815 0.9048575 -0.23965487 0.1457197 -0.00943471 0.33294237 -0.44226146 -0.029261826 -0.20620695 -0.52298677 -0.4119419 0.7916895 -0.51723766 0.3487311 -0.14735311 0.342635 0.055005707 0.08324874 -0.031742655 -0.33145458 0.017305465 0.451617 0.4167348 -0.08861889 0.23848452 0.031941805 0.131599 -0.4091261 0.13478088 0.052874558 -0.32912108 0.6339094 -0.8739785 0.04843567 0.4894228 0.07759537 0.46108794 0.33069563 -0.1975441 -0.04922082 0.27120486 -0.34800985 -0.5429877 -0.7449458 0.19576997 0.3470648 0.37285453 0.57650024 0.78099585 0.7779379 0.2337594 -0.39910263 0.0072834184 0.5872533 -0.2734873 -1.1462736 -0.7046524 0.33100024 0.229366
一个 0.41503528 -0.54974055 0.16426526 -0.41513312 0.37221256 -0.3415623 0.22638613 0.40381694 0.015991813 0.12565787 -0.5477443 0.24640004 -0.48575425 -0.10959204 -0.29014564 0.2433891 0.14813098 -0.4299576 0.07053531 -0.20984146 0.07683278 -0.11376841 -0.1015161 -0.08039633 -0.55125946 0.53986293 -0.55227184 0.3492633 -0.54755723 0.29140782 -0.2008128 -0.782145 -0.5029011 -0.19019595 -0.27454522 0.40547505 -0.19455582 -0.3627345 -0.2279363 0.3538982 -0.49059385 0.30309984 0.19138686 -0.21466507 0.029112127 0.43354252 -0.73666495 -0.28515774 0.4854803 -0.85009223 0.22159018 -0.76194143 -0.20197284 -0.25227326 0.6076892 -0.61358124 0.63750374 0.3244261 -0.144915 -0.18367189 -0.1920938 -0.28170362 -0.06947319 -0.44884875 -0.21437497 -0.06075414 0.5318022 -0.23433247 0.044765256 -0.0853288 -0.18403684 -0.09032254 -0.17174165 -0.3003443 0.35669327 0.19853371 0.107442595 0.25469515 -0.76445895 0.09988244 -0.36790776 0.39478254 0.12786607 0.30189395 -0.45616627 0.121370174 -0.2262212 -0.5410653 0.2111455 -0.40713447 0.49551043 0.41371596 0.50079995 -0.050685212 0.15069641 0.012408727 -0.25958902 -0.00868787 0.4351151 0.17954114
想 -0.4296983 0.119293205 0.3110996 -0.29488432 0.21977282 -0.39779082 0.5074413 -0.11660762 -0.31791916 -0.51956326 -0.003912867 -0.5869882 -0.06897392 0.23472948 0.24253505 -0.24480161 -0.053163465 -0.30545583 -0.31615475 -0.43516263 -0.055884253 0.04825442 0.021471981 0.14549342 0.08800969 -0.13058998 0.15580688 -0.11735834 0.43726552 0.3149396 0.17923231 -0.009034033 -0.16894543 -0.38830972 -0.13016835 -0.40643716 0.5294959 -0.28822744 -0.06254163 -0.847639 -0.3236879 -0.21799558 0.40104493 -0.14577219 0.4422164 -0.7008455 -0.4507131 0.2422982 0.27273956 0.53394 -0.056041893 -0.44215974 -0.334151 -0.18128654 -0.03847442 -0.23028737 -0.26916152 -0.22998801 -0.020658718 -0.36055055 0.00015685975 -0.22798105 -0.05409111 -0.12205296 -0.02719987 0.529577 -0.2517978 0.4214825 -0.04750401 -0.29841155 -0.103256494 0.49094832 0.5132155 -0.6285306 -0.24449892 -0.19408844 0.5155044 -0.32597524 0.12204821 -0.48691317 -0.33113176 -0.06684853 0.10558885 0.30832916 0.39741862 -0.13594288 -0.02142578 -0.38602054 0.0908619 0.65670365 0.4494809 0.62866604 -0.036109917 0.14724658 0.62570757 0.33185774 -0.18917227 -0.09049634 -0.44425613 -0.60607046
注意 -0.55519956 0.06380279 -0.30393574 0.21834703 0.36704373 -0.07949457 -0.21407065 0.6369697 -0.40556374 -0.30218682 0.3982519 -0.6480959 -0.09708379 -0.15332222 0.25506634 -0.11539485 0.28694856 -0.04723693 -0.48987266 -0.99624527 -1.0086056 -0.11353922 0.28633994 -0.34144756 0.32234493 -0.22029789 -0.9192716 -0.2008804 -0.30424333 0.058416072 -0.40960038 -0.563322 -0.0712923 -0.16780685 -0.059488416 0.045786224 0.27815455 -0.14792752 0.0443626 -0.1195333 -0.33195585 -0.84436923 0.44425082 0.48485094 -0.21592803 -0.3691049 -0.52255094 -0.61724794 0.12681656 0.72747844 0.21354723 -0.51738024 0.21886931 0.16382124 -0.34693968 0.31361875 0.33375224 0.35503554 -0.29119617 -0.20337181 0.25779375 0.37126565 -0.082966305 -0.20143127 -0.7222829 -0.513668 -0.39876813 0.24753241 -0.034957528 -0.48644796 -0.40103 0.37157765 0.33952695 0.01913981 -0.010281919 -0.2606669 -0.50843817 -0.4287128 -0.9006243 -0.21299322 -0.07237746 0.1368675 -0.2409611 0.35857242 -0.18068254 0.5923419 -0.033914216 0.08479011 0.33421114 -0.23107418 0.10877439 0.53182197 -0.03734618 0.29870218 0.5108209 -0.05301642 -0.2838441 0.43525591 0.008029926 0.23226339
天 0.06651754 0.035630036 0.46595186 0.60847116 0.17784593 -0.11668449 0.4121912 -0.10964547 -0.4381611 0.018465793 0.29698768 -0.3028174 -0.15939844 -0.055652436 0.67191887 -0.07834589 0.14207345 -0.28498787 -0.20624143 -0.1568354 -0.18857206 0.1656526 0.28001803 0.5338969 -0.57489914 0.6675827 -0.10239427 0.184162 -0.18475172 -0.09031453 -0.037967775 -0.52631015 0.25227267 -0.44146135 0.031071665 -0.22319853 -0.35493255 0.106539465 -0.5116863 0.53219074 0.21083733 -0.28552255 -0.07820439 0.040669885 0.8673373 -0.12982272 -0.41725487 -0.06296305 -0.6529812 0.5232742 -0.19448063 -0.7806087 -0.15356505 0.05534093 -0.22927375 -0.24729207 -0.130225 0.19205925 -0.007017795 -0.2778797 -0.3644964 0.32655576 0.23660745 -0.40106672 -0.05196817 -0.20801194 0.43392694 0.1071253 -0.3314434 -0.014695123 -0.40374586 0.4093372 0.2981045 -0.46627283 0.24774638 -0.008431259 0.080603264 0.31184483 0.28691772 -0.1149438 0.16658863 0.15253338 0.035138387 0.5419824 -0.13353448 0.26697317 -0.079605624 0.101737335 0.5537909 -0.49620083 0.38554037 -0.45163175 -0.019898584 0.04722545 0.66740704 0.18315423 -0.0976138 -0.5494937 -0.09723161 -0.11617335
一线 0.056879118 -0.2227445 0.59619236 0.060483973 0.31732655 -0.46778664 -0.12295605 0.58003765 -0.2075719 0.04800526 -0.05720793 -0.90163934 0.362155 0.12574421 -0.026080629 -0.17374936 0.2537227 -0.4612974 -0.32705173 -0.3884669 0.23341759 0.85533315 -0.7149992 -0.05235747 -0.32421705 -0.82247645 -0.014683167 0.6963906 -0.9198768 0.08726004 0.13847774 0.12874617 0.025505746 -0.5077015 0.24657424 0.5505864 -0.56048554 -0.33690283 -0.33442867 -0.23274027 -0.42416766 -0.07343076 0.61275566 -0.34016725 -0.51349527 0.12113277 -1.0360049 0.07048472 -0.38434386 -0.54500407 0.46818256 -0.013262687 0.39938805 -0.3168223 -0.009590487 0.46554676 0.7035476 -0.22091296 -0.14122544 -0.25782543 0.5305438 0.61770135 0.06448256 -0.58285266 -0.61068654 0.4606327 -0.14513904 0.3044451 0.1398693 0.016156213 -0.02112165 0.07001307 -0.25632548 -0.24165764 0.6164031 0.10899745 -0.25261137 0.06789263 -0.3145347 -1.0453147 -0.12492145 0.72295004 -0.76048493 -0.17433077 -0.15189086 0.6150587 0.19094387 0.36750406 0.2582342 0.614599 0.45848265 -0.17458603 -0.3051434 0.38420877 -0.38129857 0.78159976 -0.6909443 -0.3002556 -0.18151718 0.29155293
现在 0.5141939 0.8383897 0.11087764 0.043094546 -0.19861513 -0.16468029 0.48392403 -0.34957397 -0.30772486 0.10852676 0.077282 -0.55250007 -0.15954411 0.3222793 -0.40674287 0.19223274 -0.36616647 0.47453293 -0.020345926 -0.5736854 0.44935045 0.12296567 -0.3291348 0.14024134 -0.3315768 -0.00010890857 -0.20234278 0.019726953 0.2101562 0.6170606 -0.32195947 -0.6550075 0.47710267 -0.16836232 -0.15341228 0.71929973 0.17929094 -0.2967659 -0.27621934 -0.2145827 -0.14803424 -0.56902075 0.34870666 -0.030508434 0.10281945 -0.412295 -0.18914972 0.345312 0.16147944 0.07772393 0.0106320735 -0.30170104 -0.027708914 -0.31860283 -0.060045846 -0.02992409 0.13317457 0.018551731 -0.3069185 -0.074001335 -0.2582638 -0.20833063 -0.0778115 -0.5781204 -0.043030683 -0.218921 -0.11458309 0.5348466 -0.1112781 -0.07491161 0.10898673 -0.13001347 0.42884138 -0.35127988 0.0576934 -0.10595127 0.006397339 0.070784315 -0.8319147 0.13636974 0.09883275 -0.29872537 -0.35451603 0.03271669 -0.126179 -0.23357709 0.22991295 0.5020334 0.39940253 0.13530451 0.23514551 -0.024828468 1.0236658 -0.27106944 0.5588367 0.042424496 0.007700515 -0.028309047 0.069594905 -0.33219567
太 0.39602274 0.24454644 0.23751557 -0.18410663 0.6414968 -0.15739933 0.33823213 0.22983639 -0.58700633 -0.3058634 -0.44135785 -0.5376909 0.5361102 0.089558125 -0.38522092 -0.13027196 0.37567246 0.0003168381 -0.23920609 -0.36517945 -0.050291706 0.8109075 0.36396003 -0.50315654 -0.7079494 0.12548101 -0.3949733 -0.08886061 0.019443883 0.6510957 -0.07802983 -0.17053948 0.8685056 -0.4351588 -0.018551465 -0.16795605 0.13480169 -0.031415425 -0.09043512 -0.99281025 0.30443636 0.14274293 0.051806442 0.5523223 0.07009714 -0.24573477 0.011765623 -0.054620866 -0.04900434 -0.094189234 0.14042294 0.1324769 0.10381288 0.0121784 -0.06516143 -0.18946476 0.31570646 0.41226786 -0.21711715 0.7065549 -0.08778234 0.2555545 0.14695917 -0.05354913 0.13320476 0.024293883 0.20445351 0.6789145 -0.44455838 -0.08947635 -0.969714 0.4473236 -0.26041442 -0.65084934 0.56188387 0.3036039 -0.065261826 0.008392523 -0.119569615 0.21480642 0.2329735 -0.5130349 0.44475383 -0.3106439 0.11004215 0.3586676 -0.28328678 -0.30244812 -0.11822171 0.16829401 0.16510111 0.5867309 0.49776205 0.07274363 0.047572408 0.26231098 -0.07578121 -0.464932 -0.28720188 0.20481336
[加油] 0.09789895 0.95247513 -0.27733293 -0.16201472 0.13534838 -0.13061818 0.12314787 0.80259275 -1.0533966 -0.9375351 0.40873018 -0.47094348 0.40092143 0.42995992 -0.4867924 -0.920965 -0.34449732 -0.4897925 0.3645374 -1.1231844 -0.50418985 0.55943894 0.4058818 -0.5347905 -0.52973133 0.13907404 -0.33548775 -0.34320244 -0.95025474 -0.044212673 0.5273686 -0.53002125 0.41907513 -0.23745015 0.32556692 0.28417778 -0.07703835 -0.1670603 0.1357582 -0.3310619 0.7752782 -0.55097675 0.031314008 0.02926481 -0.66367644 -0.3063476 -0.35770443 -0.704517 0.4386766 -0.13119672 0.09850368 0.06494599 -0.28838617 0.8953326 0.21118832 -0.70065975 -0.26081637 -0.8110943 -0.15753531 -0.2707122 0.7891593 1.0313392 -0.46511462 0.20610884 -0.55622566 0.6964953 0.60824686 0.61406416 -0.8361451 0.3080944 0.3117639 0.20964599 0.010233009 0.9054655 -0.0939319 0.14782754 -1.008338 0.2277245 -0.49907705 -0.09632357 -0.25663143 0.92611015 -0.8137266 0.8078834 -0.28436902 -0.6372686 0.15072234 0.37812814 0.060012173 -0.21147355 0.34333214 0.34188804 -1.042792 0.15885448 0.19333169 0.44577688 -0.27957425 -0.107735 0.015028317 0.3327107
防疫 0.008730961 -0.022138018 -0.20721167 -0.02754514 0.25528863 -0.9974072 0.2872178 0.59650123 -0.8828612 -1.4388132 -0.18483527 -0.35905445 -0.15626553 -0.39947104 0.40740892 -0.6420558 0.3328952 0.17973606 0.117361285 -0.4963649 -0.14463578 0.3265965 -0.63983595 -0.42945617 0.35927913 0.2501064 -1.2262462 0.49727577 -0.2875559 0.31885636 -0.10678347 0.004686042 -0.57682246 0.50553834 -0.8423191 0.46090612 -0.8659034 0.045935553 -0.40170738 -0.79761314 -0.473975 -0.3897082 0.69778425 0.0063482807 -0.31298548 -0.5144504 -0.7608832 -0.39082357 -0.36275113 -0.2654255 0.32860518 -1.0011376 0.3407783 0.12160388 -0.004485778 -0.38356382 0.08785883 -0.3589419 0.56889504 0.51487184 0.64916384 0.18980147 0.4599276 -0.4950282 -0.37027615 0.0630669 -0.21859795 0.0024826943 -0.08826187 0.12610145 0.023862569 0.62939215 -0.044402808 -0.07896258 0.11113876 -0.28403977 -0.35984772 -0.02380276 -0.22565624 0.11740875 0.06329435 0.4828924 -0.9353434 0.54159796 -0.1849014 -0.09613221 -0.2580895 0.2785555 0.06261802 -0.019738704 0.46341053 -0.18683489 0.19468735 0.4845165 0.13383622 0.34030196 0.021854157 -0.4699159 0.20860106 -0.6761343
全国 -0.07377587 0.2903523 -0.22031942 0.34914416 0.22508667 -0.13246314 0.07936186 -0.09547795 -0.38285464 0.19491942 -0.1824082 -0.8193993 0.16902362 -0.29239857 -0.037211016 0.04656695 0.6924212 -0.44413558 0.09889335 -0.0050486214 0.19874427 0.041605275 0.26428708 -0.0947429 -0.6765936 0.609759 0.22264917 0.05005555 -0.36976898 0.015034414 -0.1323375 0.01298317 0.21823032 0.11956471 0.06615634 0.33994275 -0.24748476 0.18887006 -0.36477143 -0.020453582 -0.32585207 -0.23135705 0.5151823 -0.101412416 -0.29020625 -0.11201572 -0.2935055 -0.325039 0.45511782 0.50009394 0.21689688 -0.17710327 -0.6809606 -0.19283742 -0.396838 -0.068357915 0.50101435 -0.40821984 -0.26920918 -0.1973478 0.6528338 0.39880034 -0.084142625 0.29530248 -0.056597073 -0.40695462 0.3893342 0.5565336 -0.53106505 0.16103952 0.5789829 0.68408364 -0.10482567 0.6615743 0.53086 0.93631417 0.05930326 -0.014011309 -0.122937284 0.24873962 0.4653315 0.6564978 0.012111714 0.27238238 0.114327766 -0.28543106 0.61665076 0.31129968 -0.09306719 0.56767565 0.516923 0.5952148 0.027975785 0.3652758 0.18927738 0.5273548 0.23710269 -0.17944449 0.037670936 -0.6555703
战 -0.24293143 0.0057105287 0.13351607 0.29146937 0.7945977 -0.62178636 -0.38481298 0.9081748 -1.05148 -1.1229918 -0.22857548 -0.0530854 0.90483856 -0.2351893 0.4066816 -1.141988 0.6544221 0.31470558 0.36203197 -0.98336023 -0.48058793 0.08589969 -0.18626183 -0.03732413 0.15032421 0.037613057 -1.166006 0.32398617 -0.33188385 0.17705251 -0.17584577 0.11493698 -0.6532154 -0.35288915 -0.5523852 1.1593096 -1.4872885 -0.4480983 -0.47012505 -0.86219287 -0.5506661 0.036796015 0.47136748 0.10966573 0.085248075 -0.32237038 -0.9020212 -0.70271397 -0.37551776 -0.44489813 0.4042079 -0.99937433 0.45452297 0.18638642 0.5253114 0.38824266 -0.11012181 -0.4643691 0.54030716 0.055235256 1.1854678 0.15022187 0.77064055 -0.6015556 -0.8201 0.2611712 0.20441192 0.030965922 -0.44410935 0.049207825 0.47234395 1.0556576 0.052742217 -0.17695001 -0.05448325 0.025843466 -0.49052352 0.07757857 -0.1430645 -0.044482626 0.09820379 0.2822709 -0.94279104 0.6971375 0.61309934 -0.5927658 -0.37817663 0.9396187 -0.15091053 -0.015505709 0.14263679 -0.12083581 0.61641264 0.43226597 0.4387023 0.030173352 -0.19895339 -0.13967341 0.46826398 -0.19441867
最 0.25309935 0.28308988 -0.31973544 -0.100785196 0.19386572 -0.47619966 -0.48274237 -0.21545705 0.020738686 0.07247454 -0.18276255 -0.8091142 -0.16026886 -0.18946855 0.294902 -0.060967017 0.686191 -0.07521394 -0.06484332 -0.10700272 0.033140775 0.2521017 -0.543187 -0.72352207 -0.1445421 0.24070336 -0.32893324 -0.12860268 0.41733286 0.571535 -0.24221243 -0.028220361 -0.39616716 -0.72174454 0.5084456 0.50613666 -0.6705464 -0.20426553 -0.9144365 -0.7050759 0.4070759 -0.34186855 0.020852935 0.3749796 -0.014991202 0.3932124 -0.5612105 0.35815537 0.08506501 0.48108682 -0.11338179 -0.32550764 0.5309685 0.06283146 -0.5265691 0.26791474 -0.41982344 -0.24492319 -0.36239433 -0.5024266 0.17881905 -0.068956755 0.091382794 -0.03826665 -0.25294995 0.46123466 0.051858447 0.03419202 -0.3190608 -0.06371112 -0.10413207 -0.3145312 -0.3857616 -0.06231859 0.5843947 -0.094533324 -0.50674397 -0.37369454 -0.5110149 -0.14323865 -0.61294967 -0.42511153 -0.03842311 -0.040633664 -0.6187687 0.1662179 0.01926135 -0.13497154 -0.3610231 0.070337884 0.1046659 0.2441662 -0.06855168 0.019089073 -0.14128742 0.34678757 -0.115949005 -0.22877418 0.23787634 -0.6882938
封 0.15009055 0.16370346 0.5404194 -0.38055652 -0.09802097 0.02948564 0.6863033 0.71127397 -0.33837718 0.7246438 -0.8761156 -0.51805264 -0.29863903 -0.33679408 0.1688228 -0.5124347 0.43015915 -0.36326554 -0.4659541 -0.02833003 0.2181975 0.17849049 -0.07042987 -0.949045 -0.3300941 0.023405854 0.036115777 0.20778792 0.33564237 0.037218712 0.31336272 -0.6222576 0.029560238 -0.061267897 -0.9743034 -0.05379354 -0.012544341 0.112413555 0.109755754 0.22562149 -0.6449642 -0.5474996 0.6293167 0.5888882 0.317071 0.19866756 0.4178218 -0.11707449 -0.18532546 0.08923103 0.5644642 -0.18970251 0.040846866 0.037529558 -0.2207695 0.19342104 -0.3561275 -0.67551297 -0.1877733 -0.6653558 -0.1970825 0.22906195 0.08070711 -0.3920481 0.10707111 0.29358926 0.10379689 0.40121055 -0.22272769 -0.31354386 -0.36805037 -0.075279795 0.31856662 0.09839719 0.50240487 0.5756859 -0.28235266 0.56712073 -0.3029466 0.0928244 -0.14438525 -0.19502002 -0.58660656 0.24285948 -0.15677382 0.19355549 -0.14015204 -0.3251509 0.33585393 0.40845624 0.013303823 -0.032869153 0.66482264 -0.7282354 0.5580203 0.20590702 0.03946565 -0.6279439 -0.013234702 -0.46798438
. -0.3867035 0.23359321 0.35529482 -0.28271487 -0.10010599 -0.87933886 -0.18567929 1.0711586 -0.3207145 -0.14330965 -0.28144425 0.24191041 -0.07006269 -0.27699184 0.15522975 0.28019103 0.11864106 0.12686603 -0.56948614 -0.43862608 0.24951987 0.43800026 -0.5409403 0.23569678 0.3167555 0.13014567 -0.34383744 -0.27718514 -0.37897316 0.8868485 -0.29854745 0.16146111 -0.22268313 -0.029803308 -0.18145905 -0.21229984 0.046992395 0.45259005 0.007764129 -0.24223049 -0.18971361 -0.6820958 -0.27187043 0.65139616 0.35736185 0.49075118 -0.0021948498 -0.37158328 -0.31990317 1.0755183 -0.059118453 -1.0893353 0.30890253 -0.11553377 -0.03616084 -0.013858644 0.7818943 0.54138947 -0.009650444 0.011505112 0.13190904 -0.5411882 -0.6005722 -0.4879761 0.029370379 0.74245757 0.6819356 0.41532665 -1.071818 0.31774434 0.66929895 -0.14686783 0.8786958 0.54958975 0.32456493 -0.48506352 -1.1418549 0.4735852 0.43700725 -1.1070459 0.04028013 0.45425478 0.20827131 0.44913837 0.21354839 0.09642867 0.43624246 0.26332244 0.011639109 -0.74044627 0.87746537 -0.009752631 -0.5362824 0.31289256 -0.5488585 0.6765519 0.034565166 -0.4518471 0.04734128 0.76540715
控 0.36222968 0.4778936 -0.26484245 0.077825464 0.10614665 0.014304989 0.112644516 0.08605231 -0.46884912 -0.09273873 -0.46406224 0.06813684 -0.5292277 -0.10852714 0.56529874 -0.33702093 0.80080354 0.23341246 -0.18845364 -0.6255462 0.027381137 0.5005075 -0.13856184 -0.70551276 0.0142770205 -0.14971994 -0.7657109 -0.35219282 0.42717373 0.5048731 -0.082121804 0.34762824 0.90102065 -0.046257738 -0.18706977 0.69478995 0.4196557 0.14992775 -0.18976873 -0.17490074 0.09723172 0.7516034 -0.063520744 -0.42020047 -0.48685333 -0.6191616 -0.8938667 0.20050439 -0.28684375 -0.05810809 0.3963636 0.06117867 -0.10247022 0.498568 -0.25787565 -0.77497447 0.7726976 -0.16861397 0.5073249 -0.12015559 -0.043357644 0.62625414 -0.29699478 -1.1258122 0.025453059 -0.21756478 -0.18498069 -0.009311727 -0.033101168 -0.049084783 -0.21096916 0.25057328 0.2010021 0.35091776 0.4881608 0.073848546 0.38924834 0.7839325 -0.15289006 -0.7032439 -0.09785164 0.28991744 -0.19443782 -0.028089222 -0.33021286 0.109553434 -0.04125386 0.25783914 0.5264082 0.16721748 0.23414284 -0.06432777 -0.9923548 0.17600603 1.0798069 -0.49838364 0.6999373 -0.50336695 0.10865252 -0.38539898
城 0.05708813 0.019589745 0.38629803 -0.5643842 -0.17226182 0.032594357 0.6222461 0.6539185 -0.28879452 0.8686055 -0.939948 -0.5599476 -0.26728845 -0.33822697 0.4131332 -0.2725581 0.3807489 -0.27669117 -0.7298602 -0.19962743 0.39157227 0.16177109 -0.32119793 -0.859649 -0.30489802 0.20828244 0.10292595 0.12885237 0.27454332 0.19833605 0.19543344 -0.6449449 0.13272326 0.052396372 -0.99778795 -0.10001767 -0.071009085 0.14464863 0.15023904 0.114848055 -0.71382093 -0.49917582 0.48528716 0.5963724 0.18463776 0.3030215 0.58034945 -0.24771273 -0.062453855 0.02876346 0.60447437 -0.28360277 0.10135898 0.01004056 -0.17647119 0.09185459 -0.17634287 -0.825352 0.11671541 -0.4442456 -0.15144385 0.24979092 0.08250067 -0.30134183 -0.04030746 0.2884215 0.08481666 0.22433585 -0.38224405 -0.4335496 -0.39250782 0.07265268 0.21367303 0.23331559 0.47793075 0.561245 -0.40352887 0.338852 -0.31651944 0.053951707 -0.1439627 -0.16778375 -0.4914589 0.26809788 -0.29963446 0.22754452 -0.13227427 -0.15860859 0.2647712 0.534152 0.10492966 -0.14760199 0.71003085 -0.7857112 0.57188725 0.13564508 0.12849593 -0.613493 0.1620977 -0.33625183
死 -0.122996055 0.5585706 -0.16476732 0.26566932 0.06204252 0.14423648 0.837547 0.53443104 -0.19928905 -0.4337691 0.29606774 0.09526727 -0.18885542 0.08134127 0.0667991 -0.05755831 0.868552 0.38469687 -0.78642005 0.07025163 0.29892525 0.24583387 0.38242495 0.39332226 0.085116595 0.29680392 0.40592715 -0.17748211 -0.29870367 -0.20351882 -0.14286917 0.20947792 0.27552307 -0.40714508 -0.06342521 0.515949 0.37530315 -0.09385393 -0.19769345 -0.21343915 0.45946383 -0.80846345 -0.053280625 -0.66743904 0.23308143 0.25035217 -0.3150871 0.05679586 0.41821238 -0.15864705 0.5009044 -0.21475193 0.20089255 0.13359147 -0.22356339 -0.40454382 0.2613877 0.45646575 -0.07744987 0.064242296 -0.46878868 -0.2656694 0.15166871 -0.17702281 0.17621475 0.18553688 -0.12711005 0.4046593 -0.24320857 0.017496537 0.119012035 0.33905894 0.58312416 -0.16267286 0.16453712 -0.56059676 -0.3137076 -0.18019031 -0.68525326 0.5087008 -0.6122578 -0.32453847 -0.12227041 0.3542716 0.48728737 0.82231176 0.21459842 -0.31678805 -0.14249532 0.09202739 0.37347943 0.5096125 0.2733518 0.51111037 0.4748573 0.07056266 0.4553043 -0.6232113 0.535513 -0.5224799
防 0.17166866 0.23451144 -0.17801382 0.1030147 -0.16581585 -0.36738774 -0.1884388 0.095280536 -0.59736043 -0.19048263 -0.3602515 0.20785044 -0.36081877 -0.2934338 0.8132842 -0.176336 0.66286266 0.17053804 -0.21317324 -0.50038594 0.17491274 0.15734616 0.2074217 -0.46171355 0.48848128 -0.13576177 -0.5126287 -0.35218728 0.24395058 0.48492607 -0.0061737834 0.3596699 0.43228236 -0.13150364 -0.09526474 0.50839126 0.57270426 0.5032987 -0.033224843 -0.34422854 0.18944834 0.91017187 0.065777674 -0.43958485 -0.35041413 -0.45703292 -1.0930378 -0.20755793 -0.21456599 -0.11069246 -0.04658769 -0.06948104 -0.2065453 0.91278183 -0.4077418 -0.35384148 0.46609756 -0.35402647 0.48228598 0.07566091 -0.33138293 0.6354587 -0.52316225 -1.1849492 -0.10139094 0.14609192 -0.27697662 -0.14360699 0.2181237 -0.15425016 -0.4432175 0.2829053 0.33694988 0.4860457 0.31451777 0.29969904 0.21829185 1.0582577 -0.15269075 -0.6224121 -0.21537364 -0.2192695 -0.6092611 0.0509595 -0.033255223 0.44920853 0.50880486 0.101583034 0.33202708 -0.03927696 0.4870089 0.08426159 -0.70616883 0.017468888 0.8499376 -0.3687663 0.6237195 -0.094434455 0.13632435 -0.13192432
中国 0.0462743 -0.2690611 0.0035605086 0.2862417 0.28541526 -0.596193 -0.5299683 1.3551953 0.14014386 -0.34095317 -0.66724765 -0.61544263 -0.19139287 -0.19821014 -0.4395257 -0.5127673 -0.44706532 -0.20760624 -0.082690425 -0.034555607 -0.039363578 0.17914273 0.31978598 -0.86974186 0.024545338 0.07979669 -0.19984183 0.24380726 0.027016703 0.039658554 -0.06575892 -0.25368747 -0.32634926 -0.43458435 -0.04068882 -0.1257723 0.111932464 -0.26208535 0.115442924 -0.17377183 0.087943815 -0.40194705 0.24650253 -0.13728169 0.198231 -0.3889657 0.15787636 -0.7668173 0.713102 0.08348705 0.13080743 -0.105041265 -0.3041806 0.048292436 -0.110138535 -0.71302813 0.624506 0.1254247 -0.122865275 -0.3988481 -0.049145423 -0.1793464 -0.75951666 0.034290608 -0.30562666 0.3020845 0.2869184 -0.28878456 0.3600784 -0.1992546 -0.019558312 0.15884738 -0.6668821 0.41751808 0.25111425 0.09605755 0.44489223 -0.08766785 -0.62572014 -0.17820302 -0.037980534 0.60877156 -0.3011655 -0.038948435 -0.5559892 -0.261375 0.2579232 0.38034043 -0.049410846 0.5707465 0.2273104 -0.048388377 0.55138713 -0.1746872 0.31053334 1.0411351 -0.22975244 -0.66663843 -0.8439859 -0.93744606
（ -0.63291425 0.44142765 0.18159044 0.0895101 0.8199732 -0.5993296 -0.08447296 0.7361001 -0.430937 0.04562634 0.07861684 0.2451795 0.56310105 -0.3125385 0.75407946 0.20893393 0.17716537 -0.34135216 -0.2970762 -0.3668298 -0.38036707 -0.06480142 -0.6140968 -0.13005464 -0.6756265 0.4299797 0.17937171 0.2518676 0.12013095 0.02642997 0.23798235 -0.679477 0.06756306 0.3086716 0.5084866 -0.099732555 -0.0651313 -0.31890112 -0.36146218 -0.121573634 0.30519274 -0.61403483 -0.015787575 -0.70537776 -0.09206515 -0.14325675 0.16871206 -0.060556233 0.010674082 0.6688912 0.25548783 -0.023646774 -1.0471785 -0.43132037 -0.28905126 0.42958298 0.30482942 0.32195184 -0.19526292 -0.2218842 -0.19577897 -0.73653984 0.34100577 -0.7699163 -0.3199985 0.15218018 -0.55853474 -0.012449485 -0.3086443 0.10261367 -0.19043434 -0.60219544 0.26120445 0.49946496 -0.21745673 0.9462721 0.20966975 0.36676893 -0.5858514 0.06972113 -0.63536614 0.23966086 -0.48323825 0.38143703 -0.16526775 0.16876635 0.8992813 -0.083079755 0.5398505 -0.13144794 0.6237001 -0.4177879 0.27594122 0.103028685 -0.3037132 -0.8606133 -0.14213377 -0.23240547 -0.65605456 0.30311528
日 -0.85426766 0.45274442 0.73737913 -0.025083173 0.86155516 -0.49242985 -0.2653833 0.37668812 -0.5599024 -0.6853289 -0.16013466 -0.56698525 -0.36958718 -0.091220014 0.86059964 -0.2950938 0.48931617 -0.010879926 0.22453976 -0.21661478 0.08100814 -0.12636968 0.28048456 0.20041436 -0.4247408 -0.12648764 -0.05275623 -0.33996665 0.07266391 0.3705067 -0.23873332 -0.55695367 -0.40371197 -0.2581991 0.23402762 0.38741475 0.14138512 -0.3679162 -0.0044558053 0.06342622 -0.112201236 0.17659375 -0.5496943 0.28805894 -0.24443538 -0.3302846 0.024129272 0.45347428 0.9871297 0.16041426 0.2691405 -0.24304162 0.1179552 0.03114712 -0.49839956 0.27433673 0.41980726 -0.013653791 0.34029746 -0.7862676 -0.39910066 0.25443956 -0.108928435 -0.6760396 -0.49530056 -0.1897596 -0.09114196 -0.18428297 -0.34349477 1.2346835 0.26836795 -0.5392141 -0.038088076 -0.3488934 0.45117196 0.19858313 0.07098472 0.90646046 -0.04404424 -0.3940136 -0.018693192 -0.28235283 0.18862823 -0.16302367 -0.07672558 -0.005074257 -0.41407192 0.3187617 -0.10018136 -0.43263835 0.13823345 0.075835034 0.5622656 0.35915333 0.120846726 0.3976074 -0.0952455 -0.39050382 -0.06543608 -0.24042462
） -0.7794568 0.5190625 0.13072181 0.31840608 0.861829 -0.4891873 -0.080566294 0.7791881 -0.48503333 -0.078924894 0.18365848 0.10393114 0.551223 -0.2587573 0.66034174 0.029677864 0.33707976 -0.37258282 -0.33089823 -0.21763958 -0.5030449 -0.09104404 -0.58600354 -0.05880328 -0.5780223 0.68097705 0.10724266 0.09509552 0.27156353 0.045139972 0.18456519 -0.5155575 0.1040283 0.3340996 0.4912995 -0.063577525 0.010234145 -0.25843582 -0.27762946 -0.14474756 0.44029593 -0.73446465 -0.12995926 -0.72852015 0.1546335 -0.114283405 0.11777503 -0.15979798 -0.23121504 0.65233326 0.32160017 0.122234955 -1.0850457 -0.35872337 -0.17398715 0.34769833 0.16251804 0.22070837 -0.2652898 -0.21771953 -0.16969997 -0.8414703 0.2380133 -0.7637183 -0.31683207 -0.069109015 -0.62807244 -0.05783137 -0.27723387 0.05824178 -0.11183653 -0.95254636 0.28798345 0.46435606 -0.0142197125 0.8804915 0.16518293 0.44994715 -0.46438503 0.01577744 -0.54262793 0.19603196 -0.5846046 0.317468 -0.13210998 0.1186625 0.8039536 0.0020309514 0.6929175 -0.061223093 0.6683921 -0.37092784 0.041245025 0.30356437 -0.22579724 -0.93984246 -0.26830146 -0.26220012 -0.6847764 0.20551755
医生 0.25751162 0.27127007 0.59793323 0.5167698 -0.38039356 -0.86046916 0.3379503 -0.09547584 -0.15011603 -0.52080977 0.33763677 -0.35211608 0.28805104 -0.13351071 0.34825298 0.29999295 0.756842 -0.29686496 -0.070759945 -0.6277647 0.40367627 0.11117246 -0.040881857 -0.14520687 -0.25712797 0.11105512 0.14376801 -0.1570717 -0.49527684 0.7160393 0.19409604 0.053887382 0.02220048 -0.29921415 0.04652402 0.08110625 -0.21369106 -0.28546068 -0.011511272 0.04323908 -0.52240384 -0.6986105 -0.28815567 0.10923239 0.07465454 -0.18357705 0.2694137 0.057492297 0.8134025 -0.12998459 -0.3004078 -0.24206533 0.5427301 -0.35660675 0.65301174 -0.075947456 -0.27850148 -0.17571862 -0.5391439 0.37931588 0.43580458 -0.10044885 0.8607928 0.31182566 0.53341186 -0.033888903 -0.19035755 0.15636052 -0.2082308 -0.17926402 0.13584001 0.06092765 0.01576185 -0.38940674 0.5689674 -0.33558026 0.12214445 -0.23318653 0.0012114518 -0.60817754 -0.026151713 0.66258806 -0.6261158 -0.0069124065 -0.07363527 0.2297307 0.09857669 0.7220407 -0.029352061 0.51814663 0.80823094 -0.1459569 -0.33989623 -0.17808428 0.64088947 0.44960672 -0.3983715 -0.010804609 0.1371113 -0.3835789
隔离 -0.2531599 0.727884 0.020258203 0.0027120109 0.50879014 -0.1720645 0.47817114 0.6362935 0.113774076 0.11993015 -0.70348364 -0.29689783 0.4584253 0.13575074 -0.1806488 -0.17256002 -0.41154903 -0.13659647 0.5198464 -0.6097859 -0.19262464 0.27319005 0.35736236 -0.67050385 -0.48105913 0.20304602 0.040379077 -0.2899759 0.13295844 0.3383336 -0.19933373 -0.6385105 0.45404676 -0.1795318 -0.4291893 0.3812961 0.15075248 -0.6205096 -0.15774201 0.066105686 0.4669241 -0.23976423 -0.011292695 -0.29204223 0.059990846 0.59926724 -0.15488586 0.13522525 0.56718975 0.23197174 -0.23864782 -0.5141979 -0.34753877 0.27437943 -0.49865234 0.42893362 0.46061575 0.43215013 -0.39876482 0.36083028 0.16186436 0.41274226 -0.018131757 0.05422356 -0.05633513 -0.41676793 -0.28493056 -0.102510564 -0.0031731052 0.23061366 0.6637791 -0.34921065 0.29443803 0.2411144 0.5026695 0.68080026 0.079800256 -0.17423952 0.33370116 -0.25256088 -1.0262862 -0.34375483 -0.8382672 0.36672205 0.27901915 0.24333654 0.39570823 0.2719498 0.08159316 -0.17382812 -0.2890588 0.3932342 0.05179019 0.05026862 0.029386489 -0.435828 -0.35960534 -0.09685292 0.38322368 0.59244484
月 -0.27791816 0.3662319 0.77207357 -0.1367685 0.8642697 -0.7928044 -0.235744 0.31181207 -0.75156075 -0.3073066 -0.3995635 -0.6777271 -0.16893756 -0.14226511 0.6342383 -0.071217544 -0.042059615 -0.0072530317 0.19850801 -0.2812347 -0.14405854 -0.12781695 0.47497696 0.11853896 -0.4283115 0.044922467 0.054246027 -0.3399288 -0.17699341 0.30596498 0.053284347 -0.82235104 -0.37019792 -0.17162323 0.29575136 0.14787602 0.25582087 0.116378106 0.08369027 0.14146039 -0.00903608 0.11886418 -0.043695133 -0.14390904 0.14316608 -0.11517718 0.16352718 0.7273349 1.2268568 0.23450293 0.38431302 -0.4389935 -0.01985893 -0.30215663 -0.22963163 0.2794596 0.31463078 -0.09119168 0.3947204 -0.26200837 -0.07937998 -0.022269342 0.068436556 -0.36624423 -0.5478391 -0.2893475 0.039951887 0.31968275 -0.4287328 0.76148164 0.27964267 -0.4753902 -0.45721215 -0.114607066 0.080255754 -0.26101243 0.34480584 0.85227287 -0.026328616 -0.6595669 -0.081267394 -0.20051451 0.12870635 0.16385226 0.16371515 0.3494437 -0.001891179 -0.05276713 -0.029175712 -0.35733062 0.3903605 0.1886606 0.5325769 0.5817739 0.25045335 0.36900452 -0.67230403 -0.4348036 0.040069953 -0.35301292
次 -0.06397519 -0.01676296 0.25658345 -0.1935776 0.32045126 -0.09237067 0.30620947 0.25688288 0.179734 0.49273095 -0.016268749 -0.14279762 0.22533233 0.46048835 0.23790307 -0.11548902 -0.06306873 -0.110624894 0.42536625 -0.58676684 0.13490596 -0.027121387 -0.007951841 0.059056297 -0.10126059 0.31490475 -0.03027419 -0.68734044 0.79918325 0.29604217 -0.19607925 -0.18415141 -0.1097696 0.5397717 0.42280957 0.3588521 0.07112838 0.067390196 -0.5903316 -0.6399483 -0.18035567 -0.05022028 -0.03830261 0.047644634 -0.13006426 0.21357971 -0.20852473 0.270495 0.42654347 0.5853076 0.32195655 -0.62821573 -0.8596966 0.13521357 -0.7944974 -0.29494604 -0.23001286 -0.052166898 -0.14500993 0.39091718 -0.015077205 -0.2683639 0.11410059 -0.4749311 -0.35189757 -0.10381008 -0.0868088 0.39420792 -0.27678463 0.009833617 0.13565718 0.61919206 0.34207445 -0.12387737 0.614454 -0.10850357 0.16372265 0.0158815 -0.08260561 0.40831614 0.26711237 0.7342146 -0.25355923 -0.023434777 -0.18749857 0.22043136 -0.35511142 -0.37135488 -0.061165087 -0.06874675 0.45419922 -0.014674524 -0.61041254 0.1646202 0.9259663 -0.3717685 0.2056806 -0.37982017 0.43859735 0.051433023
点 -0.10382792 0.17281783 -0.13736673 0.11231417 0.528327 0.16946773 0.38810796 -0.116758116 -0.22922786 -0.49664617 -0.65987575 -0.22341348 0.50912875 0.013331064 0.014850296 -0.19310863 0.023904048 -0.4587137 -0.48269793 -0.590275 0.022141062 0.030343225 0.023988772 0.021906525 -0.5294255 -0.24981397 0.22884165 -0.23825417 -0.09301734 0.4393425 0.09374228 0.24738272 -0.022177538 0.09756737 0.03175375 -0.0110540185 0.27800786 0.050903413 0.045891315 -0.32329974 -0.32150313 0.015883667 0.10289661 -0.09083113 -0.036719948 -0.20795095 0.5282879 -0.09897563 0.22986914 -0.09555127 0.32200694 -0.22967982 -0.22229157 -0.13760082 -0.27064726 0.090869054 0.47419813 0.075935856 -0.18557137 -0.39806318 -0.2036521 0.13006875 0.059213426 -0.28922224 0.15867552 -0.18754219 0.79500055 0.1788663 -0.4045037 0.19670127 -0.3994742 0.4818084 0.053096045 -0.49185586 -0.025229273 -0.015201148 0.0997371 -0.48463738 -0.56311715 0.16936632 -0.34628594 0.06829023 0.013268288 0.44338685 -0.25340223 0.26968962 0.26016024 0.21830916 0.27294022 0.28594482 0.20958434 -0.03052571 0.25505063 0.36320823 -0.09339326 0.06916435 -0.33449876 -0.024957387 0.79544246 0.3050216
战斗 -0.44026744 -0.20889786 0.25294268 0.09548547 0.29795685 -0.29413855 0.0012825093 0.76836437 -0.30501592 -0.2535332 -0.40290612 -0.78634137 0.0882148 -0.18124478 -0.2763978 -0.76781553 -0.2544762 -0.70939285 -0.62771374 -0.35879648 0.57775205 0.9302033 -0.8749755 -0.06278137 0.168087 -0.2611824 0.058987357 0.19159706 -0.7042127 -0.24137947 0.029680679 0.47976828 -0.38446313 -0.09199976 -0.4010675 0.98596346 -0.9590641 -0.15846565 0.015995454 -0.2480425 -0.2197958 0.28405732 0.7197365 -0.028611008 -0.10664602 -0.4702297 -0.512446 -0.36839458 -0.101007916 0.10574517 0.18431517 -0.5290817 0.11362354 0.2817876 0.03959269 0.5120384 0.1932193 -0.10852867 0.024093708 0.10092725 0.6175718 0.8904574 0.09696139 -0.53499055 -1.5561272 0.75232613 0.24408019 0.7377886 -0.024246493 0.29402804 0.42076567 0.3983137 -0.14478058 0.07228424 0.118163265 -0.0069675352 -0.5163147 0.3017654 -0.5893213 -0.4451942 -0.76340437 0.83748156 -1.0130283 0.23558113 -0.047075547 0.37899876 -0.07668693 0.2844502 0.28747195 0.35513902 0.60989857 0.16151412 -0.47848603 0.18531492 0.07204805 0.22395387 -0.35769716 0.24530196 0.5080751 -0.07195452
更 0.37915334 0.094387956 0.29581362 0.0445654 0.22577347 -0.36468104 0.06503624 0.00999349 -0.24361165 -0.05245894 0.17180166 -0.28267682 0.09898606 -0.32905784 0.11214069 -0.31861836 -0.13821688 -0.46288085 -0.6637372 -0.56979555 0.12344749 0.3444916 0.07145629 -0.067137025 -0.60525227 0.1350954 -0.4667495 0.17453368 0.06587095 0.38209492 -0.1355515 -0.44333643 0.0067285127 -0.24604335 0.44073465 0.32074916 -0.48489177 0.053466983 -0.27163124 -0.31843266 -0.623471 -0.43694025 -0.2823041 0.49960127 0.22737779 0.3494512 -0.4231577 -0.033409383 0.351307 0.11711533 -0.55462116 0.40858448 0.11125315 0.3600967 -0.33917743 -0.35609093 0.51442415 0.060224585 0.21997836 -0.19849208 -0.37794718 -0.329268 -0.13293648 0.11375182 -0.46824613 0.03288659 -0.11160844 -0.0776691 -0.040291388 -0.21060292 -0.16456679 -0.16360554 0.0494783 0.036496438 0.09327926 0.19176708 0.048902437 0.31810412 0.25133976 -0.33685285 -0.45801732 -0.1399076 -0.09865222 -0.12774608 0.22024293 0.2993364 -0.07614979 -0.22347578 0.36746892 0.072429486 0.34969175 0.58403575 -0.30991995 -0.28060815 -0.14840943 -0.36186317 0.108273 -0.02822872 0.3076761 -0.3030776
出 0.34097773 0.48744184 1.0031267 0.09315312 0.12554951 0.3301653 0.38997918 0.21177566 -0.54864925 -0.6352677 0.39701384 -0.18492067 -0.38355595 -0.5128917 0.05198565 0.30637318 0.1588749 -0.41577005 -0.269684 -0.25296536 -0.3890216 -0.12555589 -0.32170066 -0.57248086 -0.5010416 0.088900484 0.1444711 -0.05925916 0.3618355 -0.34037584 -0.05745944 0.13322082 -0.11521922 -0.13658476 -0.024117423 0.69194585 -0.38064665 -0.016239109 -0.84236175 -0.22670299 0.2796878 0.051007845 -0.31921765 -0.5568105 0.16710071 0.22074603 -0.47470576 -0.0053918944 0.30863613 0.45682 0.3026827 -0.03828277 -0.08471473 0.06696456 0.3059013 0.25318474 -0.47577307 0.04944878 -0.36767268 -0.13335063 -0.08187104 -0.23262598 -0.0948593 0.10763838 -0.29561257 0.4572 -0.020829372 0.7248028 0.50719124 0.09852537 -0.7166403 0.33525693 0.2397161 -0.687469 0.3772749 -0.60526705 -0.52623105 -0.018544301 -0.28734368 0.16519639 0.08828157 -0.069824606 0.15698405 0.4477555 0.16180906 -0.19192141 0.65730727 0.11246727 0.4381213 -0.06650988 0.052133232 0.40613234 -0.06686462 0.54172075 0.054245643 -0.40864983 0.1423946 -0.41659805 0.1778274 -0.5080452
工作 0.22562821 0.42572045 0.5041514 0.0009683369 0.28591835 -0.430012 -0.036474526 0.4404051 0.059920937 -0.23148888 -0.60337865 -0.10086325 0.028760763 -0.23717964 0.20866755 -0.16509217 0.3117425 -0.4385885 0.45357168 -0.7103124 -0.046924397 0.22285677 -0.6669298 -0.518823 -0.31368467 0.29807553 -0.2765831 -0.21928704 -0.022468314 -0.08803671 0.06451823 -0.063117795 0.40670177 -0.26564395 -0.07363816 -0.116966 0.32951203 0.3425098 0.3714039 -0.47407225 -0.41647536 0.6026276 -0.064403296 -0.08997592 -0.45254314 -0.5694687 -0.46220592 0.3593777 -0.012923371 -0.050941158 0.25761157 -0.16522446 -0.24594443 0.016946284 0.081167765 0.16255106 0.17893776 0.5537495 -0.23211087 0.0022115172 -0.31254885 0.1734157 -0.16768965 -0.46869874 0.18116935 -0.35476688 -0.079566285 0.05490959 0.11496026 0.15760632 0.32899976 -0.033733122 -0.3642142 0.3010645 0.13345139 0.40913734 0.62949544 0.1981899 -0.5187198 -1.1243913 0.23270978 0.28460413 -0.6421325 0.08669699 0.32801017 0.26519978 0.01747282 0.42856112 0.089545846 0.49172455 0.2867645 -0.06282085 0.31726232 0.65020436 0.81794447 0.22908385 -0.81151396 0.26837334 0.25839764 -0.065897025
