3491 100
[FORWARD] -0.10875424 0.10518307 0.09520666 0.0012535059 -0.0070780916 -0.17246895 -0.008635286 0.7158878 -0.60490173 -0.17509048 0.1014404 -0.22004367 -0.22692321 -0.14271703 0.044316158 -0.53648126 0.3202231 -0.037307154 -0.2873836 -0.4161973 0.33266178 0.5061566 -0.3404786 0.053987544 -0.013540511 -0.07438536 -0.021958703 -0.11020965 -0.08772292 -0.21740326 -0.19256835 -0.49080226 0.26627943 -0.18374819 0.025585825 0.12538916 -0.21479101 0.11836053 0.26495102 -0.42372552 -0.19336207 0.12108789 0.20171091 0.28044537 -0.05260624 -0.19521263 -0.38024372 0.0037373072 -0.29667997 0.30879325 0.19678587 -0.23050866 -0.038239073 0.17144889 0.3288451 -0.37180656 0.010001396 -0.24230613 -0.16789281 0.3993252 0.25403446 0.35609484 0.3201778 -0.010672498 -0.5218952 0.06584991 -0.2315772 0.2901696 -0.36326975 -0.0051065683 0.11749493 -0.08689461 -0.048382703 -0.2908254 0.07479983 0.34331763 0.028582606 0.011685147 -0.3139161 -0.22284357 -0.029296285 0.33406153 -0.06760406 0.12683074 0.23101513 0.12105807 0.35034955 -0.6067106 0.11273198 0.445005 0.01768266 0.123100676 -0.06952073 0.08727265 -0.04292413 0.47608092 0.09056312 -0.2634212 0.17429577 0.1358114
[N] -0.3415181 0.87414885 0.26208133 0.038755063 0.21624996 -0.46751696 0.072880216 0.88952416 -0.22814272 -0.31022054 -0.21080786 -0.2837501 -0.41584894 -0.008360801 0.40303558 0.037591405 0.54556954 0.0604448 -0.22828065 -0.10442877 0.26298016 0.11578437 -0.04594783 0.017004995 0.087457076 0.29915148 -0.14634986 0.074888214 -0.21006002 0.4479154 0.2727929 -0.3017435 -0.10427294 -0.045419715 0.4880925 0.20184065 0.28770724 -0.03577713 0.17851606 0.07963021 -0.042102445 0.2614213 -0.16974165 0.5118811 0.047251027 0.37878588 0.2025022 0.055632696 0.1168917 -0.08571142 0.2621344 -0.8904704 -0.58631676 0.07425838 -0.13018599 0.15096723 0.19988179 0.101982474 0.095900156 0.07584205 -0.43540576 0.34481677 -0.44315425 -0.29954544 -0.41983145 -0.25351065 -0.1556907 0.101725556 0.2780509 0.4618203 -0.035150122 0.014799103 0.24423623 0.27829367 0.048826817 0.049663328 -0.38773513 0.18212914 0.04328613 -0.1574833 -0.30596784 0.17345256 -0.06911783 -0.37248957 0.12411633 -0.4000291 0.03713766 0.044021167 -0.2392892 -0.23158759 0.40264872 -0.29991183 0.02641682 -0.28332713 -0.13700339 0.50647044 0.27064466 -0.5570639 -0.49800703 -0.028706638
武汉 0.018804085 0.5514798 0.21156457 -0.0329833 0.18866388 0.03365498 -0.08548416 0.5286203 -0.45418903 -0.4034163 -0.11670125 -0.5967593 0.25147992 0.20511353 0.06753868 -0.1833706 0.34630165 -0.006361582 -0.123115785 -0.29007405 0.16824114 -0.1975677 0.15239786 -0.5415078 0.004323741 0.1242437 -0.029808749 -0.028122587 -0.62473077 0.16922991 -0.056147005 -0.1789771 -0.02181004 -0.21982679 -0.2425006 -0.024063896 0.05151597 0.0891893 -0.019797824 -0.278394 -0.2432113 0.046286415 0.25990358 0.51829386 0.043042153 0.07773186 -0.26030627 -0.44090748 -0.16113071 -0.30891606 0.26253363 -0.060630377 -0.22878547 0.27785036 -0.19590347 -0.38906333 0.22501372 -0.14897026 0.21300694 0.056223657 0.14324489 -0.093041815 0.31531528 -0.3821086 -0.12343518 0.13810895 0.1418175 0.47268006 -0.22350763 0.27725774 0.47604537 0.29679006 0.0742921 0.24150248 -0.0796663 0.782719 0.24435206 0.086224884 -0.12981601 -0.33493343 0.2980534 -0.14047495 -0.4328548 0.03490728 0.2690531 -0.18300742 -0.22953802 0.04945593 0.23280565 0.032880623 -0.049247466 -0.097483225 -0.027783941 0.14198653 0.59938765 0.429577 -0.04828286 -0.053629633 0.12447554 -0.165374
不 0.45647767 0.31302297 0.4531734 -0.11012119 0.28171802 -0.2546651 0.3287199 0.45344046 -0.017727958 -0.20802565 0.055545237 -0.1627416 -0.40906957 -0.4327076 0.059859086 0.14815935 0.18721904 -0.4326282 -0.23872524 -0.013778952 0.15374283 -0.123134755 0.49967533 0.0027660667 -0.2926004 0.2773107 0.2202651 -0.100934535 0.2630637 -0.23024295 -0.08229432 -0.20855375 0.17543499 -0.08489469 0.18946508 0.6175572 -0.21075284 0.12731299 -0.12616795 -0.32557788 0.14246617 0.15858537 0.21696618 -0.08234083 0.32417032 0.2800997 -0.122974776 -0.21819352 -0.1976898 0.020956276 0.065082036 -0.2960369 -0.33589333 -0.06816079 -0.099650644 -0.02665148 0.23859785 0.36155713 -0.122219205 0.007149566 -0.26463386 -0.0402177 0.07447651 -0.084632255 -0.041324545 -0.20698561 -0.23646398 0.2940596 0.11270298 -0.16404876 0.1750029 -0.062482238 0.11881121 -0.20089714 -0.28580064 0.098795176 -0.6099964 -0.031596385 -0.2672851 -0.1283635 -0.36901498 0.2967487 -0.21588114 0.1706393 0.23992434 -0.08500074 0.13413383 -0.12746787 0.23314725 -0.41426158 -0.098826215 0.38046336 -0.09292435 -0.016461657 -0.03675228 0.42946655 -0.17122479 -0.3924334 0.17248523 -0.12561427
加油 -0.43976173 0.6841957 0.06746447 -0.028383143 0.20334901 0.06363301 -0.3351444 0.69964665 -0.6126809 -0.7403875 -0.20222196 -0.3757265 0.43702126 0.18502882 -0.19454065 -0.3807327 0.26611233 0.18817337 -0.027741645 -0.73198605 -0.3461945 0.14631423 -0.03309196 -0.2308063 -0.1431406 0.4383932 -0.38640344 -0.09091174 -0.6367508 -0.067972474 0.034831543 -0.25929746 0.082386255 -0.09508149 -0.10065568 0.32428932 -0.45963407 0.14186239 0.1316999 -0.8671057 -0.06916049 -0.2553678 0.10813126 0.5709981 0.31015494 -0.50227284 -0.77271163 -0.6475926 -0.1798636 -0.844993 0.15488581 -0.049283635 -0.42098802 -0.016418327 0.07601393 -0.41040096 -0.029878736 -0.60369384 -0.0563628 -0.034753256 0.2707137 0.39956146 0.4561722 -0.18319418 -0.7385117 0.26426864 0.2944567 0.61183506 -0.2707983 0.40071407 0.5384056 0.48594943 -0.093922965 0.03264476 0.064105205 0.15035176 -0.33071256 0.24309155 -0.14545414 -0.40937775 -0.12636003 -0.15633282 -0.4966711 0.34360176 -0.27047062 -0.25883216 -0.071974285 -0.20035729 0.054817013 -0.1434335 0.3914117 0.04855398 -0.80997163 0.17756605 0.64932245 0.38355094 -0.2278285 -0.21896027 0.45378768 0.048950154
都 -0.052713756 0.29596078 0.22180021 0.15708894 -0.13785748 -0.18758774 -0.028760063 0.45031446 -0.1488169 0.14746065 -0.2895569 -0.620592 -0.097791545 -0.32690883 -0.43615845 -0.2510811 0.118213035 -0.16257793 -0.37126553 -0.5310075 0.23276447 0.033624146 0.056185532 0.23808719 0.14247884 -0.122288354 -0.00492938 -0.14514102 0.11630979 0.107391804 0.19264446 -0.57136405 -0.101561025 -0.2982853 -0.2074262 0.6268705 0.24093454 0.14878477 0.09304577 -0.56943345 0.39474288 -0.09567624 0.12795377 0.22821559 -0.1655423 -0.17696643 -0.36323184 0.16394457 -0.14190473 0.14581256 0.058941614 -0.6877259 -0.10982459 0.35413155 0.007439871 -0.27536976 0.09717769 0.10162664 -0.13622952 -0.24348539 0.21003628 -0.15148646 0.44093293 -0.1284656 -0.5795037 0.26276118 -0.19051409 0.04904628 -0.1114089 0.034077197 0.41913146 0.46780682 0.48291096 -0.07220887 0.19911858 0.012110084 0.38041088 -0.29577854 -0.18901609 0.008713722 -0.041468564 -0.07239632 -0.21498169 -0.41469613 0.18284708 0.23471454 0.041812483 -0.2709408 0.07146327 0.080434576 -0.107310325 0.020319277 -0.18393148 0.031274345 0.016494118 0.40349752 0.2681228 -0.13455273 0.3522635 0.20630836
人 0.18695626 -0.06434114 0.15069853 0.44502956 0.3210357 -0.040203445 0.058750782 0.24601848 -0.1829011 0.042287942 -0.3384694 -0.36797062 -0.15558513 0.044811007 -0.10644237 0.27787358 0.36917192 -0.45669794 -0.0725216 -0.41051084 0.110351175 0.35207483 0.09084824 0.116505526 -0.11910477 -0.3899071 0.11644518 -0.108894214 0.004696216 0.3344813 0.1482357 0.30840942 -0.28489852 -0.050788805 0.38123438 0.41128075 0.30667138 0.10752717 -0.22752959 -0.43059376 0.094336785 -0.21603078 0.072922334 -0.4524699 0.0006055711 0.2836603 -0.40846327 -0.043297295 6.827724e-05 -0.115793236 0.32416415 -0.45671022 -0.18696828 0.34463325 0.27539334 -0.07820058 0.07436276 0.3262762 0.028358074 -0.05314156 -0.28828812 -0.3800405 0.17079799 -0.23653215 -0.25020757 0.25965813 -0.3728743 0.50668347 -0.27757025 -0.4063159 0.18292707 0.37177432 0.11927441 -0.109864615 0.43751332 -0.07787533 0.38299555 0.2161896 -0.08673657 0.1519677 -0.019422796 -0.058111846 -0.47401786 -0.08562213 0.18168436 0.26425293 -0.027037341 -0.22114386 0.029351613 0.037312683 0.061158653 0.34892085 0.2633614 0.22528538 0.352861 0.15239652 -0.27303386 -0.44502687 0.31313404 0.41238084
人员 0.20903322 0.15921332 0.4385365 0.46361464 0.17783354 -0.50423485 -0.201715 0.84636545 -0.48317274 -0.30423987 -0.06196433 -0.37083605 -0.15707396 -0.097885884 0.09963089 0.027279532 0.21049635 -0.5813185 -0.42716712 -0.4633121 0.17434335 0.2926778 -0.45419556 -0.13755001 0.098392926 0.069216155 -0.110553995 0.17940287 -0.7994513 0.27133197 -0.5036562 0.32679385 -0.29826915 0.37743157 -0.24812295 0.57710934 -0.034954898 0.16766371 -0.056416646 -0.5609885 0.20837136 -0.20957941 0.16101208 0.5146047 -0.37851775 -0.02829503 -0.5469472 0.027518786 -0.1596551 -0.24068722 0.051668305 -0.18865395 -0.0011926204 0.31908348 -0.0034782432 0.09828867 0.12419173 0.0498885 -0.34670264 0.1051536 0.2857963 0.703149 0.10019547 -0.348157 -0.14003937 0.38742408 -0.06658903 0.4132084 -0.18966192 0.0908602 0.41931388 0.1849643 0.29865178 -0.15257521 -0.051817343 0.43493178 0.11586969 0.54744625 -0.027092207 -0.3277061 -0.5092357 0.5307594 -0.7985321 0.16899157 0.23626834 0.57400745 -0.21368837 -0.20546587 0.6103273 0.24353307 0.1656576 -0.31262004 -0.16641785 0.55158263 0.46944743 0.24740039 -0.6242793 -0.034831565 -0.3135643 -0.050932907
好 -0.20159446 0.1441051 -0.020495296 0.57154 0.25038314 -0.16735835 -0.16549325 0.53162897 -0.38620502 -0.3380991 0.42736697 -0.22324583 0.23628798 0.10741828 -0.024924248 -0.14169748 0.027804885 -0.50666475 -0.70105356 -0.4693834 0.09207982 0.4155453 0.13053581 -0.07772637 0.01857812 0.29188055 -0.30908757 0.06208991 -0.11487701 0.18488707 0.22736023 -0.47356188 0.12987377 -0.038940214 -0.052698083 0.29087973 -0.23189522 -0.1312203 0.072342604 -0.34619313 0.19343904 -0.018098151 0.06322272 0.013617133 -0.26165107 -0.31885237 -0.27099726 -0.20023966 -0.20826678 0.07146123 0.18379341 -0.02465483 -0.36700454 0.37237105 -0.1002357 -0.008603916 -0.26702273 -0.030779963 -0.09985856 -0.38923928 0.004487952 0.19187966 0.29161507 -0.1901288 -0.57679266 0.081773534 -0.23639695 0.17033534 -0.13512091 -0.23494059 -0.034887426 0.5639201 0.40307444 0.06614701 0.15658006 -0.18947624 -0.03455455 0.20852517 -0.34178084 -0.04677619 -0.3507944 -0.002277791 0.07015836 0.13863234 0.37206757 0.12922934 0.032025836 -0.4152441 0.2051109 0.20442092 0.3913113 0.15253851 -0.2809781 0.0022786222 0.31911427 0.08218963 -0.23363212 -0.10372708 0.23060013 0.22188747
致敬 -0.522443 0.096005715 0.20945558 0.38706014 0.37087357 -0.29983667 -0.76516366 0.6191116 -0.6005441 -0.48158452 0.051097132 -0.3830176 -0.16362728 -0.09464553 -0.22309327 -0.2955132 0.3365104 -0.6486917 -0.35771114 -0.9110481 0.11799868 0.8713979 -0.6220557 -0.19567716 0.5215598 0.016458007 -0.6037185 0.5308725 -1.0784338 -0.3264088 -0.15378249 0.023729209 -0.06754598 0.14944838 0.033985324 0.83330435 -0.43984506 -0.060627576 0.16741645 -0.740736 0.5209875 -0.407893 0.327667 0.6488899 -0.17460588 -0.08701196 -1.1033714 0.09988158 0.3022122 -0.061221726 0.057179764 -0.21334988 0.060485058 0.07866421 0.21275426 -0.14328751 0.2236729 -0.1890155 -0.20433277 0.106420316 0.42189607 0.85343647 0.17505574 -0.17740355 -0.927879 0.305148 0.41917557 0.42266303 -0.2501281 0.036147885 -0.051149394 0.33694792 0.31891146 -0.8214555 -0.0046783327 -0.06071931 -0.30787948 0.36799854 -0.44974348 -0.4505705 -0.5936118 0.68001133 -0.5439947 0.06638584 0.42615515 0.18524908 -0.10686098 -0.27795818 0.21226545 -0.19191456 0.5792404 0.13906415 -0.37457287 0.4317015 0.7706823 0.3509798 -0.7632424 0.13312337 0.21852154 0.16286719
疫情 0.0060072886 -0.06414666 0.4728867 0.14963846 0.09322336 -0.103773765 -0.74176466 0.4051448 -0.27050644 -0.06462004 -0.09808735 -0.35020328 0.11342428 -0.21630609 0.18579037 -0.08977179 0.5694202 0.168613 -0.007985832 -0.7553759 0.18871301 0.3051661 -0.2615377 -0.20054041 -0.46177086 0.29579857 -0.47205183 -0.096319996 -0.14066349 0.3192577 -0.45067835 0.0030827613 -0.019713681 0.3283704 0.21402024 0.32560676 0.23345484 -0.22062932 -0.09527 -0.5675291 -0.35277766 -0.55571765 -0.04823453 0.31089222 -0.6360276 -0.109009475 -0.44676852 -0.17299391 0.008604401 0.072400294 0.24609712 -0.119667456 -0.03800863 0.2462376 -0.007643185 -0.18950966 -0.11353195 0.16271372 0.29532376 0.23378383 -0.58815646 0.53031397 0.23308218 -0.07732507 -0.14342013 -0.052606698 -0.07577972 0.17938387 0.06708113 -0.17357147 0.1482199 0.42745602 0.16930066 0.28909776 -0.08463943 0.3038679 -0.045518536 -0.37273452 -0.48539215 0.057950713 -0.22747748 0.41342917 -0.044083267 0.12683631 -0.13992853 0.083738685 0.17084703 0.41694033 0.9693277 -0.04657037 0.5331656 -0.13079752 -0.11816263 0.083996825 -0.099261254 0.058290944 -0.40338808 -0.19359295 0.16871044 -0.28634822
医护 -0.11531452 0.15117876 0.3261784 0.36062443 0.22836035 -0.28036574 -0.29164422 0.6080979 -0.39572474 -0.13726442 -0.1879072 -0.5565359 0.11185914 -0.22448926 -0.08949456 -0.06578912 0.039616704 -0.49558654 -0.34939492 -0.712395 0.2366946 0.5126224 -0.842858 0.014667598 -0.04068032 -0.30215937 -0.4281493 0.23363192 -0.71759564 0.038670693 -0.34931016 0.08101186 0.03492055 0.48712263 -0.3548557 0.6437284 -0.033912543 -0.22557493 0.04087885 -0.9221117 0.22713713 -0.46578553 0.3307305 0.4356502 -0.28170672 0.00756858 -0.713826 0.14200781 0.25099063 -0.25847045 0.18200137 -0.4320537 0.07466824 0.41794005 0.039244287 -0.050303094 0.35630834 -0.38367224 -0.3868349 0.33709994 0.3663985 0.5809401 0.31503007 -0.19909024 -0.53079444 0.1519301 0.22710581 0.37840942 -0.3438784 0.12019363 -0.042977326 0.56500494 0.21667309 -0.34917998 0.10463847 0.31108475 -0.09542796 0.41471106 0.055326823 -0.5026869 -0.6144658 0.6224041 -0.76481944 -0.07991795 0.41170546 0.5451859 -0.24971615 -0.10026959 0.51666445 0.08935318 0.36318746 -0.10690833 -0.12968224 0.3068964 0.58011943 0.34418583 -0.8051036 0.014300319 0.007152486 0.142912
[心] -0.52837735 0.5225876 0.16742563 -0.02436616 0.27528483 -0.22278592 -0.9004553 0.6890446 -0.4603612 -0.29164386 0.0032341522 -0.7334484 -0.2570135 -0.22643267 -0.6223852 -0.20673434 0.11385519 -0.20355333 -0.14659615 -0.79189456 -0.14322732 0.564341 -0.22442366 0.048077594 0.2477254 0.39334497 -0.5459339 0.08927516 -0.5660233 0.26033756 -0.11667955 -0.23982416 -0.07043065 -0.14363798 0.29501745 0.57137686 -0.43518695 -0.14871868 -0.08450498 -1.376975 0.25602737 -0.34691685 -0.089175776 0.48746917 -0.05322004 -0.4024228 -0.6563174 -0.4027549 -0.3783007 -0.40325323 -0.00439351 -0.16671656 -0.055029824 0.10285931 0.038446315 -0.23501544 0.055406626 -0.50728506 -0.16340938 -0.20366162 0.29793665 0.48914263 0.17280255 0.032978687 -0.6090349 0.15738617 0.1235145 0.07491541 -0.17119783 0.12210774 0.17391965 0.48902258 0.49874163 -0.566919 0.00789573 0.060707882 -0.5101621 -0.16865477 0.051633064 -0.7895064 -0.36101425 0.5018904 -0.7238276 0.49114677 -0.1247727 -0.23713328 0.049691662 0.03886865 -0.18552758 0.056624357 0.15056196 0.35991985 -0.4283836 0.32785097 0.5878832 0.39315593 -0.3742881 -0.28842965 -0.025866196 0.22319587
肺炎 0.025728796 0.5443917 0.31592724 0.09267469 0.28310034 0.13604376 -0.19545922 0.3097129 -0.5384419 -0.24551013 -0.09611278 -0.3109575 -0.33890477 -0.25604835 0.21348983 0.0015338561 0.034287285 -0.49387336 0.0049183387 -0.39399785 0.31052542 -0.23557112 -0.1470696 0.217416 0.26714942 0.34237212 -0.2847935 -0.54607177 -0.019688157 0.14947018 -0.06208574 0.29836023 -0.0036551098 -0.34276825 0.3254898 0.12411056 -0.31262937 0.36448705 -0.30423522 -0.2661825 -0.39692703 -0.37357533 0.25758484 0.1005703 -0.17284341 -0.14365663 0.40518835 -0.31956017 0.20962998 0.08865916 0.54282653 -0.13023514 -0.39758912 -0.07392952 -0.4486261 -0.052785896 0.24574144 -0.014170935 0.1756214 0.17028253 -0.0649564 -0.12393974 0.3330105 0.496741 0.11740435 0.08081929 -0.07522295 0.45527914 -0.28613764 0.11052662 -0.3976541 -0.21084362 0.22484295 0.22463326 0.8955536 0.37090898 0.02221981 0.19464615 0.08784925 -0.57151777 -0.5097186 0.1711509 -0.024828237 0.37234047 0.30685017 0.14411327 0.22459528 0.28395948 0.3690756 -0.19226553 0.39068875 0.060965072 -0.17290163 -0.14258108 0.110699564 0.14753649 -0.12633081 0.06325654 -0.024073062 0.29049155
新型 0.15599808 0.7726995 0.26320583 0.18466745 0.25869516 0.049048804 -0.37882504 0.63576704 -0.63183683 -0.010719535 0.07377688 -0.31885752 -0.54819155 -0.121267475 0.08153934 -0.017485818 0.029945506 -0.2822068 0.0502054 -0.4645131 0.3624964 -0.08024097 -0.2823436 -0.066641755 0.051240362 0.3387967 0.018072672 -0.6087417 -0.3943651 0.055256974 -0.16307066 0.15343785 -0.1951111 -0.40493843 0.19011885 0.13116986 0.17851476 0.52449733 -0.08115464 -0.13022417 -0.40768567 -0.22204363 0.4416734 0.1335172 0.21782018 -0.7972683 0.20304108 -0.3167458 0.30850416 0.19771169 0.52063596 -0.31508306 -0.2954377 -0.24630137 0.018658848 -0.22619244 0.030359495 -0.14903156 0.12716767 0.1619899 -0.6372208 -0.2098261 0.22770406 0.5990443 -0.32214883 0.4221423 -0.055686712 0.4559794 0.0009755137 0.2320282 -0.31271702 -0.12011766 0.2541158 0.06748543 0.65020466 0.17282608 0.34250593 0.5578121 0.21366717 -0.18164697 -0.7211144 0.26689887 -0.12592632 0.13845518 0.23630409 0.2835768 0.20893131 0.6862694 0.21648042 -0.1099589 0.6706067 -0.024458516 0.022845494 0.2704819 0.18190321 -0.16822337 -0.15320405 0.123484194 -0.055434678 0.19085613
大家 -0.38129345 0.25379717 0.49756846 0.4823083 0.33190602 -0.25957766 -0.49792394 0.3787035 -0.123336755 -0.09157234 0.1596993 -0.60327554 -0.009557785 -0.08601406 -0.39500248 -0.1606506 0.29491615 -0.16705765 -0.50405085 -0.5462612 -0.27406263 0.33911842 -0.30712354 -0.19575594 0.21073274 0.22471781 -0.45967022 0.12615773 0.081608646 -0.18969172 0.36023414 -0.15717301 0.021880336 0.1687044 -0.108108714 0.7128409 0.22058149 -0.11524526 -0.07053311 -0.65397716 0.007257681 -0.4458279 0.16870956 0.5096621 -0.024891593 -0.2138037 -0.5982904 -0.45495668 0.0009679453 -0.17573534 -0.33704266 -0.321267 -0.4454301 0.41401008 -0.052809637 -0.053609475 0.030346079 0.13506137 0.22500983 0.0003128829 0.039049447 0.04282886 -0.16492596 -0.11103617 -0.09201559 0.048155174 -0.17121428 0.38176063 -0.11774724 0.18862918 0.1766762 0.52627504 0.093347274 -0.30035868 0.3149451 0.051280808 -0.022816263 -0.08972734 -0.29838657 -0.51165044 0.22790457 0.081402265 -0.20410009 0.16950098 -0.013674443 0.31934324 0.2753009 -0.44426075 0.50397694 0.6347998 0.31487718 0.19159815 -0.079985894 0.09072425 -0.040709354 0.28383335 0.110395215 0.14272036 0.26204416 0.5482555
平安 -0.61124396 0.48319098 0.0008797107 0.51232654 0.21180578 -0.017425336 -0.93184596 0.9062887 -0.9988183 -0.19706845 -0.13206561 -0.28812164 -0.20240179 0.10908477 -0.46279323 -0.34478584 -0.33028504 -0.31208503 -0.3714081 -0.6923995 -0.14021726 0.06401637 -0.5416678 0.19454364 -0.041289408 0.82119775 -0.04073585 0.16702847 -0.6980576 0.22081153 0.14604379 -0.48509362 0.27780494 -0.046410374 -0.0711574 0.8884826 -0.20412315 -0.34581953 -0.22995985 -0.5575 0.4092526 -0.4305639 0.009440067 0.58049744 -0.0868263 -0.50429475 -0.81738424 -0.65333056 0.20699935 0.25611234 0.24713169 -0.1553636 -0.09716462 0.5700999 -0.32639468 0.38354793 -0.02665423 -0.47624663 -0.5470471 0.15393397 0.6933781 0.4548219 0.0018857102 -0.030775594 -0.15023176 0.6029032 0.35033914 0.7805413 -0.35319248 0.086263135 -0.11773574 0.74630934 0.10432008 -0.16801035 -0.10283844 -0.35010222 -0.35930258 -0.24670966 -0.18347467 -0.56555015 -0.09955683 -0.082228884 -0.9690276 0.32708576 0.17818336 0.2733095 0.18048297 -0.17580798 0.03727596 0.3729997 0.38824987 -0.039539475 0.2642792 0.17901516 0.15150279 0.43155107 -0.20387813 -0.09016805 -0.13227056 0.13811463
病毒 -0.08382063 0.29227772 0.61935294 -0.3180736 0.050563827 -0.4361709 -0.110108696 0.2600949 -0.1769521 -0.01876912 -0.19201204 -0.12205369 -0.19715106 0.30054906 -0.03497423 -0.13380109 0.4646523 -0.42038992 -0.24019936 -0.29951286 0.061254002 0.39269117 -0.3176965 -0.49962926 -0.11962269 0.3645374 0.13294119 -0.23368138 0.035394363 -0.43401098 -0.12308637 -0.09406008 -0.16664127 -0.40988815 -0.12111552 -0.10387519 0.03258427 0.40776536 -0.11787546 0.13139473 0.56910414 -0.20829849 0.44189727 0.105733074 0.07355182 -0.25603116 -0.16025177 -0.503864 0.20485899 0.21297066 0.88525534 -0.20561536 -0.23857757 -0.053046238 0.13682804 0.08144201 0.46311107 -0.059228737 0.20110063 0.17614417 -1.00659 0.0924157 0.04345115 0.26044586 -0.07132433 0.05954317 0.02776367 0.092962295 0.111444004 0.25537294 -0.38283184 -0.04676954 0.14816777 -0.1300358 0.32586604 -0.09286871 0.34707096 0.31412613 -0.1537036 -0.23544526 -0.26891178 -0.018895717 -0.26406014 0.1384675 0.21865664 0.5123767 0.6036838 0.24823342 -0.24555415 -0.29578266 0.5025963 -0.032232575 0.18167062 0.1350006 0.089240834 0.4734662 -0.03633163 0.3780271 0.2644996 0.21607123
一起 -0.07821776 -0.07819517 -0.11965604 0.2688936 0.69120646 0.64829886 -0.29721612 0.51518047 -0.525756 -0.8856999 -0.18761258 -0.23274727 0.26574403 0.11558239 0.23748386 -0.080052175 0.26650205 0.2590832 0.21170487 -0.15477858 0.20346235 0.3543819 0.046547364 -0.15086065 0.019301077 -0.20047177 -0.57000995 -0.014422298 -0.30229905 -0.4972067 0.23361818 -0.5305838 -0.31186616 0.092117645 -0.10784082 0.25141734 -0.9341807 0.5121383 -0.07646632 -1.106922 0.05998514 -0.20887017 0.9484789 0.90173894 0.07701102 -0.0993022 -0.74197274 -0.8147393 0.14234349 -0.29718584 -0.07341543 -0.53422505 -0.39472115 0.3014662 0.06660047 0.06936853 -0.010275161 -0.3194968 0.42315996 -0.17919883 -0.07954764 0.13804002 0.75207496 0.54663163 -1.1329951 0.5737559 0.025291001 0.82589215 -0.18462977 0.020514054 0.32291272 0.3762766 0.42421106 0.0682413 0.17472197 -0.14646204 -0.4842355 0.12369537 -0.5762525 -0.86240697 -0.10559315 0.046269014 -0.43592122 0.51578283 0.1002454 -0.12071755 0.55515736 0.061755735 0.23320173 0.025810173 0.7079751 -0.3299699 -0.46552074 0.8574971 0.4596883 0.6229765 -0.031140223 -0.08421673 0.85003746 -0.12622309
口罩 0.283882 0.25693807 0.39253724 0.37841305 -0.46901903 -0.29758093 0.2553816 -0.08477234 -0.29483873 -0.30729687 -0.58222044 -0.87090087 -0.009322666 0.22825919 -0.10311059 0.3797072 0.3237982 -0.16813436 -0.041341394 -0.5770978 -0.3290484 0.3731766 -0.26878223 -0.03047492 0.11563832 0.31096855 -0.23309985 -0.33618754 -0.04515146 0.41144475 0.23922531 0.038710043 0.42804193 -0.39814273 -0.001337043 0.35584643 -0.16087581 -0.50654465 -0.30622545 -0.23124073 -0.2878901 0.007573024 0.46851096 0.8133216 -0.22217898 0.13426588 0.036488835 -0.5727346 0.16571581 -0.008845567 0.17220712 -0.45819542 -0.45703202 0.0042463946 0.06788471 -0.3989387 -0.21213041 0.33381504 0.44543833 0.1618609 0.16708416 -0.3917408 0.09676245 -0.15980889 -0.29457134 -0.15828723 -0.33455583 -0.26750574 -0.1790873 0.07153245 -0.4170446 0.41995236 0.062420268 -0.13313779 -0.3465559 0.33064887 0.05048688 0.02806101 -0.4225872 -0.14657019 -0.38554093 0.4748201 -0.49572304 0.08057784 0.5086885 0.6841547 0.1500489 -0.31979087 0.016665628 -0.3583868 0.2669932 0.4528627 -0.49370077 -0.008259127 0.22241266 -0.46588838 -0.14973873 0.0446331 0.2517313 0.44272244
前线 -0.15620413 0.11421027 0.12957072 0.22358876 0.72590613 -0.43551192 -0.5587026 0.7731738 -0.22664411 0.18606137 0.48888293 -0.22808984 0.094067045 0.009114111 0.14504355 -0.35675168 0.4041937 -0.09507464 -0.60994714 -0.50784105 -0.13480334 0.85558444 -0.5952039 0.08372716 0.6235284 0.1258403 -0.5096524 -0.10869761 -0.67794454 -0.08711786 -0.21836635 -0.13619803 -0.031376455 0.30574477 -0.11511178 0.75279737 -0.27094194 -0.26033258 0.061129503 -0.99602723 0.6178988 -0.7626086 0.17256717 0.8731561 -0.34653974 -0.16432111 -1.3559517 -0.21411572 0.39502573 0.013249465 0.20236246 -0.6818311 0.27853203 0.16098437 -0.23904976 -0.00012002309 0.09926198 -0.46639627 -0.11095265 -0.19167475 0.15906377 0.7002681 0.71473056 -0.408016 -0.74580747 0.25233626 0.13340345 0.42091057 -0.24895495 -0.31269565 -0.12970546 0.026287312 0.48156825 -0.35974213 -0.11301409 0.43700165 0.15664306 0.23391573 -0.23247188 -0.26067674 -0.6229608 0.54982287 -0.510946 0.07688447 0.21405338 0.5936161 -0.3200668 -0.11611081 0.13042413 0.031035358 0.2054597 -0.14963448 0.04284662 0.29758462 0.5855278 0.47997934 -0.598591 -0.016837662 0.03326656 0.19005235
[泪] 0.3422431 0.8993105 0.65724874 0.7709171 -0.045510158 0.20651574 -0.035166457 0.2785384 -0.5592708 -0.024127359 -0.07809352 -0.04263448 0.5465918 -0.36357215 0.067939036 -0.025541248 0.7732612 -0.16015185 -0.30219245 -0.50404376 -0.15222287 0.16769928 -0.34687576 0.41262764 -0.27637684 0.19238453 0.016301006 0.18283492 0.22750022 0.28084055 0.18032685 -0.67834234 -0.24480061 -0.37692443 -0.016301624 -0.098605044 0.12871113 -0.4812158 0.23704347 -1.1081175 -0.18366526 -0.19154574 0.316628 -0.22566047 -0.15074931 -0.24194719 0.023520157 0.1937569 -0.37999958 -0.29747316 0.03183589 -0.3815798 -0.58025193 0.04137817 -0.3686066 -0.583486 0.27689463 0.10024658 -0.2918263 -0.29316092 0.2535165 0.10293885 0.08256873 0.774771 -0.7098954 0.45108142 0.57620347 0.30640778 -1.2131741 0.14755958 0.071705416 0.81544137 0.14381343 -0.3459608 0.24709754 0.11349679 0.24459615 0.2544859 0.3368795 -0.11793096 -0.10719459 -0.20598853 -0.08477089 -0.03725313 -0.034899563 0.35273024 0.4859885 -0.23663935 0.08616876 0.2322792 0.55196387 0.051898688 -0.07354616 0.27666068 0.2983643 0.059991956 -0.299468 -0.16217372 0.15910375 -0.19912787
例 -0.41948375 0.46198285 0.6626133 0.53065944 -0.16807781 -0.2164993 0.5070465 0.93326086 -0.7728279 -0.44490254 -0.8017929 -0.3287582 -0.28493005 0.03939996 0.22092934 -0.2980176 0.08282071 -0.21638502 0.46577018 -0.46404392 0.70739007 -0.18625498 -0.28281778 0.4308045 0.025689652 0.29473376 -0.57157284 0.081757985 -0.17373422 0.14521056 0.03668603 -0.2542247 -0.12864037 -0.77531844 0.1832998 0.017568309 0.47370464 -0.18090333 -0.17939591 -0.087878846 -0.1510051 0.22774109 0.35598284 -0.1348087 -0.033255912 -0.014593614 0.005422971 0.17946796 0.4552442 0.1973083 0.6425759 -0.3663336 -0.29156315 0.75136036 0.11644469 -0.02029182 0.26438412 -0.6136167 0.032782346 -0.24724275 -0.3084029 -0.10592818 0.025176823 -0.1610778 -0.14855139 -0.101603 -0.0069737057 0.77504396 -0.2571569 0.4997203 -0.5388627 -0.25704962 0.6264447 -0.2872583 0.28859752 0.21384689 -0.46307316 0.022811756 0.19748494 0.39651164 -0.5628498 0.16408387 -0.08464623 -0.49235588 -0.15719195 -0.029267484 0.1614294 -0.12596823 0.5450751 -0.37836793 0.44555217 -0.3101589 -0.46964237 0.061055407 0.26277637 0.31823528 0.34030086 -0.07078136 -0.3545257 0.45060584
冠 0.052061684 0.40747884 0.30701056 -0.38071617 0.16214363 0.048279017 -0.49793607 0.43633547 -0.162761 -0.017211659 -0.22467919 -0.29206127 -0.16782272 -0.05393747 0.29729784 -0.18750554 0.32709497 -0.10551352 -0.031884544 -0.4322486 0.31779572 0.024177585 -0.15219107 -0.41335872 -0.16593789 0.92595154 0.109379776 -0.25352538 0.15987346 0.08898597 -0.08464817 0.0367658 -0.1669119 -0.61423916 0.02900976 0.124331616 -0.089631565 0.22930677 -0.46697402 0.05125972 0.60249573 -0.050814252 0.5630649 0.045843437 0.14210059 -0.5816395 -0.08862463 -0.09824576 0.2717291 0.37419578 0.8544533 -0.096704654 -0.26285726 -0.24629173 -0.10535571 0.33016825 0.24856108 0.0025343364 0.09811706 0.19557357 -0.9860513 0.029715082 0.34467712 0.2590796 -0.2234805 0.22199325 0.02810381 0.6499189 0.10619771 0.6231491 -0.30015084 0.0682618 0.30902222 -0.14198545 0.3911769 0.03164293 0.25277862 0.5859452 0.10796568 -0.47361404 -0.42430753 0.11644681 -0.24561477 0.10594447 0.018848484 0.68841785 -0.088429295 0.92166114 -0.25522825 -0.07826603 0.2859453 -0.12560554 -0.40740845 -0.11435453 -0.033650793 0.28115496 0.13874781 0.26225665 0.16391675 0.44592118
状 -0.20344618 0.43657923 0.3748893 -0.045391895 0.11930979 -0.1515822 -0.37876007 0.71167797 -0.3330441 -0.21570754 -0.10813469 -0.23443419 -0.38183773 -0.09133621 0.08913886 -0.011379989 0.2215954 0.058514122 -0.09550344 -0.5388088 0.43208522 0.32758427 -0.38171864 -0.45477775 -0.31573018 0.4884343 0.30416405 -0.44281808 0.09146651 0.14244929 -0.32980734 0.036919203 -0.2686802 -0.51876473 -0.43610117 -0.15579759 0.04857357 0.24931274 -0.52404696 0.13476183 0.41138625 -0.40585604 0.4394469 -0.14213283 0.07235171 -0.6373258 -0.2809408 -0.18070123 -0.035531167 0.24917594 0.9792659 -0.1066875 -0.36713067 -0.2868601 -0.3026417 0.38008103 0.25639153 0.08372906 0.22434653 0.33398068 -0.96080434 0.06978443 0.10572459 0.4778766 -0.27834618 -0.16308907 -0.04928092 0.35285237 -0.057666983 0.6436488 -0.37028018 0.12171962 0.06119504 -0.2519943 0.621949 0.031832412 0.19603202 0.5513883 -0.07446647 -0.30940303 -0.5548412 0.17924899 -0.28612515 0.23706625 0.1496792 0.6041237 0.09274242 0.88817734 -0.24136795 -0.16853744 0.15987782 -0.3436521 -0.34636638 0.03280826 0.07375034 0.11300645 0.39346725 0.38159767 0.25521618 0.2378338
愿 -0.37584522 -0.11456313 -0.0564536 0.6911003 0.48180705 0.035640825 -0.9508432 1.4951493 -0.4447061 -0.1857458 -0.41587162 -0.14231136 -0.3660285 0.09303386 -0.4200646 -0.34044057 0.34645858 -0.089267224 -0.57896227 -1.2581121 -0.44711056 0.38933778 -0.85570717 0.008965017 -0.039370958 0.49852842 -0.3024969 0.4396325 -0.7182735 0.19849001 -0.2927238 -0.47989932 -0.18687192 0.5279185 -0.33699486 0.69335026 -0.08527308 0.1430446 -0.39273602 -1.0787301 -0.1346131 -0.28824955 0.21829067 0.5669628 -0.29984802 -0.10835531 -0.9319575 -0.38083535 0.018293817 0.023795944 0.1161697 0.22898957 0.22999786 -0.099075206 -0.20956594 -0.03324901 -0.13691129 0.25706482 0.022576671 -0.08345078 0.5366354 0.22474192 -0.02841604 0.48613632 -0.5162112 0.270774 0.53597695 0.69735605 -0.29865748 -0.06584938 -0.26860043 -0.16848092 0.51017255 -0.30842617 0.23395811 -0.2722977 -0.43264097 0.11079921 -0.54671395 -0.59408003 -0.35051617 0.27628508 -0.80334216 0.06114023 0.054230884 -0.2639253 0.13665211 0.62181944 0.48725253 0.48426986 0.32776 -0.09753835 0.23295216 0.49332538 0.6755773 0.03903595 -0.61619556 0.021419866 0.21562111 0.39695308
[URL] -0.54312503 0.16523935 -0.046812996 0.56446445 0.2816972 -0.270551 0.020761486 0.26997116 -0.52239525 -0.18887073 0.023239546 -0.112390436 -0.21220303 -0.14590324 0.25559974 0.29433376 0.112046555 0.22056915 -0.056747645 -0.5491543 0.3803955 0.35257882 0.38853788 -0.34697506 -0.18736075 0.09919683 -0.2328069 -0.1430042 0.061761774 0.10437912 0.15914491 -0.18637891 -0.5347789 -0.23085885 0.34055254 0.4390319 -0.24255303 0.004609209 0.37219194 0.06599542 -0.206004 0.10276263 0.12679069 0.06734662 0.31177998 -0.29176512 0.16549699 -0.24109086 0.880952 -0.24900752 0.432795 -0.19096588 -0.7738473 0.23842813 -0.2733533 0.19739255 0.27743557 0.11459164 -0.017690783 -0.1156361 0.3395859 -0.41532415 0.19116111 0.38311145 -0.23253511 0.59330297 0.354023 0.1515945 -0.19592272 -0.20515504 0.1468856 -0.22247897 0.48692697 0.22052927 0.3642933 -0.07428821 -0.13421343 0.4026126 0.04627071 0.044466168 -0.35185674 0.22799325 -0.41058522 0.5000771 0.33722654 -0.094942614 0.014970174 0.19110732 0.4993207 -0.25684258 0.45380569 -0.12232725 0.3484354 -0.011555226 -0.27737662 -0.16032971 0.20819198 -0.24660687 0.8624683 -0.0011114159
还 0.1782964 0.28036743 0.2239085 -0.1225551 0.29388523 -0.2224275 0.26274833 -0.2185834 0.39622936 -0.02960726 -0.06255242 -0.3647437 -0.456902 -0.028331626 0.0041909697 -0.25281703 0.17759614 -0.39846262 -0.2688101 -0.17756747 -0.06738143 0.49057916 0.21402198 -0.03622514 -0.010802902 -0.16549432 0.17102508 0.20446481 0.50053436 -0.4337637 0.40691438 -0.5481485 0.24973296 -0.47926375 -0.17041558 0.21459053 -0.14073202 -0.06454755 -0.2566153 -0.30041182 0.3208151 -0.16553454 0.3976271 -0.32056126 -0.05871279 0.34903142 -0.1736498 -0.17645557 -0.047319025 0.39288792 0.027995098 -0.6135788 -0.13689241 -0.542959 -0.010478768 -0.33618948 0.6190364 0.23806973 0.16197546 -0.19590306 -0.31171936 -0.13670911 0.28719798 -0.18140121 -0.15898456 0.04816683 -0.25407007 0.14243835 -0.3683608 0.14819172 -0.09639827 0.052218262 0.36574093 -0.02702004 -0.08274681 0.1478036 0.06270292 0.08520222 -0.13590072 -0.14160217 -0.009611857 0.12285744 0.063171975 0.2728638 0.09959492 0.21865824 0.049947537 0.020364175 0.4979561 -0.17469457 0.4875406 0.15781382 0.425006 -0.045356553 0.45923615 0.23222256 -0.3180621 0.036897134 -0.28550634 -0.23997793
! 0.23088545 0.3981816 0.18927012 0.48800203 -0.24721603 0.52741057 -0.06408548 0.49883816 -0.13780478 -0.03096762 -0.04727632 -0.15318589 0.5345916 -0.38997164 0.023288121 0.09171925 0.58330864 0.048178427 -0.37374297 -0.59509844 0.36161396 0.23087579 -0.22468334 0.11018727 -0.30287653 -0.011805745 -0.3682676 0.26078337 -0.027642487 -0.38444015 -0.4352195 -0.76307607 -0.1874528 -0.46745718 -0.12999347 0.43952814 0.21619996 0.002199612 0.20372833 -0.83807397 -0.5865451 0.2667999 0.36701456 -0.19995768 -0.2575099 0.202087 -0.53186834 -0.68785524 -0.5121562 0.17638046 0.051027533 -0.094307736 -0.27592528 0.2589895 -0.49887463 0.19006395 -0.08040831 -0.48416916 -0.5328711 0.074884884 0.17981105 -0.41621968 0.097008824 -0.4126892 -0.08343197 -0.045507647 -0.33344096 0.07993566 0.26432952 0.50924295 -0.1312657 0.046892032 0.10462734 -0.034889333 0.25899836 0.31327674 -0.30288962 0.13588066 -0.44543323 0.038503256 -0.20057534 0.3306087 -0.1315909 0.30570287 -0.46965706 0.23997591 0.1882669 0.521553 -0.5548741 0.5131365 0.057237625 0.23461032 -0.12941761 0.08646242 0.08568601 0.7499969 -0.16149585 -0.4335478 0.22072887 0.29458743
健康 -0.2665999 0.04778506 -0.268013 0.22762842 0.360815 0.027049638 -0.44129476 0.7327859 -0.59047276 0.05097876 -0.234604 -0.38728458 -0.27938417 0.27904016 0.03175283 -0.6767522 0.166244 -0.65833366 -0.80679405 -0.90279084 -0.030497948 -0.24971293 -0.8279468 0.3988373 0.060602725 0.66148144 -0.1647775 0.31071544 -0.17957523 -0.24909227 -0.3482146 0.28595793 -0.19278422 0.75341856 -0.18715385 0.73496205 -0.24631609 -0.6280639 0.112363875 -0.4310306 -0.16139448 0.1311364 -0.084105834 1.0016478 0.20962836 -0.54909843 -1.0167668 0.115691036 0.38525397 0.065642625 0.2862942 -0.4546572 0.038483698 0.4310028 -0.5593755 0.18274078 0.50291234 -0.15857331 0.30775902 -0.14393203 0.37774143 0.13013197 -0.062500276 -0.2050293 0.12489134 -0.15208052 0.1844426 0.408199 0.11772243 0.4729079 -0.0992442 0.50228745 0.12003899 -0.2868767 -0.25156948 -0.20328437 -0.30394867 0.10680486 -0.8000053 -0.26972193 -0.649114 -0.21479663 -0.4573668 0.14619005 -0.32332435 0.8630252 -0.019779988 0.2796196 0.5208194 0.3064311 0.60151374 -0.027184753 0.21350725 0.398766 0.30431056 -0.25982597 -0.05348081 -0.20410152 -0.24054694 0.12838231
确诊 0.1683625 0.26568478 0.4227479 0.6713511 0.024075443 -0.2435114 -0.11794093 0.58248454 -0.7276266 -0.76182234 -0.22235072 -0.4888602 -0.058233432 -0.48584753 0.24922061 -0.11476024 -0.25310168 -0.5801684 0.36568117 -0.3997779 1.0294474 -0.65611684 -0.38881686 0.23901221 -0.08260551 0.59795547 -0.035747107 0.012941138 -0.34628725 -0.33899418 0.020268815 0.12385616 0.38806394 -1.1542107 0.17753358 0.0754447 0.38974425 0.048673905 -0.4187394 -0.18673275 -0.3331845 -0.14772508 0.07898138 -0.089686334 -0.22306083 -0.19803339 0.20501912 0.16534954 0.33848044 0.33873832 0.060929943 -0.3844404 0.08362683 0.35455164 -0.73565847 0.081143305 0.017871507 -0.38302508 0.2090149 0.006770315 -0.08603611 -0.16514954 -0.02177175 -0.20404716 -0.18309774 0.034632184 0.19586682 0.3707597 -0.2793665 -0.058350038 -0.014194541 -0.16096815 0.3254131 0.063121535 0.37873992 0.12616892 -0.4826589 0.58742774 0.29813063 0.4107069 -0.22081691 -0.024287643 -0.060858488 0.15032353 -0.03942155 0.027500974 0.50137836 0.1807161 0.20448872 -0.25073636 0.40193525 0.057752553 -0.3891154 0.12836841 0.056773953 0.4658678 0.023025278 -0.4300377 -0.48120558 0.042301666
会 -0.07218519 0.05454523 0.25290048 -0.13394007 0.30968276 0.0766881 -0.082511015 0.061668254 0.19182283 -0.05908387 0.014684515 -0.18110359 -0.065517776 -0.28776592 0.28483713 -0.32958987 0.4046795 -0.5437863 -0.02532885 0.20474117 0.5677623 -0.062322285 0.29604834 -0.31456995 -0.13793577 -0.28686947 -0.12376288 -0.16051811 -0.057922933 0.10372871 -0.255713 -0.3361479 -0.13974752 -0.5917157 0.30348948 0.15990584 0.09718427 0.0652578 0.1465651 -0.70803136 -0.3131154 0.027845185 -0.23919846 0.24807665 0.51262784 -0.112513766 -0.59237236 -0.88843036 -0.5037086 -0.014091944 -0.1938055 0.000929742 -0.21744446 -0.019440513 -0.32092938 -0.23216262 0.31323126 0.48991418 -0.20764032 0.40201437 -0.18891533 -0.2913821 -0.30798963 -0.023681715 0.24552733 -0.11943892 -0.21154338 0.18595302 -0.45738435 0.51443094 0.104796946 0.80846083 0.25208387 0.15508446 0.039992742 0.07651894 -0.2979371 0.57714504 -0.21366471 -0.07178387 -0.3059358 0.439255 -0.648229 -0.2048927 0.3670104 -0.3823336 0.08162345 0.3111149 0.4694367 0.17372826 -0.111854486 0.17832601 0.17729811 -0.0022560814 0.71062845 -0.052182082 -0.093988895 0.012611777 0.21995825 0.14310424
说 0.26453376 0.18155621 0.4269053 -0.23014836 0.60173666 0.014092982 0.27525252 0.21521392 -0.36107183 -0.32687205 0.2606714 -0.14343217 -0.46321976 -0.1274089 0.21084982 0.601625 -0.078413576 0.06972763 0.124435 -0.63069457 0.50481606 0.3500044 0.41633424 0.14837518 -0.25327167 -0.5625311 0.26462388 0.040106326 0.04627777 0.046660483 0.18068786 -0.35847384 0.571968 -0.50210303 -0.31603688 0.25921455 -0.27977082 -0.18595831 -0.25993893 -0.12994422 0.06572571 -0.1851289 0.17647433 -0.3250352 -0.15682429 0.14979814 -0.49468642 -0.00017992081 0.116472535 0.080534 0.021883212 -0.48673946 0.11103388 -0.22150506 -0.6481779 0.107788555 0.08343531 0.07323151 -0.38387117 0.15876333 -0.15941131 -0.3338529 0.4973769 0.19306539 -0.18998505 0.29605886 0.021792145 0.1669297 -0.266794 0.4100615 -0.019444272 0.006643016 -0.03310945 -0.28085858 0.20608185 -0.09706373 -0.4252703 -0.052176002 -0.49601766 0.10366309 -0.35318553 0.2824197 -0.014601195 0.16337222 0.48904684 0.11560021 0.5156682 0.118093975 0.1474158 0.11764762 -0.13525103 -0.25365186 -0.014177846 -0.24146363 0.33766574 -0.05237137 0.10751698 0.11180472 -0.1487493 -0.16595972
希望 -0.23806454 -0.13339266 0.1999088 0.29719517 0.3608435 -0.19561052 -0.30346265 0.6488143 -0.092702374 -0.56936425 0.08039213 -0.22412731 -0.3042385 0.00467671 -0.025878916 -0.4391609 -0.1545778 -0.25948307 -0.38574007 -0.5709219 0.08773747 -0.08553374 -0.15376455 0.4794898 -0.15931481 -0.23156863 0.32958323 -0.3583398 -0.053506438 0.5910818 0.2014295 -0.38039774 0.15578078 -0.18548647 -0.39410505 0.6238826 -0.03257569 0.050957266 0.035622682 -0.6107886 -0.32335332 -0.56392246 0.006900021 0.4955734 0.12227389 -0.47186863 -0.7196906 -0.504434 -0.10106653 0.1132516 0.31252077 -0.2728304 -0.31945017 0.21930303 -0.4657238 -0.122190334 -0.44876024 -0.1150364 -0.21461695 -0.14384428 0.21094212 0.08907873 -0.26498622 0.46503374 -0.06515787 0.013234123 0.17118761 0.01042993 0.071140505 -0.088871844 -0.069222935 0.27858794 -0.17346856 -0.014551775 0.7163027 -0.23343435 -0.5212519 -0.18442279 0.14221525 -0.06838595 0.009415313 -0.5062101 -0.5534434 -0.09687868 0.19697928 0.23187827 0.4120532 0.24494386 0.3194833 0.49713513 0.35259685 -0.3248463 0.30030185 0.27230912 -0.11343218 -0.058953233 -0.4780883 0.3092847 0.05172237 0.5972696
去 -0.44246674 0.040757697 0.41739193 -0.18691188 0.032909986 -0.31624323 0.08724541 0.31355238 0.17464164 -0.26549858 0.6731991 -0.6525979 0.50517607 -0.3346505 -0.1805126 0.16606495 0.052712314 -0.10821628 -0.097534366 -0.34856462 0.7243197 -0.042227294 0.25731537 -0.37137404 -0.15500264 0.16459316 -0.2850224 -0.059582263 0.06125644 -0.06849585 -0.27303588 0.05079471 -0.020316089 -0.3426113 -0.48293197 0.52595687 -0.29390362 -0.21324347 -0.57192916 0.031502545 0.0129436515 0.042121258 0.06501097 -0.08495275 0.15865555 0.7650356 0.015090362 -0.25269097 0.068233944 -0.14826111 0.025330713 -0.3688955 -0.025122823 0.4182345 0.33607158 -0.29964563 0.35889778 0.16332126 0.22006567 -0.47905475 0.0084234895 -0.21178506 0.10691756 -0.3401602 -0.25912386 0.20076898 -0.13319452 0.7300972 -0.6760621 0.09816599 -0.30376384 0.0024020304 0.46881917 -0.13774648 -0.08424772 0.78982973 -0.2620847 0.3024418 -0.62077796 -0.3036813 0.113626204 -0.5040923 -0.034284588 0.55505425 0.013660592 0.43982717 0.12081164 0.42110834 -0.25031272 -0.22667822 0.18438578 0.23537832 0.3889199 -0.35778102 -0.13035202 0.20005435 -0.53082174 0.3883416 -0.07569042 0.19191493
真 0.4484954 0.74344045 0.1978409 0.2633589 -0.0016215831 -0.30384097 -0.16259633 0.37286022 -0.43412787 -0.25866264 0.2816319 0.15164024 -0.23567107 0.028612398 -0.17550097 0.23410541 0.4060332 -0.15572928 -0.38332057 -0.38494334 0.75167626 0.5236413 -0.22559674 -0.1359352 -0.14359578 -0.22818853 0.4215357 0.083915286 -0.17237091 0.21157682 0.083032906 -0.42568824 0.2984699 -0.19028889 -0.16561584 0.31195518 -0.09540602 -0.5583998 -0.68972844 -0.5540956 -0.52578735 0.20494136 0.061859593 -0.27151683 0.14403425 -0.11220072 0.1799958 0.37169236 0.17994565 -0.008694515 0.29027298 0.18891194 -0.18571539 -0.15275843 0.14522693 -0.35744464 -0.2987663 0.60141456 -0.3349012 -0.14766935 -0.5342972 0.046343617 -0.37846455 -0.22480865 -0.33656415 -0.09477467 -0.06878266 0.30606002 -0.27767017 -0.4308847 -0.0023937204 0.4100174 0.03288499 0.02702083 -0.054524112 0.23889165 -0.15494563 0.05851732 0.16857708 0.6333465 -0.2497024 0.06705791 -0.3126457 0.1826228 -0.22402394 0.20377369 -0.01679848 0.030168418 0.28434563 0.34399462 0.49472627 0.4825984 0.56371313 0.12682287 0.29892218 0.28819552 -0.23929769 0.05674183 0.20389485 -0.046314266
病例 -0.031301793 0.59501487 0.5058874 0.53051037 0.09872118 -0.039935205 0.17063722 0.55964917 -0.7188637 -0.176977 -0.41292784 -0.37751412 -0.45613262 -0.34633362 -0.020727739 -0.22284657 -0.06772076 -0.56246316 0.6655225 -0.24440378 0.45767 -0.28519696 -0.3149171 0.108097866 0.024087798 0.56391644 -0.37562287 -0.014967202 -0.50791216 0.24901368 -0.33292648 0.3345031 0.1732891 -1.046554 0.036201827 0.25480124 0.3411267 0.12585813 -0.33169064 -0.32426187 -0.2321436 -0.07680069 0.4423471 -0.16914666 -0.06952556 -0.37243342 0.23532522 0.12270971 0.19742255 0.55914426 0.3724486 -0.28634802 -0.26644877 0.17279719 -0.22038019 -0.14842287 0.23776644 -0.35730988 0.25492868 -0.20409453 -0.31026718 -0.30052352 0.3643304 -0.25781292 -0.057297003 -0.18281789 0.013269194 0.512848 -0.27566072 0.14482951 0.011059272 -0.1055966 0.33562878 -0.050508127 0.7490192 0.27603784 -0.20891204 0.2195504 -0.00661998 0.18453453 -0.5225009 -0.041148584 -0.23358591 0.07404816 -0.25885954 -0.044783436 0.07751658 0.22631478 0.5832764 -0.069534495 0.054180253 -0.49302804 -0.1703399 0.13240121 0.25923374 0.2550262 0.22229625 -0.2580329 -0.5494697 0.25570196
戴 0.2554008 -0.14574076 0.15969616 0.59268457 -0.41654047 -0.34350088 0.12300323 0.3482912 -0.27362812 -0.17867689 -0.16765232 -0.9176938 -0.09652898 0.038292058 -0.2220354 0.48426694 0.53895265 0.09551921 0.02406284 -0.5026548 -0.26771444 0.6693305 0.3025661 -0.20521107 0.61774755 0.5462504 -0.39348426 -0.60834986 -0.1393838 0.6203906 -0.12812574 -0.26413447 0.6438556 -0.46739575 -0.27945977 0.5658557 -0.13789876 -0.6496677 -0.53384787 0.13867933 -0.45604795 -0.3130289 0.34612617 1.2137429 -0.34303194 -0.041347194 0.41611433 -0.28509712 0.17039236 -0.11288824 0.15535927 -0.29582638 -0.15704499 0.047651693 -0.12904142 -0.66917586 -0.107907824 0.4399212 0.12991478 -0.09309935 0.16204455 0.12401951 0.512233 -0.10676248 -0.8327463 0.25486535 -0.5164111 -0.3873038 -0.24521978 -0.08616278 -0.3001549 0.4342304 0.05104396 -0.29418197 0.11846151 -0.13860631 -0.05836153 0.2182033 -0.67190707 -0.052179836 -0.30191004 0.32303604 -0.6545299 0.11742171 0.18194127 0.51752007 0.21783873 -0.1644304 -0.043008022 -0.08022701 -0.00786045 0.121537276 -0.30698872 -0.23091835 0.3471742 -0.19331658 -0.11505732 0.051874418 0.0022370343 0.2724828
看 -0.0045003905 -0.2811188 0.8550134 0.12221759 0.29615417 0.2513727 -0.09850669 -0.39872035 0.12432383 -0.4303259 -0.023603216 0.07666238 -0.25818375 0.12192072 0.07675265 -0.7978152 0.24268241 0.017432611 0.060308307 -0.49640566 0.4993035 0.13461316 0.15372416 -0.13215518 0.3702696 0.17338882 -0.11702319 0.15966818 0.08489408 0.22751948 0.57620305 0.20844658 0.43777648 -1.0036321 -0.36046183 -0.07751329 -0.4998306 0.09379837 -0.010905253 -0.52076876 -0.28435653 -0.4351812 -0.048876595 -0.26595923 -0.2174644 0.22897826 0.1078006 -0.25518894 0.05325036 -0.018141821 0.61400354 -0.21867223 0.0035646532 0.0930498 0.10803788 -0.02437481 0.29121324 0.65023017 -0.5201065 -0.025671648 0.20087078 0.03039469 0.061007928 0.011262229 -0.009514519 0.45070857 -0.108010165 0.8886694 -0.57133234 0.21863827 0.005163172 -0.50261354 0.027531276 0.029555956 0.32495525 0.26164636 -0.3724291 0.2602073 -0.48854873 0.08027922 -0.23513947 -0.055771995 0.19707082 -0.011619169 0.35607705 -0.09611309 0.33374006 -0.45550725 0.089762405 -0.010872908 -0.048295688 -0.43431026 -0.6061429 0.003632965 0.22323655 0.3334362 -0.70269257 -0.30436653 0.19152361 -0.6080181
保护 -0.49715465 0.26588374 -0.09518398 0.35969728 -0.036240045 -0.18590209 -0.5654746 0.3012761 -0.18328708 -0.10814541 0.0019073657 -0.3925155 -0.129438 -0.07294036 -0.21738233 -0.25224605 0.30509138 -0.62395585 -0.1274875 0.002114676 -0.25139213 0.4453979 0.23797669 0.09642709 0.09106148 0.4058622 -0.691821 0.5885424 -0.3546332 -0.2664368 -0.08837335 0.09066414 0.2552931 -0.055927042 0.08832724 0.7502838 0.0016956573 -0.3532608 -0.31263092 -0.42716485 -0.0937257 -0.25482607 0.10144394 0.4830483 -0.19355227 -0.12641779 -0.46164164 -0.6151036 0.22259538 0.080476694 0.5680976 -0.4225727 0.45692027 0.33439466 -0.79517967 0.39800665 0.1551867 0.1704013 0.02249231 -0.23577109 0.25651196 0.2645083 0.04727636 0.04144368 -0.7254808 0.6282605 -0.004373594 0.38083497 -0.12892254 -0.43219626 0.37629846 0.6644327 0.4320133 0.12075323 0.12530825 0.090467066 -0.26738748 0.39015302 -0.9497587 -0.18135568 -0.38848737 0.30099708 -0.6052195 -0.47303554 0.23597881 0.41675985 -0.34820768 -0.07545935 0.708978 -0.17164227 0.04757083 -0.018674925 -0.48962 0.02098003 0.49636143 -0.14061432 -0.7390525 -0.14089744 0.4772352 0.3674994
一定 -0.12507212 0.60541743 0.3649305 0.18040824 0.17159005 -0.4069288 -0.34327906 0.40879723 -0.27972233 -0.2544635 -0.07371338 -0.1310903 0.41724396 0.022332145 -0.41500735 0.071203426 0.39314002 -0.23493008 -0.31670517 -0.46591264 -0.054502733 0.46495613 -0.18613917 -0.47567177 0.44447476 0.08473861 -0.27997422 -0.2608035 -0.5341391 -0.079590574 0.44191086 -0.6619 -0.16027604 -0.14013654 -0.14077246 0.8783713 0.40475655 -0.61877173 0.026293246 -0.47086176 -0.39146066 0.3741869 0.19012722 0.39258546 0.19506723 -0.33898678 -0.2999988 -0.34834585 -0.21996878 0.009315812 0.36309412 -0.29807043 -0.40856287 0.31507763 0.17053269 0.28637743 -0.4086107 0.18949132 -0.7010417 -0.9533437 0.27714095 0.48152816 -0.057090603 -0.16718073 -0.2847627 -0.2525719 -0.6080799 0.20367336 -0.18760967 -0.616082 0.19170125 0.7589001 0.16597135 0.0471066 0.50127023 -0.23557395 -0.38672018 0.44122207 -0.34419367 -0.28368095 -0.3495054 0.24400876 -0.25650722 0.047329612 -0.011069928 0.12277205 0.41108975 0.38271737 -0.507805 -0.28054687 0.41786405 0.045951597 0.06901741 0.23150355 0.10627362 -0.059111375 -0.25628403 0.20790909 -0.21830581 0.3631461
场 -0.4474439 0.28242096 0.28724924 0.05632455 0.35328305 0.19924979 0.020874443 0.68194693 -0.4670198 -0.59009695 -0.36670125 0.009849828 0.8093039 0.7992368 -0.26299104 -0.6571131 -0.15809986 0.11494792 -0.13422996 -0.4247585 -0.002070349 0.2846044 -0.72264683 -0.16493356 -0.14666857 0.25427505 -0.39412394 0.17800687 -0.5420149 -0.16331041 -0.098369546 -0.13928589 0.074881494 -0.012047905 -0.08491046 0.78086776 -0.97203 -0.21933644 -0.553665 -1.0621532 0.034775116 -0.20808214 0.24426728 0.27249512 0.06762485 -0.7777845 -0.74969107 -0.5508703 -0.0034239145 -0.27386132 0.67913586 -0.61566216 0.20282917 0.001734459 -0.19980463 -0.38374704 0.45057026 -0.12119392 0.25877213 -0.17711234 -0.2563469 0.10801365 0.8085411 -0.09084503 -1.3330735 0.44557807 -0.3268356 0.2941829 -0.15682346 -0.100936085 0.81398576 0.22538993 0.057001147 0.7093284 0.4603777 0.2877891 -0.6345757 0.420626 -0.6571788 0.038903575 0.6011485 -0.17144027 -0.89233136 0.33803996 0.22645481 -0.064063095 -0.09471978 0.30871972 0.04141233 0.066986784 0.45008025 -0.08580957 -0.09989237 0.7067617 0.039081573 0.05766361 -0.43655494 -0.5584718 0.5268292 -0.72694194
辛苦 -0.41141126 -0.06460839 0.24567525 0.43390176 0.59207433 -0.35211655 -0.18377303 0.49355167 -0.5672656 -0.41116765 0.47677577 -0.29715237 -0.17806476 0.060547337 -0.5191942 -0.2513993 0.45974684 -0.6235854 -0.66825736 -0.4283592 -0.37901956 0.4038419 -0.6032377 0.43375614 0.7392934 0.3076397 -0.3518117 0.065934 -0.52105 -0.47151574 0.16797493 -0.05805218 -0.40526035 0.1760126 0.03332377 0.56013083 -0.11829808 -0.35518247 0.24955557 -1.5174531 0.39577293 -0.0021778112 0.44461524 0.33943048 -0.2716185 0.006090555 -1.121652 -0.2173427 0.014484815 0.0074480716 0.73639524 -0.5274917 0.35066578 0.12899385 0.16548939 0.11055871 0.26328567 0.19967708 -0.12860169 -0.26534113 0.6878775 0.6837726 0.10291781 -0.47636178 -0.274722 0.28330812 0.11015763 0.049225803 -0.3021515 -0.43009257 -0.1235284 0.30229688 0.28699586 -0.39004847 0.15237029 0.2652353 0.08629683 0.56457514 -0.49821737 -0.46662587 -0.52593654 0.40821785 -0.42228448 0.6428667 0.036091216 0.88273287 0.18978682 0.09643568 0.26500553 -0.047669478 0.36798435 0.47198194 -0.42209578 0.04552153 0.09511598 0.5803073 -0.9924788 -0.19475597 -0.75179696 0.09579827
做 0.035388615 -0.046845905 0.080952615 0.41482922 0.13542922 -0.036910575 -0.3040663 0.66998684 0.09564467 -0.08163888 0.3266231 -1.2220358 -0.13709866 0.40879092 -0.17808902 -0.20428698 0.48155254 -0.0852467 -0.24150363 -0.41088098 0.5018788 -0.4823215 -0.1233582 -0.42157492 -0.28865522 -0.047061864 -0.49126393 -0.33862603 0.34787992 -0.13962547 0.026286043 0.35918522 0.7468155 -0.1167337 0.22889075 -0.049367934 -0.06772982 -0.50878835 -0.22814853 -0.19816358 -0.080596566 0.024577633 -0.9568752 0.3006809 -0.058866903 -0.6245662 -0.1584661 0.31078085 -0.5694596 0.06868941 0.46625066 -0.30426157 0.13696444 -0.014869547 -0.08114866 0.3077283 0.35734564 0.04666261 -0.41971678 -0.29491594 -0.36166942 0.43505877 -0.29523683 -0.24786842 -0.47835344 0.2012583 -0.71668655 0.34565303 0.23090988 -0.92753154 0.4710992 0.48707712 0.030633839 0.28118166 -0.16308051 -0.32940096 -0.090290986 0.05621063 -0.76117563 0.019220982 -0.24492474 0.2705322 -0.33076262 0.27044287 0.3460232 0.160209 0.14538087 0.32076403 0.3800223 0.0052153287 0.413422 -0.0755369 -0.39873722 0.12510666 0.27786025 0.56800044 -0.71575177 -0.69196457 0.38227883 0.74240243
赢 -0.47515604 0.3675417 0.6339555 0.026004408 0.017622191 0.12804607 -0.02853387 1.1580856 -0.46970454 -1.2465818 -0.10206444 0.09474479 0.6530124 0.168864 -0.29188222 -0.3278944 -0.025965596 -0.14948654 -0.08321912 -0.51848847 -0.21387222 0.6954391 -0.6694698 0.32466516 0.066100866 0.01765081 -1.0243467 0.059602816 -0.6536388 -0.32071382 0.34623316 -0.33239585 -0.22109501 -0.022647947 -0.31703267 1.1798164 -1.3115953 -0.10303356 -0.026895832 -1.097078 -0.3740138 -0.16927707 0.49502814 0.643771 -0.10125013 -0.6072325 -0.6218865 -0.9527401 0.018671367 -0.7344341 0.14331758 -0.8427853 -0.22703195 -0.12929067 -0.07943815 -0.17487566 0.09239286 -0.64764524 0.6053347 -0.30205718 0.26815107 0.13366273 0.8412402 -0.026865035 -1.1058509 0.31855375 0.17934614 0.5156858 0.6054422 -0.028148592 0.6212516 0.27702314 -0.15391216 0.272597 0.42991677 0.15562914 -0.29280365 0.15931058 -0.7837636 -0.35863134 0.34795466 -0.34211478 -0.7332076 0.72353417 0.087887935 0.01844987 0.21112843 0.45728588 0.30889052 -0.25111055 0.503752 -0.015550652 -0.46178806 0.71508914 0.7654334 0.36377442 -0.23054744 -0.42901537 0.29539955 -0.13442087
年 -0.77232003 0.07667904 0.08178804 -0.0924927 0.31876403 -0.03707915 -0.23725067 0.35688934 -0.74617434 0.56953746 -0.34211418 -0.11873795 -0.08748175 0.47992152 0.2627603 -0.12791416 0.1415768 -0.1640932 0.27959085 0.048220728 -0.2581478 0.13726608 0.061336387 0.74224025 -0.42880806 -0.30463004 -0.2833215 -0.114718504 -0.2164563 -0.16347083 0.35279742 -0.51040894 -0.09685392 -0.08426137 -0.026653739 -0.037709516 0.33549738 0.04082089 -0.5820802 -0.14391191 -0.28565362 0.31079933 -0.24107783 0.5555961 -0.39490443 0.655315 -0.44866994 0.30036074 0.4853336 -0.22254907 0.3529587 -0.77114725 -0.11721105 -0.06829801 -0.15315375 0.089809634 -0.21554367 0.10452972 0.05194895 0.20441417 -0.73063946 -0.63278896 0.0025944728 0.11779814 -0.175845 0.0020909132 0.24501362 0.7395943 -0.21491091 0.18040486 0.26745862 0.34828925 -0.17883167 -0.115338214 0.4947276 -0.31685445 0.15235507 0.12286499 -0.78838927 0.16493095 -0.56554055 0.17436127 -0.47671908 0.19852342 -0.16390052 0.30642372 0.3019913 0.34952366 0.11764582 0.24311298 0.52625376 -0.35000867 -0.12665159 -0.5270065 -0.23857671 0.025456984 -0.57657254 -0.28759527 -0.28939703 -0.13235584
上 -0.5051022 0.38455218 -0.13183247 0.12907805 0.4151278 0.11228763 0.37741166 0.26825657 -0.46377254 -0.3463938 -0.71390754 0.18513602 -0.25273004 -0.24841161 0.19210601 0.06185664 0.52296853 0.0022430583 0.17232049 -0.12110849 0.65322244 -0.27218372 0.056613993 -0.34118876 -0.29153273 -0.36242953 -0.20289896 -0.66532576 0.063984334 -0.9547962 0.37003246 0.15745407 -0.2819501 -0.07687082 -0.48683646 0.4871452 0.21483436 -0.27974206 -0.047198486 -0.78150475 -0.3687173 -0.30664128 -0.046728797 0.14547883 0.4107124 0.53215593 -0.049782425 -0.17371182 0.37894103 0.22292183 0.19224064 -0.7167057 -0.21889034 0.18030137 0.6078058 -0.8989002 0.08786206 0.505485 -0.54978037 0.44207853 -0.27528426 0.014523303 -0.34968725 0.59589696 -0.09555452 -0.18822034 -0.42956957 0.008115596 -0.18611988 -0.37758523 -0.21686064 0.032464545 -0.05950227 -0.37122345 -0.0568082 -0.5076124 0.10177231 -0.58714515 -0.1661656 -0.15107788 -0.46192786 0.6292965 -0.24338022 0.07790868 -0.13662937 -0.31441453 0.22674668 -0.08708533 -0.092343375 -0.3595598 0.08010768 -0.3545466 -0.40038225 -0.23573661 0.17188235 0.2670244 -0.61690557 0.45494753 0.46781105 -0.5982268
所有 -0.38899788 0.39950144 0.2381427 0.14204432 0.5729842 0.02497898 -0.90643084 0.6836152 -0.52412564 0.43628412 -0.5302659 -0.7140413 -0.14854889 -0.26968542 0.08726318 -0.27638423 -0.5723644 -0.65242636 -0.24166186 -0.38509023 0.3178838 -0.14907697 -0.5584888 -0.53175783 -0.2691543 0.07741742 -0.10781181 0.19810458 0.0032630267 0.4355956 -0.56793743 0.33220616 -0.09869467 0.4611216 -0.53408444 1.041242 0.13638909 -0.094679646 0.5693789 -0.5886622 0.15561718 -0.22537673 -0.59098274 0.007772802 0.025831837 0.21386051 -0.1493333 -0.63437986 0.09189718 0.114870824 0.050193183 -0.46145558 0.25459123 -0.047995336 -0.096705616 -0.23599167 0.3391666 0.27261424 0.06145689 0.039717574 0.9628987 0.25395003 -0.10974014 0.4664551 -0.041423235 0.6222292 0.18458451 0.15603729 0.009332676 -0.13508354 -0.8843928 0.30809593 0.6268078 -0.24216814 -0.11334632 -0.10518061 -0.1110191 -0.31805614 -0.2764972 -0.07169154 -0.3920147 0.112918906 -0.49268264 -0.13503748 -0.36462 0.6912706 0.22202843 0.38003635 -0.17857566 -0.053605147 0.40385357 -0.120703265 -0.5606944 0.86122864 0.415696 0.6092901 -0.36320606 -0.08257577 0.3130264 -0.0010978825
没 0.18906242 0.24752457 0.044923645 0.039036267 0.33791217 -0.25432822 0.3213775 0.006250544 0.15041625 -0.21327013 0.2180086 -0.48220864 -0.14051272 -0.12730753 0.67511266 0.09036816 0.05569959 -0.48818797 -0.4418836 -0.510239 0.64980054 0.018507302 0.23551956 0.14707519 -0.3322065 0.2301274 -0.028049009 -0.16007134 -0.0547137 0.35807425 0.4763145 -0.40584084 -0.1174919 -0.5248759 -0.1577196 0.22656423 -0.1358532 -0.016266337 -0.4793304 -0.19388643 0.33889934 -0.066536896 -0.3420375 0.19352694 -0.03651392 0.3430757 -0.23455487 0.11533364 -0.5397205 -0.312877 -0.14379962 -0.20864657 -0.08114424 -0.33091888 0.060231913 -0.64422226 0.24774614 0.3992194 -0.136534 -0.38325176 -0.25683627 -0.07828757 0.15909374 0.32052204 0.3010026 0.1991007 0.07887945 0.070895165 -0.6369901 -0.030012596 -0.3360681 0.09273839 0.17805591 0.0069862623 0.11385372 0.13023971 -0.40157098 -0.09337809 -0.37213078 0.31563455 0.09303373 0.025337763 -0.18483293 0.2963315 0.014472087 -0.08219649 0.15387076 -0.12629572 -0.18408209 0.1494315 0.6385023 0.09257748 -0.20766352 0.5592545 0.61676496 0.2500289 0.42337373 0.47502393 0.25943744 0.08663776
感染 0.02968477 -0.19357213 0.16270187 0.39206517 0.26833063 -0.10769622 -0.44149223 1.256915 0.30335644 -0.035245094 -0.27657783 0.24551037 -0.0026449338 0.09013947 0.45348382 -0.02235891 0.7141981 -0.67618996 -0.36448473 -0.73160434 0.13497362 -0.013686403 -0.3103643 -0.016463323 -0.585109 0.52507937 -0.15080547 -0.6915492 0.035630148 0.11079452 0.16816838 -0.13924524 -0.15686841 -0.51589066 0.48109725 -0.032630645 -0.14709167 -0.05120862 -0.5038143 0.21981072 -0.4333784 0.250654 0.5047312 0.41611257 0.4779366 0.006987275 0.012153407 0.07807858 0.2728597 0.16551095 0.5422949 -0.014336707 -0.047686536 -0.118706025 0.014523456 0.34791234 0.4625119 -0.27097288 0.6697651 -0.17515025 -0.20780762 0.20826852 0.29049778 -0.15707922 0.35707575 -0.03355914 -0.3567417 0.043688092 -0.06878013 0.85291415 0.40233043 -0.1049046 0.22431318 0.15856138 0.49159354 0.28015426 0.27430633 -0.03047781 -0.10376879 -0.2759737 -0.3356223 0.53105474 0.27403495 -0.34114227 0.43111062 0.078437 0.28436723 0.51191396 -0.5216278 0.5039403 0.4710918 -0.06257008 -0.40436846 0.2913389 0.6053414 0.031045768 -0.5457596 0.19837904 0.07141049 0.052038454
大 0.31109294 0.26418746 -0.023601264 0.4176161 -0.27119225 -0.21039857 0.21698864 0.831744 -0.66990846 0.27383474 0.26535723 -0.00919574 -0.37747768 0.11665424 -0.22564177 -0.52069724 0.48716763 -0.9408121 0.09354871 0.2096165 0.49258572 0.38091365 -0.027449973 0.45173082 0.085394956 -0.11325514 -0.09591261 -0.36901808 0.294775 0.006956993 0.4657295 0.024620917 0.53769547 -0.30467266 0.24655166 -0.056668162 -0.4030606 0.5812372 0.050787 -0.29502735 -0.19337381 0.029446952 0.16625504 -0.013229241 -0.30598983 -0.32541144 -0.06259605 -0.11658852 0.030242423 0.3952567 0.026286453 0.08654203 0.03103406 -0.17918113 0.11012352 0.27081978 0.21497855 0.34666574 0.018985726 0.026431318 -0.32298225 -0.6424247 -0.43122914 -0.54763734 -0.31199312 0.3560123 0.25144735 0.381806 -0.62522084 -0.2714592 0.0018857238 0.28959262 -0.023326328 0.0076586087 0.18768431 -0.3255615 -0.20089073 -0.46152425 -0.23056577 0.36305693 0.51807874 0.2978075 -0.41167915 0.32896063 -0.93854 0.67247427 0.77369165 -0.09517126 0.37200174 0.51128286 -0.06892408 -0.073356226 0.46319565 0.4405339 0.4629937 0.35764468 0.29479438 0.13338639 0.36302873 -0.19642794
很 0.5858222 0.32105416 0.61710954 -0.2169619 0.47600108 0.17346056 0.037682276 0.13748062 -0.18994588 -0.37418857 -0.33353615 0.42739478 -0.393698 0.9001681 0.1820461 0.3170599 0.14126188 -0.34814122 -0.34612745 -1.0302343 0.8390635 0.38680854 0.028261855 -0.3969187 -0.46586248 -0.15569143 0.05504267 -0.25185862 0.1012966 0.5068976 0.06818868 0.17512798 0.20773633 -0.37594283 0.46946007 1.1600556 -0.48567945 -0.14355026 0.109089814 -0.8227185 -0.37054637 0.16360705 0.01441026 0.15630361 0.036820807 0.3494989 0.4254766 0.105037384 0.14261279 0.6232873 -0.30116546 -0.15261258 -0.24759133 -0.2284319 -0.7754808 -0.268161 0.061024107 0.281091 0.098655574 -0.13792153 -0.2208289 0.014384153 0.40875342 0.30263108 -0.29503885 0.23156154 0.32969487 0.34471273 0.07478737 -0.09524575 -0.022913454 0.35203987 -0.40717176 0.25033543 0.0369559 -0.6423147 -0.19976127 0.09071626 -0.03479476 0.11312154 -0.33143377 -0.18685074 -0.051956102 0.13337529 -0.35143387 0.35359868 -0.29863206 0.02212908 0.14613529 0.29588005 0.0747119 0.21267545 -0.16020137 -0.09871512 0.20915827 0.37638548 -0.17206949 0.16737443 -0.37351167 0.048257854
没有 0.11443451 0.03745013 0.08378906 0.21245825 0.22162837 -0.18498251 0.04097459 0.00034578412 -0.51922816 -0.112137675 0.032715883 -0.6829403 0.5297948 -0.08753001 -0.11796065 -0.080228314 0.32881823 0.13779457 -0.5869082 -0.252463 0.63740766 -0.2358173 0.6139929 -0.27648446 -0.21184902 0.1789449 -0.16779406 -0.16921467 0.46123356 0.093856275 0.28222105 -0.51772046 -0.07572178 -0.8390741 -0.4887424 0.27203503 0.16015954 0.14798687 -0.23765261 0.3017464 -0.3139628 0.06835493 0.42107204 0.5342477 0.190045 0.33933854 -1.3674983 -0.109679505 -0.8160981 -0.2821867 0.56525695 -0.81422573 -0.016312176 -0.2548409 0.41245148 0.16365342 0.11045957 0.20178148 -0.6977791 0.043722495 -0.16439405 -0.4142024 -0.22587644 0.17223333 0.00892645 0.5340359 0.3291679 0.07191462 -0.14878406 0.11960381 -0.35801494 -0.3585867 0.42744 0.15524009 -0.15856703 0.07667964 0.36614496 -0.0070766844 -0.2796136 0.20419836 -0.013120041 -0.07600956 -0.3667781 -0.7476934 -0.32843822 0.05661374 0.17036182 0.20476829 0.236782 0.44305253 0.055842113 -0.2526761 0.25563592 0.12341818 0.66754514 0.15471539 0.4308134 -0.17296936 0.42422703 0.075220466
防护 -0.10401585 0.315687 0.54381025 1.1708571 -0.47009897 -0.472948 -0.121569835 0.3286942 -0.3689346 -0.5951188 -0.33278424 -0.76231784 -0.4385796 0.08805458 -0.04766022 0.41515383 0.42518935 -0.010364076 -0.21829413 0.028421054 -0.14154002 0.28251746 -0.22884588 -0.63597107 0.5758336 0.6593067 -0.43394563 0.37233806 0.122554414 0.28282812 0.4967011 -0.36379215 0.54570025 0.40403074 -0.3702622 0.8225057 0.24673925 0.030488813 -0.103374414 -0.54056907 0.30436498 -0.12132111 0.23839876 0.43068093 0.09252095 -0.20383771 -0.37098312 0.108738415 -0.4091238 -0.010961807 0.24829333 -0.6796606 0.6026666 0.40641493 -0.31398687 0.65146095 0.15671334 -0.066665776 -0.32024983 0.46139982 0.16967234 0.64862525 0.1077631 0.25591758 -0.8552095 -0.053036917 -0.23849435 -0.0015487043 -0.58507496 -0.19741024 0.38394096 -0.04468595 0.2716174 0.08137533 0.22175248 -0.07576945 0.3930116 0.6003063 -0.7693903 -0.06586501 -0.2873075 0.84439975 -0.46384886 -0.010937331 -0.15960385 0.8291817 0.65172243 0.29343992 0.1104795 -0.21918476 0.24074276 0.6228484 -0.40205112 0.44901675 -0.44697237 -0.14424212 -0.43423754 0.22956441 0.67130315 0.14432889
吃 -0.18267092 -0.46649274 0.43213758 0.08656184 -0.4217709 -0.11035069 0.47945893 0.3319054 -0.06499891 -0.5112666 -0.6533406 -0.19629414 0.11190288 -0.6307326 -0.40508336 -0.06175408 0.16139229 -0.24115469 -0.010886545 -0.5220365 0.33044794 0.11695347 0.691464 0.21753536 0.19125482 0.089799464 -0.090726174 -0.7688401 -0.5726401 -0.050326657 -0.17563456 -0.3604772 0.6156916 -0.31277832 -0.13949835 -0.03435974 -0.86914355 0.22586845 -0.19082932 -0.27982718 0.103305005 0.51314706 -0.08601765 -0.46284357 0.5312866 0.5287735 0.23159951 -0.5766617 0.023490878 -0.11670117 0.44850278 -0.7443057 -0.16665734 0.3588924 -0.83724236 0.36029798 -0.1436521 -0.122783825 -0.49266928 -0.18722948 0.018470345 0.27988306 -0.7218637 0.02286881 0.06441934 -0.12232197 -0.4766215 0.19837262 -0.6847565 -0.092802145 -0.1837788 0.1571966 0.97539186 -0.5021692 0.14898063 0.37821463 -0.032381378 -0.059127454 -0.41605335 -0.44905815 -0.38690117 -0.011597613 -0.66024 0.23672298 -0.2552748 -0.3979109 -0.2119411 -0.64993507 0.10616958 0.33714274 0.5818257 -0.05774822 0.5651412 0.24651614 0.27109724 0.38830784 -0.5559877 0.13197526 -0.020613443 0.37637687
医院 -0.14675768 0.28501424 -0.38272998 0.0060520717 -0.53236294 -0.63554853 0.13497034 1.025037 0.19195278 -0.42013374 -0.10905637 -0.39943928 -0.21937436 0.6848509 0.15211304 0.56051373 0.36477256 0.2506118 -0.15228435 -0.004747835 0.1461059 -0.020969886 0.079797775 -0.45357025 -0.62107664 0.40374464 -0.5396735 -0.5210621 -0.2846136 0.9453741 -0.11843073 -0.22237206 0.10110874 -0.2608339 -0.03797979 0.12266211 0.27129197 -0.5009567 -0.14881577 -0.23912889 0.21652222 0.35349977 0.6797573 -0.329452 -0.014212674 0.16605699 0.14391378 -0.5371436 -0.17262001 -0.09069974 -0.4517054 -0.50512284 0.5448785 -0.44095954 0.19884983 -0.20213939 0.49054584 0.0577817 -0.12920749 0.16151604 -0.3282563 0.21958853 0.2877772 0.6133126 0.010541464 0.2759288 0.031014249 0.019155258 -0.53470314 0.113420986 -0.015384029 -0.47403112 0.5865211 -0.9026474 0.0059111817 0.56125224 -0.06772772 0.3663217 0.6144636 -0.38708335 -0.19321796 0.07559762 -0.38306314 -0.5310439 -0.744916 0.068310216 0.36598238 0.13087699 0.6946986 0.6523211 0.7498278 0.22259761 -0.28441483 -0.24491087 0.5121154 -0.26798233 -1.1590928 -0.77378875 0.23297827 0.18099411
一个 0.2896375 -0.49505016 0.35421094 -0.30803427 0.20254536 -0.3499596 0.2588482 0.44539538 -0.06292767 -0.01636231 -0.63881767 0.12268966 -0.5113838 -0.08509439 -0.17469226 0.19449492 0.07942696 -0.31038678 0.17268181 -0.3498143 0.10766514 -0.010001189 0.03170146 -0.097307384 -0.71736413 0.39172626 -0.42753255 0.4725378 -0.53625184 0.21867995 -0.25817063 -0.67149824 -0.5941249 -0.3484302 -0.3527874 0.51205033 0.055411823 -0.37371844 -0.109728135 0.023843981 -0.5035019 0.28433856 0.016130922 -0.116155684 0.034005165 0.31654438 -0.6551663 -0.2204629 0.28437787 -0.8332235 0.14954893 -0.7253043 -0.21451832 -0.36715084 0.33205423 -0.6387716 0.7165176 0.5828431 -0.11266167 -0.26314166 -0.15200703 -0.30137038 -0.31730807 -0.46830347 -0.15255696 -0.042466953 0.685989 -0.3479795 0.048820104 -0.10309884 -0.20781216 -0.27611277 -0.1833743 -0.23995422 0.46989423 0.07617756 0.12871 0.25381666 -0.67559123 0.0084685935 -0.34898102 0.3637585 0.14918527 0.25251457 -0.5087294 0.019110255 -0.19047326 -0.62819946 0.27795455 -0.5221298 0.29378462 0.36986256 0.6532281 0.048967738 0.11472556 -0.004770066 -0.3069286 0.016414937 0.22414051 0.15482737
想 -0.46680492 0.08453845 0.26170012 -0.23139621 0.2492497 -0.40986797 0.40206438 -0.19776244 -0.30965313 -0.4878737 0.13079219 -0.6427736 0.07271202 0.14627537 0.3341994 -0.09389852 -0.121661276 -0.4093565 -0.24214998 -0.35189062 -0.067543894 0.07345781 0.02994208 0.17213668 0.07904186 -0.015292497 0.1233969 -0.08203485 0.5160969 0.24782515 0.049768593 -0.28484732 -0.17390117 -0.42738733 0.08515655 -0.42728212 0.48701924 -0.34437132 -0.13329187 -0.76197815 -0.3953186 -0.25340748 0.24531043 -0.2711117 0.4308164 -0.6729271 -0.5045259 0.1668268 0.32445356 0.58464617 0.05869696 -0.4404277 -0.4174158 -0.079608485 -0.040107448 -0.154764 -0.32661268 -0.16156279 -0.069128245 -0.06546847 -0.112171136 -0.26851356 -0.15347783 -0.19842732 -0.119019024 0.8035535 -0.20357189 0.3837673 0.1406968 -0.16067679 -0.17899613 0.6742749 0.43000552 -0.5462126 -0.2706218 -0.1413953 0.5101205 -0.2845146 0.04933732 -0.34450814 -0.22789599 -0.1782562 0.0050774086 0.2899402 0.45939776 -0.1091913 0.1717223 -0.54559284 0.11968972 0.56839484 0.6521456 0.69568014 0.06120528 0.086915046 0.41046774 0.36121258 -0.25787404 -0.19484973 -0.34235463 -0.6701627
注意 -0.42741403 0.29739183 -0.2664149 0.31579977 0.3979401 -0.23235546 -0.3779345 0.78107536 -0.36777288 -0.17259018 0.31889942 -0.55506754 -0.029456649 -0.22136068 0.11718481 -0.20916556 0.21116866 -0.2277753 -0.42560655 -0.9360385 -0.9672119 -0.066636145 0.52429837 -0.46694118 0.52807486 -0.07515859 -0.9616326 -0.30682376 -0.2322799 0.014546307 -0.46609423 -0.5927105 -0.25059292 -0.16790263 -0.049457014 0.16827768 0.19138542 -0.20075087 0.08863818 -0.11856068 -0.29352424 -0.7568363 0.57441807 0.6191605 -0.04539259 -0.27490336 -0.38319653 -0.35987833 0.47378033 0.6268134 0.20751417 -0.40559077 0.3147075 0.113662034 -0.33344975 0.37194008 0.34497997 0.5394754 -0.27445677 -0.19908662 0.06269262 0.25515434 0.025392503 -0.17447081 -0.8210817 -0.35940427 -0.3303055 0.24806277 -0.06421653 -0.36124948 -0.45859694 0.59484196 0.30999437 0.09256986 -0.14767827 -0.12734096 -0.55490184 -0.32797602 -0.7090995 -0.14356695 -0.20622002 -0.0264721 -0.32357055 0.10755344 -0.23966867 0.49280953 -0.045982584 0.1351921 0.28455603 -0.14915131 -0.02254041 0.6852019 0.04895361 0.49745992 0.46135682 -0.18301794 -0.47316074 0.32386523 -0.03052608 0.23067151
天 0.027443958 -0.07892097 0.5410456 0.6065964 0.23789476 -0.1660848 0.4991757 -0.06321764 -0.38587457 0.01909563 0.3268485 -0.30301458 -0.0163358 0.10638007 0.75584424 0.031136554 -0.022512939 -0.33019036 -0.100482784 -0.24888052 -0.17654844 0.18327959 0.2904123 0.59457535 -0.56800044 0.5024297 -0.062181797 0.055553205 -0.233033 -0.14206111 -0.08078919 -0.45032358 0.07337898 -0.6836324 0.24416018 -0.2703002 -0.42285174 0.2678266 -0.48178804 0.34516263 0.05227245 -0.22214386 -0.05555786 0.10666267 0.694566 -0.1405924 -0.3850766 -0.2355974 -0.7683442 0.57252216 -0.04529901 -0.8739226 -0.085137166 0.03252833 -0.16045234 -0.34657028 -0.068297535 0.19824904 -0.014247587 -0.17236556 -0.25443754 0.35144824 0.13270144 -0.5103106 0.127586 -0.19312789 0.34391558 -0.039519556 -0.35957217 -0.019535482 -0.430423 0.40800413 0.24229841 -0.42657775 0.3096092 0.04323879 0.10082263 0.2604947 0.34430584 -0.020857176 0.10292534 -0.06909315 0.016187532 0.52268285 -0.09000415 0.12084642 -0.034427896 -0.054346573 0.57794166 -0.41876414 0.34197822 -0.40035835 0.03106815 0.06702134 0.51408625 0.22538601 -0.23292202 -0.59362006 -0.078728236 -0.016762707
一线 0.06478187 -0.24500573 0.37996575 0.041654274 0.3018232 -0.44275492 -0.22298971 0.5982563 -0.02926024 0.16021575 -0.114739664 -1.0369543 0.46814665 0.017604768 -0.008827543 -0.12315478 0.3093058 -0.5878954 -0.36640152 -0.17044148 0.243666 0.822939 -0.6142046 -0.110825166 -0.14379385 -0.6062383 -0.24313606 0.6233556 -1.0256798 0.050961 0.16678649 0.025784673 0.018175045 -0.5206229 0.21419036 0.6324627 -0.65403116 -0.29187402 -0.37770545 -0.30584294 -0.42277622 -0.028078742 0.5316589 -0.41732392 -0.4374645 0.15679622 -0.9087935 0.1331983 -0.28429884 -0.7378837 0.28349885 0.16244072 0.4105794 -0.40357596 0.07608532 0.48950505 0.48279554 -0.27361292 -0.12533858 -0.21209948 0.35554916 0.50354385 0.15396303 -0.7476624 -0.6501412 0.60215634 -0.056434963 0.44655052 0.23972264 0.06610001 0.061443865 0.223349 -0.09401 -0.17444845 0.6062151 0.30338198 -0.29394433 0.27930272 -0.37485415 -0.9510296 -0.10460121 0.69939286 -0.89039767 -0.21606548 -0.08299355 0.72270286 0.24029239 0.3623943 0.43720216 0.3990379 0.48908976 -0.06248681 -0.14861721 0.51860285 -0.4373123 0.76776874 -0.6995244 -0.27398205 -0.27740613 0.2930499
现在 0.57137275 1.0527998 0.29289475 -0.068872675 -0.13875958 -0.2384401 0.44873562 -0.52903086 -0.33554956 0.2854709 0.12570158 -0.54357344 -0.032358352 0.3989953 -0.41213152 0.15586688 -0.46897578 0.44453064 0.00192021 -0.63947666 0.40197888 0.07170944 -0.44824502 0.034909286 -0.35706306 -0.0030269958 -0.2235251 -0.018116586 0.21143411 0.34704378 -0.2621514 -0.68074656 0.43078196 -0.16866818 0.10423272 0.6737977 0.116890036 -0.25932503 -0.2149078 -0.18350606 -0.14944999 -0.44278347 0.28624743 -0.066241644 0.26526803 -0.48346913 -0.13197029 0.42337403 0.033808775 0.2189086 0.11646853 -0.44401574 -0.057729445 -0.2562983 0.0038545977 0.016708344 0.23058015 -0.13265827 -0.30630144 0.068584874 -0.32526156 -0.11892701 0.032339666 -0.52227765 -0.049476657 -0.06985101 -0.11323183 0.6207988 -0.14704788 -0.123672366 -0.08807196 -0.13994029 0.6097295 -0.36330146 -0.07718829 -0.019580794 -0.032556016 0.020538956 -0.67399853 0.061319172 -0.006339438 -0.43037346 -0.3426084 -0.010862065 -0.26381004 -0.28960204 0.2337239 0.5255425 0.22491448 0.17045851 0.2676039 -0.054354057 0.90660733 -0.3377195 0.5954984 0.081194654 -0.14826529 -0.1874061 0.12951073 -0.17971757
太 0.23275441 0.27124506 0.23234017 0.0015902682 0.6872035 -0.09326383 0.25118873 0.35671338 -0.6842646 -0.40821567 -0.42275873 -0.3354185 0.37686434 0.24552052 -0.36171353 -0.19347599 0.24775682 -0.18284006 -0.134281 -0.37260038 0.010395118 0.86662865 0.46521792 -0.46939716 -0.76564986 0.027454369 -0.27371472 -0.11175123 0.07694819 0.61717594 -0.0799981 -0.24985856 1.0286831 -0.4131691 -0.0948033 -0.056823336 0.07120481 -0.011737321 -0.11040336 -0.98866904 0.18507102 0.15168607 -0.12366531 0.593254 0.1025291 -0.17498758 -0.15138787 -0.020795176 0.041691545 0.028649671 -0.031236365 0.23934312 0.26986748 -0.08577636 -0.33285117 -0.36011127 0.3055493 0.4217881 -0.0073400023 0.65595436 -0.093141206 0.50358456 0.23083149 0.16824636 0.09654705 0.12405888 0.3291697 0.56774455 -0.375317 -0.016411182 -0.8901969 0.47724587 -0.23037036 -0.43348545 0.6481773 0.42604992 -0.02816661 -0.016764566 -0.22368728 0.18424848 0.28313148 -0.34751958 0.44639814 -0.34253362 0.30918124 0.36384398 -0.2028946 -0.4276502 -0.044322353 0.194235 -0.013803584 0.44735664 0.5681659 0.044785406 -0.06191302 0.119968876 0.037474364 -0.3105242 -0.41314027 0.15403369
[加油] 0.19804768 1.1253725 -0.15695736 -0.015415223 0.06753823 -0.27303705 0.3965141 0.95765644 -1.0263307 -1.0675325 0.43827638 -0.47214192 0.4056384 0.29319966 -0.38990852 -0.98306686 -0.25142804 -0.44872895 0.38997638 -1.0938752 -0.50193703 0.5864588 0.1926391 -0.45159084 -0.5148312 0.30691496 -0.15513721 -0.24811696 -0.8502129 -0.05580552 0.46608582 -0.44155675 0.46727404 0.04556746 0.17283943 0.26493424 -0.25850093 -0.28635946 0.09164459 -0.34266692 0.6785278 -0.40758884 0.2307726 0.11610847 -0.61554754 -0.31895316 -0.42356586 -0.8183902 0.43095008 0.019595794 0.034771193 0.050738595 -0.2668964 0.79681563 0.32568857 -0.5825146 -0.53333116 -0.7894077 0.005334204 -0.28994685 0.83763057 0.9341035 -0.25628984 0.22451214 -0.48261586 0.6147157 0.71164614 0.5008208 -0.61808187 0.31787676 0.31545419 0.39494175 -0.12408186 0.8432194 -0.10311751 -0.05713581 -1.0616887 0.14787121 -0.47009107 -0.029122146 -0.4362633 0.89245296 -0.7436975 0.9139038 -0.110923894 -0.58981687 0.23961632 0.2482362 0.12480636 -0.25110212 0.29075706 0.18193324 -0.9901807 0.33632505 0.026112821 0.42466503 -0.16220821 -0.07358802 0.0017447497 0.3679312
防疫 -0.065732375 -0.01236298 -0.24152367 -0.11942967 0.41638115 -1.0844375 0.3457948 0.4930073 -0.8665554 -1.4244376 -0.19639727 -0.45467234 -0.07688876 -0.2351229 0.4969083 -0.5044784 0.30706924 0.17490298 0.16719103 -0.46206307 -0.052152567 0.31074703 -0.6963178 -0.44732472 0.49340764 -0.021730194 -1.1488326 0.29795867 -0.24711502 0.14081624 -0.091435336 0.0076621547 -0.47176266 0.2500578 -0.9290111 0.62420106 -0.8758008 0.107792504 -0.65988314 -1.1744225 -0.61915994 -0.3683222 0.57603174 0.18538581 -0.267299 -0.6085258 -0.7204656 -0.26546335 -0.38670513 -0.28547367 0.40326306 -0.9145995 0.2831392 -0.020138204 0.11671247 -0.42038885 0.16166016 -0.3102315 0.72913253 0.3000713 0.4895554 0.115366556 0.6399967 -0.35825622 -0.34461576 0.05767785 -0.36540487 -0.08016354 -0.18189117 0.10853318 -0.04941173 0.5099926 -0.016573293 0.011411332 0.19173808 -0.3178127 -0.2669786 0.12655984 -0.19456193 0.05443696 0.061520018 0.36694556 -0.97388387 0.52942497 -0.13834833 -0.052174907 -0.40963864 0.1705425 0.082922004 -0.043208923 0.3399919 -0.24477614 0.23277171 0.52514005 0.18874875 0.2686996 0.034825306 -0.5395152 0.2014707 -0.5904062
全国 -0.16241817 0.26121235 -0.23836656 0.54172665 0.19573282 -0.18671988 0.11419867 -0.020038983 -0.5346876 0.20708738 -0.3034192 -0.84539264 0.1196365 -0.21044195 -0.019035948 -0.17068928 0.7274726 -0.32997352 0.10053663 -0.1506325 0.33541086 0.011559223 0.18262087 -0.1431942 -0.6754492 0.50023896 0.34650353 -0.027407946 -0.38639227 0.005979924 -0.14229901 0.16315587 0.28253552 0.07871132 0.014976959 0.354989 -0.22609752 0.3004974 -0.35798523 -0.14805725 -0.20107304 -0.12513176 0.563804 -0.09402412 -0.30023423 -0.12110667 -0.24583879 -0.11422688 0.33778748 0.5094945 0.18163353 -0.30376738 -0.7195773 -0.15645553 -0.39361897 -0.026023217 0.5563058 -0.35952783 -0.22088552 -0.26222926 0.61293834 0.27878234 -0.006272012 0.09214819 0.0021160492 -0.4520748 0.59634113 0.46617246 -0.49064505 0.23025542 0.52021843 0.7596421 0.019230524 0.63218844 0.48959363 0.82786304 -0.043834675 -0.100879505 -0.15681374 0.26161125 0.40062976 0.63758355 -0.02239256 0.19792227 0.15149565 -0.21937726 0.5771378 0.37487444 -0.025118282 0.37253252 0.4917567 0.6306655 -0.011046248 0.32796243 0.29606766 0.41405487 0.12552723 -0.12690929 0.09292641 -0.49501172
战 -0.14681229 0.0013008241 0.15508804 0.06453042 0.7884383 -0.60186774 -0.24458636 0.74245244 -1.0124238 -1.0456679 -0.27360657 -0.1382509 0.937506 -0.067345664 0.47566137 -0.8321603 0.43817648 0.40014008 0.39887366 -0.88746655 -0.35688096 0.06269839 -0.31889272 -0.18413176 0.32376292 0.053426493 -1.2021747 0.30162847 -0.4112809 0.25094613 -0.25878385 0.318063 -0.49991402 -0.482277 -0.59234196 1.2651217 -1.5207483 -0.5617468 -0.5389327 -0.9464412 -0.8490586 0.03312698 0.54657835 0.22092055 -0.019925147 -0.2878351 -0.9425281 -0.6466942 -0.34066522 -0.4082426 0.45001772 -1.0269716 0.49931192 0.10821038 0.5408175 0.3846393 -0.0880388 -0.37257573 0.54100144 0.23433602 1.0992789 0.05253136 0.7477607 -0.5452598 -0.74114215 0.32119584 0.0081303 0.0119079985 -0.458203 0.23083985 0.4603547 1.053932 0.03524351 -0.1376286 0.11981153 -0.10447 -0.58826 0.25127512 -0.1800041 -0.05830188 0.061874587 0.093047835 -1.0661533 0.71601224 0.6014265 -0.4880833 -0.2930084 1.0294667 -0.14969718 -0.11486303 0.20377421 -0.12215793 0.6719283 0.4642104 0.39364675 0.16338229 -0.24685141 -0.15093756 0.48028156 -0.039528012
最 0.26695016 0.09762584 -0.12020465 -0.01073332 0.27631545 -0.50979143 -0.29521543 -0.1443605 -0.26360813 -0.10348494 -0.33769104 -0.67194057 -0.09573102 0.028707704 0.23892197 -0.34153846 0.82921916 -0.14281704 -0.0801566 -0.08150483 0.07416389 0.21363011 -0.4686859 -0.90521806 -0.10548006 0.22764209 -0.31062874 -0.21273468 0.1543396 0.5233275 -0.15655822 -0.09032662 -0.1680824 -0.7435767 0.5867661 0.84054065 -0.573954 -0.08855822 -0.8391633 -0.62645835 0.53044194 -0.102326415 -0.066800125 0.42677101 0.08151849 0.33556527 -0.37445349 0.22555459 0.10397861 0.36205596 -0.15206718 -0.21839687 0.51724464 -0.059224464 -0.58818114 0.20749123 -0.3543345 -0.099805504 -0.4363526 -0.5281236 0.25238422 -0.14034322 0.14500104 0.15016295 -0.07376414 0.6811901 0.12677154 0.07717671 -0.2981867 -0.17978528 -0.03603544 -0.50774294 -0.45150617 -0.0026555313 0.50136733 -0.05674012 -0.3962968 -0.46839494 -0.4737819 -0.35651153 -0.63608176 -0.32454222 0.10618472 -0.022964593 -0.46713015 0.19591208 -0.040105455 -0.4407202 -0.3933721 0.16103065 -0.21096113 0.19818728 -0.0074299756 0.060503986 -0.15169314 0.32306173 0.017209537 -0.30323145 0.2678785 -0.6167397
封 0.16679431 0.11887746 0.5767507 -0.34838045 -0.05022299 -0.12632771 0.726199 0.7509728 -0.3783016 0.6268657 -0.70461327 -0.55807513 -0.45178697 -0.21820566 0.3123335 -0.4259946 0.18898797 -0.1280173 -0.5921047 -0.15309626 0.18266986 0.15638758 -0.034880664 -0.95460117 -0.24321055 -0.016554061 0.106791936 0.21699789 0.14388694 0.09964996 0.30479994 -0.5704759 -0.02476208 -0.11222368 -1.0499678 -0.105895445 -0.02827653 0.06080841 0.22546238 0.06565513 -0.8669871 -0.4616458 0.55468565 0.51888067 0.14838971 0.1011477 0.5276985 -0.013546392 -0.2427507 -0.029366186 0.613047 -0.32158706 0.19948016 0.03754126 -0.27070016 0.12977889 -0.27073574 -0.6720882 -0.120609365 -0.8060567 -0.08520779 0.32111815 0.06863982 -0.12797867 0.02498385 0.3190119 0.026252845 0.3611532 -0.25284106 -0.3782611 -0.31722254 -0.07976084 0.3443532 0.19843204 0.5717722 0.60989404 -0.42933306 0.5122002 -0.30227003 0.29389 -0.24496964 -0.118061714 -0.64702296 0.28090897 -0.27698156 0.19808395 -0.038871057 -0.2524667 0.31855163 0.35581163 -0.007969408 -0.13092864 0.67470527 -0.67409325 0.6714168 0.04678386 0.21659964 -0.5797271 0.025338475 -0.4146078
. -0.20573065 0.45387453 0.6758747 -0.24990007 0.05448648 -1.0261997 0.031501357 1.1944888 -0.3080128 -0.023940664 -0.26262945 0.20765829 -0.02076076 -0.18527497 0.056737993 0.1676938 0.19453748 0.11814329 -0.60663515 -0.34829208 0.2629539 0.6623126 -0.4181945 0.24725455 0.23522724 0.09801436 -0.25646827 -0.30298525 -0.17683455 0.82663244 -0.44065502 0.2872013 -0.30865029 -0.13360207 -0.11932295 -0.23047398 -0.17416853 0.3778605 0.27359405 -0.46205175 -0.12075602 -0.5502105 -0.29337534 0.6407719 0.25172436 0.4780253 0.1037138 -0.34717748 -0.47586203 1.0239962 0.010092462 -1.1617911 0.22311242 -0.18026558 -0.16592346 -0.045150533 0.6256845 0.53286326 -0.05883543 0.1596765 0.077689216 -0.5267678 -0.65049744 -0.44535795 0.01816604 0.7109014 0.5015932 0.43105978 -1.094174 0.37032235 0.61162704 -0.12914819 0.8024901 0.6578873 0.27335918 -0.55494994 -1.2235447 0.5235931 0.51086205 -1.1578027 0.017242838 0.328432 0.15929106 0.48120007 0.23076399 -0.05284121 0.23411196 0.1637404 -0.18517266 -0.73518336 0.68802696 -0.13142912 -0.6303921 0.27500308 -0.6069434 0.5856256 -0.06219307 -0.5544802 0.031161373 0.90520865
控 0.25667256 0.632194 -0.28912473 0.18172845 0.020771017 -0.0024116398 0.15482557 0.10622109 -0.6160117 -0.1911508 -0.47643918 0.024376178 -0.64319533 -0.18211575 0.6701058 -0.48635778 0.646477 0.24200934 -0.06238023 -0.58853185 -0.030533286 0.66928464 0.017154315 -0.50879896 0.023078866 -0.08565202 -0.7244466 -0.328216 0.5223281 0.5755202 -0.16360433 0.2544005 0.87550634 -0.05762148 -0.13722035 0.8015355 0.42233098 0.17315364 -0.08140481 -0.16313279 0.041394066 0.7878421 -0.06918593 -0.36654383 -0.25688738 -0.5926657 -0.9608929 0.20388368 -0.13772415 0.032440297 0.22960792 0.083245695 -0.1836101 0.38236243 -0.47699723 -0.70376503 0.7416974 -0.15102473 0.5998754 -0.10944135 -0.03521546 0.52863336 -0.2945899 -1.0311569 0.02257788 0.00077934173 -0.15404768 -0.09264652 0.007435453 -0.111776255 -0.1543433 0.10655822 0.33649445 0.4148435 0.40499142 -0.10752183 0.23897822 0.7442422 -0.15369135 -0.73289734 -0.3106122 0.25000975 -0.4094524 -0.09130046 -0.2351116 0.10618292 0.116973884 0.24375309 0.5968394 0.25523752 0.15571667 -0.040520523 -1.0572282 0.14793558 0.90104806 -0.57021827 0.45242625 -0.60416985 0.09933681 -0.4531043
城 0.11472079 0.045142066 0.4162117 -0.5427883 0.01101749 -0.12207959 0.6354304 0.6108978 -0.3650443 0.7612449 -0.8037815 -0.5203767 -0.41584215 -0.19916686 0.50928944 -0.16843085 0.17829767 -0.17562947 -0.8051358 -0.29630157 0.44291776 0.15371774 -0.20074372 -0.9762757 -0.24490649 0.15203014 0.17212322 0.2076456 0.125461 0.08572723 0.28824902 -0.56093705 -0.05722005 -0.2577978 -0.99397576 -0.1767376 -0.16376801 0.19076096 0.2991846 0.012987932 -0.73668194 -0.31072527 0.46278083 0.5524879 0.088673785 0.2799114 0.67061985 -0.23853946 -0.032728314 -0.056539495 0.6338751 -0.3485227 0.2799664 -0.040166795 -0.22878873 0.13944422 -0.096096024 -0.92738307 0.08408949 -0.6285364 -0.14402391 0.30953133 -0.087930135 -0.12109346 -0.08905062 0.4407341 -0.060330033 0.32262582 -0.33952352 -0.5212458 -0.4475276 0.12143493 0.30479917 0.30466342 0.4426999 0.5822692 -0.45527074 0.36057484 -0.27752608 0.30158043 -0.3030727 -0.14887245 -0.5685572 0.27824923 -0.33084175 0.1312693 0.025672752 -0.22003917 0.14138386 0.45124617 0.08549426 -0.108829886 0.70365435 -0.6105935 0.6389554 0.19900993 -0.029351186 -0.53608793 0.17088142 -0.3019151
死 0.042413864 0.7071855 -0.16997787 0.15746197 0.13328253 0.1472221 0.86675227 0.42347714 -0.22562654 -0.35533586 0.4193528 0.12083661 -0.15187429 0.13232087 0.0143290395 0.12184212 0.82446784 0.33153757 -0.60451573 0.17896773 0.1976081 0.24709052 0.23047905 0.30013534 0.16384134 0.27019948 0.36792237 -0.03615321 -0.20338781 -0.10635186 -0.0962758 0.1719513 0.17445795 -0.5359505 0.019448528 0.4164699 0.36510605 -0.30542824 -0.21334687 -0.21410814 0.46590883 -0.9808776 -0.032337725 -0.7584681 0.2430711 0.24883188 -0.39371434 0.03259349 0.38829735 -0.14505798 0.5071845 -0.18919414 0.10750613 0.20560086 -0.18491696 -0.38883507 0.14434953 0.5368587 -0.021299748 0.027025742 -0.46970153 -0.23875871 0.08076569 -0.28494197 0.08407889 0.2956183 -0.13514362 0.46598312 -0.2645293 0.18915796 0.007905662 0.36004764 0.70131123 -0.15678748 0.17819843 -0.8419416 -0.4176319 -0.3196314 -0.6065436 0.61538064 -0.5589472 -0.41834328 -0.19321375 0.40511632 0.18419173 0.86798733 0.1667355 -0.33382276 -0.26387542 0.114131235 0.6220428 0.42519912 0.056300644 0.48997784 0.509448 -0.05741782 0.346781 -0.77493894 0.53499925 -0.48387623
防 0.26639867 0.38208392 -0.091585666 0.33086193 -0.31421366 -0.45061114 -0.1554075 0.17614472 -0.5280133 -0.27011657 -0.3830266 0.036750767 -0.35530394 -0.34471524 0.823936 -0.23818894 0.45246628 0.20319304 -0.15543424 -0.4495522 0.12596796 0.15092383 0.29786962 -0.5184367 0.4368604 -0.08507958 -0.5241198 -0.30211842 0.38996497 0.36138648 -0.020432778 0.37122852 0.40437537 -0.086773075 -0.037945736 0.65322924 0.48411968 0.45697668 -0.008689868 -0.37609333 0.14341621 0.8673299 -0.002486134 -0.47091448 -0.15945698 -0.39741218 -1.1453774 -0.06975502 -0.13827737 0.05535592 -0.14647312 -0.031700537 -0.27822754 0.75022864 -0.545502 -0.20211998 0.31666708 -0.24366634 0.60820776 0.13882583 -0.2782223 0.5993198 -0.4400295 -1.0975908 -0.07260677 0.31415716 -0.19505624 -0.23947275 0.20908168 -0.049828917 -0.5520502 0.27214453 0.39719173 0.4668506 0.14518623 0.3289681 0.030417092 1.0659647 -0.06633102 -0.63381404 -0.30749348 -0.2443955 -0.78910273 0.015695058 0.02895361 0.40958038 0.59137446 0.25117102 0.3090681 -0.013497101 0.4020719 0.19779928 -0.78021437 0.05975932 0.7238909 -0.35497165 0.42236048 -0.17606299 0.11579688 -0.22396554
中国 0.0028618523 -0.18716092 0.10539433 0.22725551 0.20704545 -0.61180735 -0.3961902 1.364569 -0.0023002129 -0.19032878 -0.5170308 -0.7031827 -0.24233983 -0.34992787 -0.33203003 -0.5937347 -0.59826607 -0.2978782 -0.010856036 0.1104859 -0.29747516 0.13526727 0.27788255 -0.7455004 0.10445903 0.09813632 -0.013695272 0.2755524 0.110929266 0.07257128 -0.15105 -0.34583566 -0.36102867 -0.5705351 0.07669019 -0.14748321 0.038813505 -0.25341928 0.18913601 -0.23454441 0.07242812 -0.39879295 0.28794798 -0.08050562 0.1369539 -0.42611971 0.11338159 -0.8985183 0.70534223 0.20570461 0.17674881 -0.13273238 -0.15090932 0.051096894 0.08146948 -0.78979033 0.4853003 0.13831227 -0.15162835 -0.27970836 0.09689706 -0.17730966 -0.7232862 -0.05527118 -0.22555546 0.20039913 0.25251716 -0.28493246 0.38405728 -0.15314293 -0.1736136 0.27442062 -0.50196415 0.50754 0.17780977 0.21253482 0.3548567 0.014228537 -0.6964442 -0.12017383 -0.19238125 0.5527682 -0.3961365 0.19820252 -0.5911696 -0.19224904 0.37342244 0.2978922 0.049736258 0.61644983 0.22992897 -0.25286433 0.4902112 -0.15517284 0.402944 1.0942782 -0.18794075 -0.6644584 -0.7584364 -0.86071277
（ -0.73338884 0.44867307 0.22710769 0.25817698 0.8110807 -0.41105118 -0.06223858 0.83424574 -0.28986892 0.2310853 0.0058369422 0.14866239 0.57339096 -0.28093192 0.8161275 0.15528284 0.053757522 -0.3176491 -0.1702968 -0.16196665 -0.34584773 -0.049705386 -0.5711746 -0.19808246 -0.7576104 0.4992618 0.17888288 0.14546168 0.33961383 -0.27655277 0.21357088 -0.7185662 0.10493693 0.17845877 0.51433223 -0.019629322 -0.059027366 -0.2019792 -0.17153499 -0.08663729 0.23487738 -0.61259574 -0.0827435 -0.53024715 -0.09837411 -0.15695325 0.06634829 -0.043246824 -0.014328337 0.7321111 0.36158407 -0.13004029 -1.047015 -0.2872954 -0.31844583 0.3202962 0.27560237 0.51499903 -0.38046828 -0.061787315 -0.102484256 -0.6363095 0.5845272 -0.72755075 -0.33481008 0.3313665 -0.43569362 -0.0222647 -0.39041185 0.29092687 -0.2031865 -0.650801 0.29505762 0.41978636 -0.21756041 1.07869 0.22677404 0.4456877 -0.60999936 0.10949416 -0.46972808 0.18279582 -0.5703685 0.12428881 -0.11439951 0.12979972 0.6930343 0.040990952 0.46784118 -0.079513125 0.41906452 -0.40273306 0.1776282 0.007437033 -0.23989186 -0.81911725 -0.17998573 -0.2625721 -0.57171464 0.3298115
日 -0.8145548 0.5101086 0.8876089 -0.059396375 0.99826247 -0.24047491 -0.3624189 0.44262266 -0.46068382 -0.5294795 -0.0975482 -0.6009755 -0.23286436 -0.238233 0.79882824 -0.25366786 0.51745665 0.039512664 0.2629113 -0.05802644 0.14464772 -0.07572405 0.23818971 0.3126992 -0.46977895 0.1304682 -0.059980158 -0.33747458 0.17503826 0.20884669 -0.25865823 -0.45812547 -0.36358565 -0.25938737 0.21389697 0.4352577 0.23273039 -0.2501905 0.07625672 -0.031044025 -0.08172428 0.08437499 -0.5306663 0.21289466 -0.26547882 -0.28531978 -0.067821264 0.48664218 1.0018692 0.1602979 0.19901924 -0.29504967 0.13280155 0.033763174 -0.6144331 0.15661234 0.38521135 0.08575548 0.18498631 -0.6216033 -0.405146 0.16283733 -0.12424531 -0.71527636 -0.7538462 0.059581716 -0.085374884 -0.15310763 -0.2361223 1.3515464 0.4166892 -0.48127383 0.04126357 -0.33275217 0.31044328 -0.046808656 0.036041208 0.87262964 0.12485686 -0.30253288 0.20803806 -0.28594196 0.040103015 -0.22026907 -0.03964744 -0.009893846 -0.43611628 0.36038485 -0.040167212 -0.53924704 0.10092408 -0.021030229 0.45942453 0.2042225 0.064765245 0.31327406 -0.1140148 -0.35174382 -0.1071736 -0.30998874
） -0.8514079 0.44423866 0.22658981 0.36150548 0.88473004 -0.2635074 -0.035542842 0.9862119 -0.29841307 0.056758218 0.051103447 0.023496496 0.6641808 -0.12567465 0.6599924 0.012815851 0.31535673 -0.30075994 -0.31621647 -0.03509553 -0.58434224 -0.09780075 -0.5058023 -0.12654327 -0.6886842 0.7303353 0.14579019 -0.053501695 0.5409007 -0.28707 0.24282162 -0.5709921 0.1346301 0.19817828 0.39329755 0.03290464 -0.02171104 -0.14009413 -0.13525829 -0.19277318 0.32309547 -0.73038054 -0.15784638 -0.5367956 0.10533339 -0.013431202 0.07637501 -0.111425176 -0.18665986 0.7351759 0.39721954 -0.0071204887 -1.2076675 -0.2528351 -0.160709 0.43940893 0.07500993 0.3524967 -0.27977112 -0.14902933 -0.05753618 -0.86276346 0.52467227 -0.75154585 -0.3282328 0.18425821 -0.49591085 -0.099536546 -0.38323385 0.2124223 -0.13364188 -1.0946771 0.28268394 0.35085717 -0.037494443 1.0524023 0.20640399 0.38401243 -0.39125493 -0.003698521 -0.44787022 0.14150818 -0.5668054 0.071154274 -0.2060624 0.13464047 0.46802214 0.0675928 0.59859955 0.026410082 0.42964357 -0.4315031 -0.18122917 0.16914006 -0.12520482 -0.8410885 -0.19387038 -0.48315752 -0.6254588 0.2698026
医生 0.122494936 0.3286136 0.6178457 0.471491 -0.28710234 -0.98143697 0.26537684 -0.037003607 -0.5010598 -0.5859142 0.33423936 -0.35932955 0.5410182 -0.2638887 0.09300417 0.3383319 0.76406497 -0.45286497 -0.009335049 -0.6857278 0.33930007 0.18084472 0.07325393 -0.21837357 -0.10135869 0.024745323 0.020179924 -0.22884628 -0.6129794 0.70390147 0.19246784 0.039091997 0.07509728 -0.17258027 -0.13626188 -0.047737062 0.021904306 -0.20644951 0.14246432 0.14272021 -0.42498285 -0.8179509 -0.16528562 -0.08178972 -0.064086206 -0.11378682 0.39109814 0.19218428 0.9700465 -0.15609653 -0.3593808 -0.010486226 0.56552565 -0.20902702 0.8462898 0.11178518 -0.33453703 -0.24537894 -0.5633207 0.17080647 0.20690165 -0.29150614 0.62717766 0.25131583 0.4078365 -0.21357535 -0.17804286 0.18481152 -0.39415634 -0.16925721 0.14424597 0.23991522 0.059827622 -0.46604142 0.59555715 -0.21585006 0.33453304 -0.16527219 0.076090105 -0.6186966 0.1743322 0.6029046 -0.6155399 0.116791315 -0.069219716 0.21013913 0.2024347 0.4831935 0.21432076 0.30188966 0.83250034 -0.17083791 -0.3170556 -0.18037823 0.7515485 0.64451104 -0.41007924 -0.11515383 0.123422 -0.3295633
隔离 -0.15054199 0.81663495 0.1624639 0.023286883 0.48202083 -0.21018372 0.58217084 0.70223826 0.0980636 0.1638274 -0.6049534 -0.37865826 0.31579027 0.17730053 0.032725446 -0.076729074 -0.7097628 -0.16105482 0.5269779 -0.4074763 -0.15920149 0.19715478 0.24105577 -0.5502948 -0.4639342 0.17134345 -0.0072922986 -0.21884821 0.056232523 0.24396099 -0.2851183 -0.4934303 0.3109503 -0.12226085 -0.4437335 0.15363064 0.15868178 -0.60335016 -0.06742047 0.2106182 0.32498753 -0.39105555 0.044244077 -0.26989305 -0.05957404 0.6444967 -0.30621123 0.10572238 0.5687822 0.117464125 -0.29619557 -0.6190902 -0.26804802 0.43370414 -0.35503924 0.43443188 0.2839914 0.4753288 -0.43849847 0.5373421 0.15879697 0.32134706 0.1407363 0.07626546 -0.0061562215 -0.16677932 -0.2940068 0.010314744 0.00517876 0.30564368 0.67748123 -0.28183106 0.31810564 0.3090358 0.31401205 0.6041448 -0.10691337 -0.17012587 0.38366902 0.0062997597 -1.2271726 -0.42832083 -0.9752945 0.33404985 0.08746936 0.23836587 0.47876886 0.15775357 0.1529921 -0.13860293 -0.20628506 0.24553764 -0.078671575 -0.05677073 0.03474459 -0.31784928 -0.42700055 -0.16100234 0.4046874 0.44222912
月 -0.31211567 0.4668231 1.0458003 -0.15937905 1.02728 -0.61766493 -0.25537747 0.4319594 -0.59981996 -0.3322324 -0.42153946 -0.7604369 -0.038873035 -0.15484956 0.6074282 -0.028033745 0.14152204 -0.026143854 0.2770935 -0.18303564 -0.15202725 -0.13773534 0.42815736 0.088827476 -0.52918553 0.28363577 0.051642235 -0.30449376 -0.117822066 0.10143475 -0.034256298 -0.7207443 -0.20674103 -0.1969888 0.17219166 0.053240325 0.34817347 0.0965595 0.14433844 -0.015531479 -0.024151107 0.0953181 -0.18861154 0.01459027 0.11863908 -0.014568657 0.09456486 0.6524384 0.96604574 0.18549292 0.37474087 -0.498497 -0.037616033 -0.3804907 -0.42760643 0.32905915 0.15469782 -0.08511595 0.28735006 -0.08436439 -0.19088472 0.02264852 0.0077113337 -0.42789927 -0.6353777 -0.106883384 0.16820478 0.2944971 -0.2917935 0.8958353 0.17155123 -0.50665194 -0.4110675 -0.036568966 -0.0029077714 -0.28735605 0.45116794 0.98526865 0.03765965 -0.69835895 0.120988585 -0.27078637 -0.06482498 0.0008381059 0.09940924 0.25774562 -0.10076137 -0.09078768 -0.042835742 -0.43686777 0.19660449 0.04627349 0.4788941 0.5446085 0.123544365 0.50363046 -0.5556532 -0.34974992 0.03167321 -0.3822733
次 0.03087931 -0.015207872 0.22605453 -0.20704547 0.39134416 -0.12954234 0.48965776 0.26672417 0.06536552 0.7419652 -0.027437503 -0.0032825535 0.025859442 0.54760665 0.21504626 -0.3111166 -0.05107883 -0.2079191 0.36105618 -0.48176083 0.2346225 0.08825688 0.113434434 0.05280805 -0.14275947 0.3813074 0.085628435 -0.7442779 0.69952464 0.33791533 -0.20035295 -0.08925974 -0.09722347 0.49023294 0.4379102 0.37147644 -0.07001926 0.25150397 -0.5103092 -0.48122796 -0.09223871 0.11106376 -0.041616492 0.10743265 -0.16719145 0.1923429 -0.3212689 0.34073457 0.3643573 0.47647884 0.36266285 -0.58265305 -0.6243603 -0.0304264 -0.5889457 -0.36228946 -0.21398698 -0.25242433 -0.3502139 0.39232484 0.05650164 -0.17555544 0.20726895 -0.34248868 -0.31289676 0.025051674 -0.15175037 0.3767578 -0.010763285 0.002504069 0.00830921 0.80416745 0.45658866 -0.079025805 0.48533204 -0.17598936 0.06034623 0.15984027 -0.094987065 0.4439551 0.06776771 0.6602522 -0.3412458 -0.1103141 -0.36585006 0.15109704 -0.18842867 -0.3215354 -0.08355407 -0.043307047 0.4121131 -0.08062531 -0.577837 0.18664022 0.9482608 -0.40665898 0.004108563 -0.42020395 0.3737528 0.05809907
点 -0.18602903 0.112570666 -0.07494027 0.10484425 0.45084018 0.25452334 0.32686672 -0.15000993 -0.27174035 -0.52747136 -0.690947 -0.30174005 0.51629245 -0.1437413 0.08170248 -0.24384992 0.10974671 -0.45657226 -0.3453338 -0.4549026 -0.18041228 -0.017298443 0.07545009 0.080771 -0.63594544 0.019422844 0.21093032 0.019755665 -0.053535514 0.39048362 0.085792765 0.2681137 -0.08390809 -0.032585785 0.16572793 0.016548323 0.2259249 -0.07521424 0.19281809 -0.5231901 -0.2614946 -0.059273235 0.10264504 0.022439629 -0.08051879 -0.15518297 0.5482175 -0.25040445 0.23297414 0.14663322 0.14661764 -0.23232353 -0.32178867 -0.22283359 -0.3609028 -0.18205829 0.56004673 0.3155752 -0.07219875 -0.46436974 -0.2507467 0.13692099 0.21892618 -0.3224396 0.20786375 -0.04920925 0.82316697 0.049861807 -0.25686327 0.24762341 -0.20901224 0.26292422 0.20911759 -0.60531795 -0.048711438 -0.020379907 0.13883787 -0.40432727 -0.55820173 0.043499455 -0.459575 -0.031030176 -0.03891924 0.31573185 -0.30267328 0.43360505 0.17365074 0.2653013 0.3354551 0.19610213 0.041591194 -0.09351197 0.18606314 0.250598 0.015270936 0.17576215 -0.32098505 0.07719741 0.82941985 0.28417805
战斗 -0.37404752 -0.2840349 0.3417333 0.12620386 0.22138229 -0.29005948 0.08658685 0.6560294 -0.29865703 -0.35794935 -0.45461714 -0.87502736 0.18342704 -0.057765894 -0.40134522 -0.6358712 -0.024622146 -0.6266651 -0.5569974 -0.43920955 0.48905373 0.9920927 -0.9641886 0.045195673 0.26452821 -0.3754874 -0.07355846 0.14918172 -0.8370877 -0.31311572 0.16125362 0.41570464 -0.3228561 -0.15008393 -0.42394853 1.0848713 -0.9663237 -0.13088319 0.07660279 -0.28627154 -0.16385666 0.22509019 0.59810805 -0.05042156 -0.0071316813 -0.371772 -0.3668646 -0.33352363 -0.10001155 0.21452093 0.13220699 -0.49154988 0.18633094 0.04788445 0.08501128 0.6605611 0.18918803 -0.0032551833 0.24949269 -0.0012288503 0.5773844 0.99236757 0.09691786 -0.399934 -1.5929419 0.68107563 0.28628916 0.73021066 0.09292913 0.34696898 0.40438926 0.51978385 -0.019620588 -0.08517209 0.2533299 -0.017224055 -0.5326469 0.30662134 -0.5623533 -0.661236 -0.7475406 0.72184825 -0.9245646 0.14460625 -0.037107088 0.38144055 -0.13727622 0.32213956 0.33090678 0.25208074 0.6642475 0.049100466 -0.5430217 0.40675268 0.15933667 0.2688889 -0.44667494 0.14383084 0.47162122 -0.06869025
更 0.27848607 0.02614354 0.2742274 0.3092561 0.22385284 -0.33571061 0.18215723 0.148266 -0.3745063 -0.07600562 0.118779406 -0.22852555 0.09445467 -0.281327 0.042851992 -0.47296783 0.053245768 -0.5472335 -0.5400122 -0.55671906 0.100691035 0.3810148 0.0010962775 -0.098478705 -0.55563277 -0.020000923 -0.36380127 -0.05969265 0.09369961 0.3411989 -0.07520741 -0.44794387 0.10043537 -0.21417403 0.19019999 0.2909898 -0.42181525 0.0826763 -0.29404682 -0.39568543 -0.6641553 -0.5093844 -0.4908584 0.5112927 0.21221189 0.35314482 -0.3721357 0.14468578 0.4494589 0.046599623 -0.55655414 0.3643701 0.16978204 0.28862062 -0.37542683 -0.3920778 0.5346612 0.05997863 0.22913846 -0.34354377 -0.28056318 -0.44086638 -0.08194307 0.124742165 -0.38981444 0.11734468 0.043899 -0.095264345 0.11260323 -0.25124875 -0.09590887 -0.17160848 0.031720757 0.20207737 0.052763734 0.22038579 0.2021809 0.24983628 0.19064096 -0.3042991 -0.39439276 -0.13472404 -0.21929042 -0.21016066 0.35019016 0.38945732 -0.010738448 -0.12738052 0.23642218 0.094885185 0.08313758 0.5218528 -0.34443712 -0.31031144 -0.17156567 -0.32494286 0.1375123 -0.050487347 0.22548619 -0.2680712
出 0.18591085 0.38969246 0.9756965 0.020598922 0.39975536 0.21690218 0.6487062 0.1576116 -0.5693698 -0.74521524 0.33224845 -0.23495091 -0.35842684 -0.4380165 -0.031817682 0.16214316 0.114454724 -0.3239679 -0.29983217 -0.14039582 -0.29088715 0.12471146 -0.36804235 -0.58888316 -0.5647958 0.11045009 0.1495056 -0.10428713 0.29823172 -0.20786874 -0.13858826 0.02097392 -0.091173254 -0.20539789 -0.01168377 0.6530934 -0.32582736 0.015245355 -0.6853688 -0.31266287 0.23828785 0.03868717 -0.42371136 -0.69697964 0.046882518 0.27551234 -0.46532992 -0.072045796 0.12067931 0.41980904 0.34521127 -0.12830244 -0.15377924 -0.05364955 0.38543367 0.28704113 -0.41354972 0.19974063 -0.3224878 -0.29991338 0.0063825725 -0.16548856 0.07225126 0.15057324 -0.09221556 0.33481902 -0.18681687 0.6775473 0.56919646 0.056039646 -0.72653264 0.283691 0.28492802 -0.69930935 0.44543886 -0.56074136 -0.37383845 0.017005924 -0.31680354 0.15537943 0.1633769 -0.14065424 0.13829187 0.5816242 0.18315043 -0.17640205 0.6829456 0.017667757 0.51234627 0.045577962 -0.15092231 0.16401963 -0.14459853 0.50228256 0.12027095 -0.58669245 0.20008826 -0.529871 0.10392878 -0.33770835
工作 0.47086692 0.5803211 0.5096778 -0.13527387 0.2787258 -0.2825154 0.008113321 0.31501925 -0.00097281794 -0.120369926 -0.596425 -0.22960636 0.010772525 -0.13381596 0.25237828 -0.073588766 0.33709773 -0.29080114 0.42371213 -0.6460315 -0.25597286 0.2712355 -0.6542786 -0.3918889 -0.239757 0.45295513 -0.27486956 -0.20666704 0.03903233 -0.20991538 -0.08605412 -0.10804256 0.34167558 -0.090646155 0.02291475 -0.13436165 0.30295116 0.34197536 0.51586306 -0.430344 -0.28800958 0.6394265 0.043300748 0.07353284 -0.49890345 -0.48674712 -0.49803796 0.5152936 -0.069287725 -0.0063397167 0.4241707 -0.3106236 -0.17703451 -0.026715904 -0.027328353 0.24659427 0.15722552 0.48644912 -0.3258895 0.113935344 -0.22905114 0.3148854 -0.19264895 -0.39710376 0.2226876 -0.16725166 -0.027143354 0.13938977 0.09458324 0.3031419 0.26634374 -0.019943135 -0.28815758 0.36962593 0.097388916 0.35698414 0.50959903 0.25140327 -0.5179111 -1.1517361 0.11539956 0.11313195 -0.74369633 -0.016544802 0.16493416 0.2841819 0.16340733 0.42044783 0.059839617 0.4283487 0.28980938 -0.01920919 0.17466128 0.56424826 0.7951299 0.23599811 -0.8983471 0.20492 0.467916 -0.07292817
